tree
version=v3
num_class=1
num_tree_per_iteration=1
label_index=0
max_feature_idx=99
objective=regression
feature_names=x0 x1 x2 x3 x4 x5 x6 x7 x8 x9 x10 x11 x12 x13 x14 x15 x16 x17 x18 x19 x20 x21 x22 x23 x24 x25 x26 x27 x28 x29 x30 x31 x32 x33 x34 x35 x36 x37 x38 x39 x40 x41 x42 x43 x44 x45 x46 x47 x48 x49 x50 x51 x52 x53 x54 x55 x56 x57 x58 x59 x60 x61 x62 x63 x64 x65 x66 x67 x68 x69 x70 x71 x72 x73 x74 x75 x76 x77 x78 x79 x80 x81 x82 x83 x84 x85 x86 x87 x88 x89 x90 x91 x92 x93 x94 x95 x96 x97 x98 x99
feature_infos=[-10.389643:11.40466] [-12.266646:15.209567] [-9.0198359999999997:17.494726] [-10.2262:11.443974000000001] [-5.0840649999999998:5.9391930000000004] [-10.398553:7.9498829999999998] [-27.869446:18.587671] [-10.018095000000001:7.2188616000000003] [-8.6739645000000003:7.5378838000000004] [-11.599138999999999:13.645001000000001] [-26.663772999999999:27.961212] [-4.8524345999999996:6.1888265999999996] [-6.3669704999999999:8.6732010000000006] [-5.6719920000000004:5.0597180000000002] [-13.327038:13.819642] [-9.816751:10.693419] [-1.0104454:1.0212045999999999] [-8.2012619999999998:8.9172460000000004] [-2.3451876999999999:2.3772275] [-8.4329359999999998:6.5129843000000003] [-1.4318628:1.4678268000000001] [-1.0427138:1.0232848000000001] [-1.0058735999999999:1.0199113] [-9.0985709999999997:9.5752039999999994] [-3.5443994999999999:3.6051435000000001] [-1.4604305:1.5203150000000001] [-12.139716:12.784757000000001] [-6.1569475999999996:8.0677269999999996] [-6.1055130000000002:6.71143] [-29.338360000000002:27.240542999999999] [-3.9113547999999998:4.0514200000000002] [-12.018281:12.312346] [-8.9514220000000009:12.678822] [-1.4711177:1.5445571] [-2.5055274999999999:2.5356277999999999] [-1.0647850000000001:1.0623899999999999] [-3.8373632:4.1485485999999998] [-4.5437820000000002:3.9478314000000001] [-10.084731:10.967725] [-5.3148669999999996:7.6066229999999999] [-2.3701903999999998:2.3481480000000001] [-12.56596:10.235652999999999] [-1.4784318000000001:1.5760008999999999] [-3.8910813000000002:5.0542239999999996] [-14.079602:6.9891553000000002] [-4.1087020000000001:4.2719849999999999] [-9.9137880000000003:13.095827999999999] [-2.4491329999999998:2.4519193000000001] [-2.4205595999999998:2.3572829999999998] [-6.9895209999999999:9.2254500000000004] [-12.233074:7.6676359999999999] [-2.3344548000000001:2.3046730000000002] [-8.9078040000000005:8.9873740000000009] [-2.4427970000000001:2.3747767999999998] [-19.871672:10.516862] [-2.4373524:2.3812175] [-2.3319252000000001:2.3399003] [-25.155110000000001:30.03539] [-10.384088999999999:6.0710959999999998] [-2.3334625:2.3496583000000002] [-8.7938580000000002:7.7488720000000004] [-7.6747084000000001:10.191345999999999] [-9.3833500000000001:8.5578780000000005] [-2.3308089999999999:2.3542087] [-2.3056405:2.2564662000000002] [-9.2559780000000007:6.9210279999999997] [-2.1680220000000001:2.134779] [-2.4078781999999999:2.4074295000000001] [-2.1667117999999999:2.1110085999999999] [-2.3382046000000001:2.3343980000000002] [-2.1711844999999999:2.0795157] [-10.0504:7.3480252999999998] [-2.3265996000000002:2.2674026] [-26.976486000000001:44.956367] [-2.1537693:2.0594739999999998] [-7.5897245:5.9486213000000001] [-8.1723470000000002:8.6313010000000006] [-5.3294980000000001:7.7573604999999999] [-9.4191020000000005:8.3685469999999995] [-4.9844831999999997:5.0633844999999997] [-3.4904826:3.4038126000000002] [-0.94026094999999998:15.365024999999999] [-2.6620352:2.7018056000000001] [-1.363073:9.4847570000000001] [-1.3761715000000001:14.156568999999999] [-0.98899614999999996:16.274965000000002] [-3.6850163999999999:3.6301519999999998] [-1.4216523000000001:34.408478000000002] [-4.4576025000000001:4.0801369999999997] [-4.0258180000000001:3.9614950000000002] [-0.9844311:19.821912999999999] [-1.5393981000000001:20.390357999999999] [-2.7906556:2.6212605999999998] [-0.53560110000000005:88.621269999999996] [-1.6086605:15.580272000000001] [-2.8713397999999999:2.4361820000000001] [-1.066103:10.22339] [-0.53987426000000005:35.772666999999998] [-0.97137320000000005:25.142434999999999] [-2.8120408000000001:2.7694485000000002]
tree_sizes=3177 3157 3150 3147 3132 3128 3146 3147 3159 3148 3116 3126 3127 3114 3155 3162 3143 3101 3145 3134 3133 3113 3108 3086 3103 3091 3108 3102 3042 3117 3129 3113 3073 3103 3079 3048 3114 3100 3097 3041 3079 3037 3088 3063 3078 3080 3028 3070 3051 3074 3125 3082 3089 3076 3082 3078 3033 3046 2996 3047 3017 3031 3058 3060 3087 3081 3025 3074 3084 3083 3039 3040 3081 3003 2952 3024 3026 3039 3078 3054 3012 2979 3061 3055 3069 2955 2963 3050 3005 3001 2974 2986 3008 3041 2971 3053 3020 2967 3018 2982 2971 3111 3010 2990 3059 2934 2905 3031 2932 2992 3043 2944 3023 3025 2956 2990 2983 3016 2964 3009 2999 2961 3079 3028 2979 2992 3008 3046 3005 2962 2975 3001 3025 3063 2925 3000 2995 3090 2931 2885 3022 2931 2931 2915 2949 2973 3070 3092 3004 2986 2969 3028 3000 2913 2929 2951 3006 2984 2995 3034 2952 2989 2963 3021 2928 2976 2916 2984 2860 3002 2977 2988 2912 3014 2998 2958 2870 2914 2960 3035 2945 2997 2977 2996 2950 2997 2980 2946 2963 2958 2923 2968 2900 2991 2946 2987 2933 2964 2959 3019 2948 3030 2927 3022 3016 2889 2924 2945 2930 2916 2919 2990 3010 2877 3011 2898 2993 2917 2988 2890 2925 2941 2884 2956 3007 3007 2981 3001 2962 2994 2971 3024 2979 2952 3006 2944 3025 2914 2890 2927 2985 2993 2999 2925 2903 2872 2974 2943 2992 2919 2974 2912 2952 2944 2945 3012 2933 3036 2976 2952 3018 2982 2953 2928 2951 3005 2932 2984 2947 3006 2981 2955 2955 2888 2928 2962 3046 2965 2913 3074 2985 3045 2919 2927 2938 2903 2924 2907 2977 2961 2933 2986 3043 2935 2868 2994 2954 3009 2965 2942 3037 2942 2916 2980 2925 2869 2904 2969 3033 2862 2924 2959 2985 2897 2922 2927 2909 2883 2906 3053 2914 2981 2949 2981 2912 2902 2878 2978 2915 2898 2906 2936 2875 2966 2961 2947 2974 2967 2929 2975 2951 2951 2896 2936 2905 2931 2945 2967 2911 2967 3040 2916 2991 2898 2936 2883 2963 2901 2955 3018 2993 2966 2931 2935 2976 3045 2938 2907 2965 2976 2969 2975 3012 3021 2859 2869 2956 2961 2968 2922 2914 2916 2858 2878 2909 2926 2950 2937 2962 2932 2951 2937 2957 2900 3014 2877 2987 3029 3031 2909 2906 2921 2889 2937 2909 2962 2915 2952 2936 2948 2901 2937 2915 2935 2951 2952 2896 3029 2981 2922 2974 2882 2904 2944 3024 2936 2965 3036 2924 2922 2985 3000 2967 2909 2948 2958 2867 2899 2949 2866 2985 2838 3008 2965 2970 2954 2849 2900 2938 2973 2844 2945 2972 2908 2865 2884 2966 2990 2914 2909 2892 2893 2963 2849 2873 2849 2890 2849 2895 2866 2913 2963 2928 2927 2891 2926 3025 2966 2941 2873 2951 2996 2873 2913 2976 3051 2929 2884 2943 2951 2914 2883 2917 2890 2907 2864 2962 2942 2928 2899 2941 2882 2895 2883 2895 2943 2962 2940 2969 2932 2915 2889 2918 2936 2890 2968 2906 3019 2928 2861 2983 2860 2930 2977 2989 2918 2910 2935 2950 2930 2891 2890 2938 2911 2873 2971 2905 2910 2866 2902 2889 2886 2833 2854 2933 2902 2890 2966 2891 2918 2877 2955 2915 2927 2916 2885 2936 2944 2963 2882 2943 2893 3028 2895 2890 2937 2981 2969 2983 2864 2880 2839 3000 2890 2891 2879 2893 2853 2916 3024 2856 2850 2928 2938 2881 2920 2888 2892 2851 2916 2934 2920 2977 2873 2910 2922 2881 2901 2957 2887 2931 2902 2891 2942 2893 2894 2944 2868 2947 2951 2843 2867 2882 2936 2913 2939 2882 2891 2982 3035 2861 2878 2924 2936 2869 2880 2881 2930 2915 2873 2870 2878 2861 2858 2947 2952 2982 2915 2889 2968 2917 2916 2907 3048 2942 2912 2934 2951 2904 2894 2903 2919 2993 2914 2962 2977 2923 2942 2936 2938 2873 3037 2924 2847 2935 2856 2857 2872 2857 2845 2873 2901 2913 2916 2948 3061 2883 2870 3039 2881 2962 3011 2954 2953 2982 2876 2947 2911 2856 2906 2884 2915 2880 2868 2870 2915 2994 2884 2894 2884 2898 2940 2962 2922 2917 2858 2950 2949 2853 2894 2949 2964 3025 2938 3012 2878 2896 2895 2926 2928 2918 2922 2936 2970 2918 2874 2957 2895 2892 2887 2972 2907 2853 3046 2934 2878 2878 2915 2863 3041 2986 2894 2872 2855 2911 2918 2971 2928 2869 2952 2886 2936 2849 2871 2901 2831 2833 2871 3028 2956 2896 2864 2936 2911 2931 2909 2953 2939 2873 2895 2992 2967 2835 2884 2912 2959 2944 3031 2909 3055 2923 2878 2905 2902 2872 2896 2881 2995 2934 2922 2918 2962 2905 2860 2853 2905 2878 2867 2944 2917 2909 2910 2922 2895 2846 2974 2949 2885 2936 2878 2901 2906 2895 2879 2966 2881 2857 2899 2869 2881 2839 2936 3000 2988 2827 2908 2896 2955 2883 2873 2921 2857 2919 2862 2922 2880 2994 3004 2914 2962 2916 2976 2891 3026 2882 2881 2861 2856 2973 2876 2877 2881 2861 2889 2881 2895 2932 2930 2958 2818 3023 3011 3025 2922 3063 2851 2917 2898 2880 2875 3004 2959 2890 2917 2993 2974 2962 2989 2923 2858 2937 2917 2930 2939 2975 2905 2943 2901 2816 2891 3009 3021 2938 2863 2921 2967 2934 2968 2953 2915 2969 2977 2964 2972 2871 2981 2885 2886 2949 2970 2967 2938 2968 2893 2898 2927 2900 2899 2979 2852 2939 2872 2847 2940 2867 2916 3025 2907 2995 2902 2894 2864 2861 2881 2921 3006 2972 2885 2863 2960 2934 2913 2923 3009 2894 2962 2964 2938 2947 2981 2978 2870 2927 2911 2916 2944 2884 2907 3089 2927 2908 2907 2942 2905 2990 2865 2911 2845 2839 2864 2981 2951 2847 2938 2889 2961 2991 2898 2851 2879 2908 2861 2950 2887 2947 2955 2886 2952 2920 2954 2949 3033 3002 2984 2923 2905 2859 2931 2835 2858

Tree=0
num_leaves=31
num_cat=0
split_feature=0 1 1 5 5 5 2 10 84 29 3 29 10 6 2 3 5 8 29 60 3 2 29 3 3 60 29 3 10 29
split_gain=5727.87 2104.57 1521.68 1065.35 619.292 579.698 507.478 397.877 372.755 369.431 285.724 261.792 228.478 226.727 224.409 204.694 200.322 188.578 168.342 160.085 146.421 136.798 135.322 127.437 114.85 109.46 108.313 104.996 98.2864 96.4515
threshold=0.12737553980000002 -0.24580343874999996 1.0000000180025095e-35 -0.12052166499999999 -0.021081799499999998 -0.29097817499999995 1.0000000180025095e-35 0.018430513500000002 5.1569120000000011 -0.17577733079999996 -0.24769616999999997 1.0000000180025095e-35 0.27590122000000006 0.42716235000000008 1.0000000180025095e-35 -0.082809754999999985 0.16865515500000003 0.34838237500000008 1.0000000180025095e-35 1.3621219000000002 -0.082809754999999985 -0.00081321539999999986 -0.17577733079999996 -0.092690689999999978 1.0000000180025095e-35 1.5715236000000001 1.0000000180025095e-35 -0.25782959999999994 -0.12704778999999997 -0.17577733079999996
decision_type=2 2 2 2 2 2 2 2 2 2 2 2 2 2 2 2 2 2 2 2 2 2 2 2 2 2 2 2 2 2
left_child=1 5 4 9 12 8 18 16 15 23 26 20 22 21 -11 -1 29 25 27 -14 -8 -6 -2 -3 -16 -9 -7 -5 -12 -4
right_child=2 3 7 6 13 10 11 17 -10 14 28 -13 19 -15 24 -17 -18 -19 -20 -21 -22 -23 -24 -25 -26 -27 -28 -29 -30 -31
leaf_value=-0.017358230121536995 -0.0080855195564173074 -0.013362630865514966 -0.0015624927932034027 -0.0086335332173064876 -0.00068589335547299167 -0.013471786279395069 -0.0028879532322908011 0.011075924935544552 -0.183163326441457 -0.0079993266966020167 -0.0091595939034577033 0.0054835837064162703 0.0036774842248124698 0.0076489455328915988 -0.0049917870705788788 -0.011052409583389208 0.009215281170742412 0.016469893675887009 -0.00041445584793920864 -0.0076513899859938497 0.0022854561893906845 0.0045354090643005577 -0.0027485665152470443 -0.0078809150511660354 0.00019858388395479001 0.002251897975347231 -0.0078924186553187455 -0.0038901256549015734 -0.0042340439647123298 0.004838549998227369
leaf_weight=35448 18851 23812 8853 18541 27378 27238 28086 20239 33 37863 15272 29357 16536 23524 24465 20205 21238 16413 22170 3843 26659 23154 32107 19112 18885 4253 12780 31464 30069 17554
leaf_count=35448 18851 23812 8853 18541 27378 27238 28086 20239 33 37863 15272 29357 16536 23524 24465 20205 21238 16413 22170 3843 26659 23154 32107 19112 18885 4253 12780 31464 30069 17554
internal_value=-0.00275132 -0.00621794 0.00353841 -0.00371211 0.000391398 -0.0111998 -0.000965358 0.0087056 -0.0151685 -0.00717001 -0.00861079 0.00167414 -0.00293343 0.00359415 -0.00518701 -0.0150689 0.00560011 0.0123228 -0.00404104 0.00154113 -0.000368674 0.00170653 -0.00472288 -0.0109219 -0.00273065 0.00954365 -0.01169 -0.0056489 -0.00589309 0.00269259
internal_weight=0 421459 233943 280414 145393 141045 156277 88550 55686 124137 85359 84102 71337 74056 81213 55653 47645 40905 72175 20379 54745 50532 50958 42924 43350 24492 40018 50005 45341 26407
internal_count=655402 421459 233943 280414 145393 141045 156277 88550 55686 124137 85359 84102 71337 74056 81213 55653 47645 40905 72175 20379 54745 50532 50958 42924 43350 24492 40018 50005 45341 26407
is_linear=0
shrinkage=1


Tree=1
num_leaves=31
num_cat=0
split_feature=0 1 1 5 5 2 5 29 84 29 3 3 2 5 3 3 10 3 29 29 10 10 2 60 29 6 2 9 10 14
split_gain=5169.4 1899.37 1373.31 976.053 559.671 534.943 523.462 374.945 308.118 273.904 262.065 257.834 243.689 191.568 187.133 185.798 166.612 156.51 149.115 121.532 119.174 118.774 118.648 117.248 116.632 114.007 102.335 100.155 90.5726 86.6433
threshold=0.12737553980000002 -0.24580343874999996 1.0000000180025095e-35 -0.3400679949999999 0.13685493000000001 1.0000000180025095e-35 -0.29848984999999995 1.0000000180025095e-35 5.1569120000000011 1.0000000180025095e-35 -0.10477040249999998 -0.0065645380999999987 -0.028969892499999997 0.21692696500000003 -0.18539213999999996 -0.16418419999999997 0.04282460300000001 -0.030939597499999996 -0.17577733079999996 1.0000000180025095e-35 0.20288253000000003 0.23767518500000004 0.079824670000000014 -1.5695010999999999 1.0000000180025095e-35 -0.69907084999999991 -0.00081321539999999986 1.0229313750000002 -0.24247314999999997 0.043914474500000002
decision_type=2 2 2 2 2 2 2 2 2 2 2 2 2 2 2 2 2 2 2 2 2 2 2 2 2 2 2 2 2 2
left_child=1 6 4 11 12 14 8 13 15 17 19 18 25 29 28 -1 23 -7 -3 -8 -9 -14 -13 -6 -16 -2 -25 -15 -5 -4
right_child=2 3 7 5 16 9 10 20 -10 -11 -12 22 21 27 24 -17 -18 -19 -20 -21 -22 -23 -24 26 -26 -27 -28 -29 -30 -31
leaf_value=-0.014196346294299193 -0.0076911891339186515 -0.010592181658733317 0.0031656211189237666 -0.0079155185446316799 0.014729695261635062 -0.00040036728709571417 -0.0095705113960503126 0.011998589259003841 -0.16693432410247624 0.0073352392561921477 -0.0023042990078245532 -0.0045278273356403123 0.0013171208652212087 0.010442169423144257 -0.0012144334838589846 -0.0083082463282228014 0.010174317691634733 0.0045113324725921727 -0.005231990494670124 -0.0042730327549983802 0.017983448458231542 0.0073034267350407071 0.00096616082855963581 0.0015835294550620269 0.0041881605552775555 -0.0010862901637146269 0.0067015112732654626 0.019308272891843004 -0.0026621076423820628 0.0082674555044108793
leaf_weight=32099 8020 20740 14949 11900 2733 36142 34533 16181 32 33978 35614 20944 27352 17644 33458 22996 20994 29422 34654 15771 17117 11887 18514 20532 14242 35246 18629 3887 26420 18772
leaf_count=32099 8020 20740 14949 11900 2733 36142 34533 16181 32 33978 35614 20944 27352 17644 33458 22996 20994 29422 34654 15771 17117 11887 18514 20532 14242 35246 18629 3887 26420 18772
internal_value=0 -0.00329329 0.00597524 -0.00091275 0.00298558 0.00119629 -0.0080261 0.0108841 -0.0118288 0.0036919 -0.00558618 -0.00503874 0.000277207 0.00835829 -0.00169161 -0.0117387 0.00653879 0.00180377 -0.00723889 -0.00790968 0.0150751 0.0031306 -0.00195001 0.00471695 0.000398643 -0.00231061 0.00401817 0.0120428 -0.00429352 0.00600574
internal_weight=0 421459 233943 280414 145393 185562 141045 88550 55127 99542 85918 94852 82505 55252 86020 55095 62888 65564 55394 50304 33298 39239 39458 41894 47700 43266 39161 21531 38320 33721
internal_count=655402 421459 233943 280414 145393 185562 141045 88550 55127 99542 85918 94852 82505 55252 86020 55095 62888 65564 55394 50304 33298 39239 39458 41894 47700 43266 39161 21531 38320 33721
is_linear=0
shrinkage=0.05


Tree=2
num_leaves=31
num_cat=0
split_feature=0 2 2 5 5 10 5 3 29 5 3 3 29 29 10 5 84 60 10 60 29 10 29 60 0 60 10 91 29 1
split_gain=4665.38 1734.36 1257.86 757.896 672.204 452.555 415.79 382.843 360.463 262.544 232.918 219.448 206.601 184.964 179.733 168.054 166.276 158.345 132.192 130.768 121.56 119.783 114.335 110.154 106.864 105.684 138.982 102.787 102.357 98.6757
threshold=0.12737553980000002 -0.012577826999999998 0.068137981000000014 0.33863762000000003 -0.39039323999999992 0.23767518500000004 0.16865515500000003 -0.099506424999999982 -0.17577733079999996 0.16865515500000003 -0.15408050999999998 -0.0065645380999999987 1.0000000180025095e-35 -0.17577733079999996 -0.24741658499999997 0.11332816200000002 4.6569314000000004 -1.1506978999999997 0.018430513500000002 1.5715236000000001 -0.17577733079999996 0.018430513500000002 -0.17577733079999996 -1.3600994999999998 1.0000000180025095e-35 -1.1506978999999997 -0.30580083999999991 4.6772959500000004 -0.52502982499999984 1.0000000180025095e-35
decision_type=2 2 2 2 2 2 2 2 2 2 2 2 2 2 2 2 2 2 2 2 2 2 2 2 2 2 2 2 2 2
left_child=1 4 6 8 10 9 13 14 24 22 16 21 25 -2 17 19 28 27 -8 -7 -9 -10 -4 -11 -3 -5 -27 -6 -1 -13
right_child=2 3 5 12 7 15 18 20 11 23 -12 29 -14 -15 -16 -17 -18 -19 -20 -21 -22 -23 -24 -25 -26 26 -28 -29 -30 -31
leaf_value=-0.017228707363790879 -0.0039925773690930788 -0.0077984142998793783 0.00024354282236987266 0.010120472439434588 -0.0038320404280793989 0.012103983757620652 0.0037665287609529828 -0.0050088666232392665 -0.0040744554054654913 0.020845541493681605 -0.0070898778508843912 0.00034863044930390815 0.0078219061669465035 0.0014520617895939368 -0.0048389205786105866 0.016410059752364217 -0.12695781291695313 -0.012197090810319769 0.0091831795361410461 0.0024400545522701325 5.4020845109583328e-05 0.00084976529103602454 0.0060553290886046184 0.0094995322715418547 -0.0030148854210943904 -0.0033460545808714501 0.0031875660085031337 -0.11458728148468905 -0.011415936566282708 0.0051714636693167906
leaf_weight=10256 23466 26410 12741 3849 8514 19323 33758 16537 37956 2322 28490 27297 25306 46527 46762 22252 32 20717 16904 4275 41884 18306 25201 27174 20927 11058 30838 21 28954 17345
leaf_count=10256 23466 26410 12741 3849 8514 19323 33758 16537 37956 2322 28490 27297 25306 46527 46762 22252 32 20717 16904 4275 41884 18306 25201 27174 20927 11058 30838 21 28954 17345
internal_value=0 -0.00312863 0.00567648 -4.89526e-05 -0.00646918 0.00946014 0.00212385 -0.0044227 -0.00208395 0.0068544 -0.010531 -0.000395214 0.00419688 -0.000373319 -0.00676187 0.0132928 -0.0130293 -0.00983589 0.00557386 0.0103533 -0.00137911 -0.00247226 0.00410372 0.0103927 -0.00568369 0.00219152 0.00146309 -0.00410455 -0.0129364 0.00222247
internal_weight=0 421459 233943 219292 202167 113288 120655 134435 148241 67438 67732 100904 71051 69993 76014 45850 39242 29252 50662 23598 58421 56262 37942 29496 47337 45745 41896 8535 39210 44642
internal_count=655402 421459 233943 219292 202167 113288 120655 134435 148241 67438 67732 100904 71051 69993 76014 45850 39242 29252 50662 23598 58421 56262 37942 29496 47337 45745 41896 8535 39210 44642
is_linear=0
shrinkage=0.05


Tree=3
num_leaves=31
num_cat=0
split_feature=0 1 1 5 5 0 91 29 2 29 58 5 2 6 10 5 29 9 60 29 10 60 10 2 13 3 3 10 3 5
split_gain=4210.51 1618.24 1168.05 840.824 468.391 447.373 352.7 349.948 340.471 325.305 235.19 234.948 198.829 186.876 184.397 173.785 173.162 155.647 140.567 123.694 121.403 116.259 118.87 113.388 109.855 106.703 105.847 102.1 91.597 90.8339
threshold=0.12737553980000002 -0.24580343874999996 1.0000000180025095e-35 0.049364283500000009 -0.021081799499999998 -0.37946873499999995 5.2646998500000004 -0.17577733079999996 1.0000000180025095e-35 1.0000000180025095e-35 1.8901385000000002 0.3765613450000001 -1.0000000180025095e-35 0.42716235000000008 0.27590122000000006 -0.16143148999999998 1.0000000180025095e-35 1.0000000180025095e-35 1.3621219000000002 1.0000000180025095e-35 -0.25926334999999995 -0.94129617999999993 -0.026384995499999998 -0.046434444999999998 -0.12765370499999998 1.0000000180025095e-35 -0.13218544999999998 0.39335124000000005 -0.010991468999999999 0.22499935000000001
decision_type=2 2 2 2 2 2 2 2 2 2 2 2 2 2 2 2 2 2 2 2 2 2 2 2 2 2 2 2 2 2
left_child=1 5 4 7 14 6 15 26 19 17 -8 20 28 21 23 -1 24 -4 -16 -5 -7 -6 -23 -2 -10 -14 -3 -11 -9 -19
right_child=2 3 9 8 13 11 10 12 16 27 -12 -13 25 -15 18 -17 -18 29 -20 -21 -22 22 -24 -25 -26 -27 -28 -29 -30 -31
leaf_value=-0.013515357940346246 -0.004107513434861528 -0.0089370202558186583 0.0053923843457650972 -0.0021414359520505384 0.009262129514087598 -0.0100062910996708 -0.053786135333425855 -0.0059878450822396087 0.00013269970062897805 0.011814566202315189 -0.26359431093389335 -0.00093643782449196649 -0.0015114969344596555 0.0091020493345613084 0.0057656306975144532 -0.0079585350061924572 0.0078039479710413466 0.0082001355745460382 -0.0048501697221999653 0.0027281783320284502 -0.005187107439252242 -0.0012885881352618566 0.0044334458129355429 0.00061546668496281331 0.0050449803482164289 0.0030182512409660241 -0.004330700822649909 0.017639196297039497 -0.0014946393024703069 0.014732015618645473
leaf_weight=27451 26748 26330 33054 41563 7939 19236 34 25943 22227 21813 22 24678 29717 23524 16536 28865 25346 13344 3843 19003 40759 13114 29479 24210 23325 23112 23694 11485 20154 8854
leaf_count=27451 26748 26330 33054 41563 7939 19236 34 25943 22227 21813 22 24678 29717 23524 16536 28865 25346 13344 3843 19003 40759 13114 29479 24210 23325 23112 23694 11485 20154 8854
internal_value=0 -0.0029722 0.00539266 -0.000774878 0.00263546 -0.00734073 -0.0107919 -0.00334709 0.00213946 0.00991979 -0.136211 -0.00504307 -0.00162369 0.00542081 -0.000256053 -0.0106672 0.00449128 0.00756714 0.00376374 -0.000613561 -0.00673227 0.0037071 0.00267168 -0.00186364 0.00264804 0.000470209 -0.00675522 0.0138236 -0.00402338 0.0108055
internal_weight=0 421459 233943 280414 145393 141045 56372 148950 131464 88550 56 84673 98926 74056 71337 56316 70898 55252 20379 60566 59995 50532 42593 50958 45552 52829 50024 33298 46097 22198
internal_count=655402 421459 233943 280414 145393 141045 56372 148950 131464 88550 56 84673 98926 74056 71337 56316 70898 55252 20379 60566 59995 50532 42593 50958 45552 52829 50024 33298 46097 22198
is_linear=0
shrinkage=0.05


Tree=4
num_leaves=31
num_cat=0
split_feature=0 1 1 5 3 5 3 91 6 5 60 5 29 58 10 29 10 29 5 29 29 60 83 9 10 60 29 1 3 10
split_gain=3807.7 1826.02 867.751 760.872 550.062 401.805 340.182 326.698 316.409 242.997 232.808 229.615 218.127 217.888 212.916 181.402 163.919 149.473 140.927 131.934 124.165 122.884 117.542 116.283 106.618 106.225 105.914 102.848 99.1889 94.2759
threshold=1.0000000180025095e-35 1.0000000180025095e-35 -0.24580343874999996 0.056598812000000005 0.31046560500000003 -0.12052166499999999 1.0756840000000003e-05 5.2646998500000004 0.42716235000000008 -0.29097817499999995 -1.1506978999999997 0.15373323500000002 1.0000000180025095e-35 1.8901385000000002 0.11804828000000002 1.0000000180025095e-35 -0.22114966 -0.17577733079999996 -0.23654804499999996 -0.17577733079999996 -0.17577733079999996 1.1527203000000001 5.1775313500000006 1.0229313750000002 0.073906870000000013 1.5715236000000001 -0.17577733079999996 1.0000000180025095e-35 1.0756840000000003e-05 0.14633215500000005
decision_type=2 2 2 2 2 2 2 2 2 2 2 2 2 2 2 2 2 2 2 2 2 2 2 2 2 2 2 2 2 2
left_child=2 3 7 6 12 17 19 9 10 -1 -5 22 18 -9 26 27 -12 -4 -3 -2 -11 -16 24 -13 -6 -10 -8 -7 -18 -19
right_child=1 4 5 8 11 15 14 13 25 20 16 23 -14 -15 21 -17 28 29 -20 -21 -22 -23 -24 -25 -26 -27 -28 -29 -30 -31
leaf_value=-0.011951148956512354 -0.0079111103367337354 -0.00035603724738117378 -0.0086739029103111483 0.0089719253080576163 0.0054039241896955068 -0.0037556398153741864 -0.0043085192586885803 -0.053622314372123815 0.0080628872076225835 -0.010178683762837031 -0.0024450210793502576 0.012600119284647444 0.0085175184174477708 -0.25041459636254743 0.0058342556441999026 0.0030354272202257225 0.00014170751756870713 -0.005344997279753242 0.0049802309268255698 -0.0030747244613847577 -0.004991690273928256 -0.002434294719380795 0.10252668631799294 0.020189167294578078 0.011087227132970256 -0.0025554234932420533 0.00012617564189314816 0.00072763026085008399 0.0042214199824906415 -0.00022990566285493622
leaf_weight=37013 20962 20459 24433 10136 17301 32554 21223 39 33408 17040 25019 22529 25545 22 19923 26934 27262 29020 31303 43083 35728 5802 33 6505 15778 2534 36826 21073 32852 13063
leaf_count=37013 20962 20459 24433 10136 17301 32554 21223 39 33408 17040 25019 22529 25545 22 19923 26934 27262 29020 31303 43083 35728 5802 33 6505 15778 2534 36826 21073 32852 13063
internal_value=0 0.00288046 -0.00505216 0.000545533 0.00755238 -0.00268714 -0.00191438 -0.00892385 0.00331681 -0.00884525 0.0018087 0.0110548 0.00473685 -0.124597 0.00018286 -0.000312453 0.000955838 -0.00556324 0.00287106 -0.00465768 -0.00666669 0.00396937 0.00820883 0.0143004 0.00811474 0.00731427 -0.00149517 -0.00199392 0.00237125 -0.00375722
internal_weight=0 418483 236919 279030 139453 147077 147819 89842 131211 89781 95269 62146 77307 61 83774 80561 85133 66516 51762 64045 52768 25725 33112 29034 33079 35942 58049 53627 60114 42083
internal_count=655402 418483 236919 279030 139453 147077 147819 89842 131211 89781 95269 62146 77307 61 83774 80561 85133 66516 51762 64045 52768 25725 33112 29034 33079 35942 58049 53627 60114 42083
is_linear=0
shrinkage=0.05


Tree=5
num_leaves=31
num_cat=0
split_feature=0 2 2 5 3 29 5 6 5 84 14 5 5 6 82 26 29 13 29 50 5 10 7 0 10 26 10 14 9 10
split_gain=3488.51 1377.77 1002.55 566.485 537.669 360.836 325.529 309.056 281.36 239.868 200.433 177.063 175.087 169.722 169.238 157.8 157.669 128.154 126.233 112.33 109.623 108.31 107.156 103.196 98.3265 92.2645 89.124 84.67 82.7614 81.4962
threshold=0.12737553980000002 -0.012577826999999998 0.063606310000000013 0.33863762000000003 -0.39369751499999994 1.0000000180025095e-35 0.20515285000000003 1.0000000180025095e-35 0.18766968000000003 5.1569120000000011 0.110638627 -1.0639949499999999 -0.13875154499999998 1.0000000180025095e-35 0.54115175000000015 -0.086710799999999991 -0.52502982499999984 -0.10785673749999998 1.0000000180025095e-35 0.48577650000000006 -0.20709080499999996 -0.30580083999999991 0.38748090000000007 -0.37946873499999995 0.24942717 0.24134216500000003 -0.038301320499999993 0.16689925000000003 -0.34161675802499991 -0.23224297499999999
decision_type=2 2 2 2 2 2 2 2 2 2 2 2 2 2 2 2 2 2 2 2 2 2 2 2 2 2 2 2 2 2
left_child=1 4 6 7 9 10 13 23 16 12 25 19 29 -2 -11 -5 -6 -13 -8 -9 -12 -17 -7 -3 -10 -4 -18 -15 -14 -1
right_child=2 3 5 15 8 22 18 11 24 14 20 17 28 27 -16 21 26 -19 -20 -21 -22 -23 -24 -25 -26 -27 -28 -29 -30 -31
leaf_value=-0.014180039274865476 -0.0033231781525981975 -0.0072912081868049157 0.0052364509008892592 0.0062736165291777338 -0.01050208064260724 0.0097464113388920498 0.0029292079916113704 -0.0010318389983010466 -0.0020290293384579703 -0.026234762585506988 0.0053902493459265753 -0.0011373754984347652 -0.009543216438335932 -0.00018620328676000338 -0.20663936126690646 -0.0029438868857268249 -0.0073316562667665747 0.0030206173737987287 0.0082537156526812719 -0.011492296565266284 0.0110681235165857 0.0030858633374745781 0.014872470943004307 -0.0029889283685519902 0.0032286991090386928 -0.0001339412687282981 -0.003322363360930477 0.0044227987635678664 -0.0048007069197659007 -0.0093868488880058474
leaf_weight=16007 29850 20610 25158 32100 13627 23664 30404 5501 38182 26 14174 34769 15188 25558 26 10007 20208 39680 17561 4811 21240 29118 17912 43057 11592 11725 44133 16332 23330 19884
leaf_count=16007 29850 20610 25158 32100 13627 23664 30404 5501 38182 26 14174 34769 15188 25558 26 10007 20208 39680 17561 4811 21240 29118 17912 43057 11592 11725 44133 16332 23330 19884
internal_value=0 -0.00273176 0.00488476 9.82822e-06 -0.00570994 0.00824332 0.00168982 -0.00174912 -0.00374146 -0.00908698 0.00610892 0.000228255 -0.00901196 -0.00044219 -0.116437 0.00367536 -0.00561635 0.00107876 0.00487862 -0.0059121 0.00879563 0.00154363 0.0119548 -0.00438164 -0.000804543 0.00352922 -0.00458159 0.00161075 -0.00667072 -0.0115246
internal_weight=0 421856 233578 219653 202203 113873 119705 148428 127742 74461 72297 84761 74409 71740 52 71225 77968 74449 47965 10312 35414 39125 41576 63667 49774 36883 64341 41890 38518 35891
internal_count=655434 421856 233578 219653 202203 113873 119705 148428 127742 74461 72297 84761 74409 71740 52 71225 77968 74449 47965 10312 35414 39125 41576 63667 49774 36883 64341 41890 38518 35891
is_linear=0
shrinkage=0.05


Tree=6
num_leaves=31
num_cat=0
split_feature=3 1 1 5 29 10 6 5 14 60 84 5 29 10 2 5 2 60 10 60 5 10 60 60 26 9 26 5 10 29
split_gain=2904.22 1178.48 1157.32 564.7 482.633 354.544 335.6 293.486 268.202 240.149 181.538 173.257 167.956 158.944 153.618 152.179 148.252 142.368 142.208 125.235 121.385 115.525 138.75 112.758 111.231 111.003 105.113 95.0618 87.7977 82.6808
threshold=1.0756840000000003e-05 -1.0000000180025095e-35 -0.24580343874999996 -0.39039323999999992 1.0000000180025095e-35 0.27590122000000006 0.14560405250000003 -0.29848984999999995 1.0000000180025095e-35 -1.1506978999999997 5.1569120000000011 0.62085515000000002 -0.17577733079999996 -0.24741658499999997 0.35117734500000003 0.34537345000000003 -0.22973812999999996 0.94331868000000019 -0.30580083999999991 0.94331868000000019 0.62085515000000002 -0.23224297499999999 1.5715236000000001 -1.3600994999999998 -0.18178476499999999 1.0229313750000002 0.28059758500000004 1.1375834000000002 0.23767518500000004 1.0000000180025095e-35
decision_type=2 2 2 2 2 2 2 2 2 2 2 2 2 2 2 2 2 2 2 2 2 2 2 2 2 2 2 2 2 2
left_child=2 4 7 12 8 11 9 10 16 27 21 24 -4 -11 19 28 -2 -7 23 -8 -10 -1 -23 -9 -3 -19 -14 -5 -6 -20
right_child=1 5 3 6 15 17 14 18 20 13 -12 -13 26 -15 -16 -17 -18 25 29 -21 -22 22 -24 -25 -26 -27 -28 -29 -30 -31
leaf_value=-0.012955573727038275 -0.0049899690404522435 0.0070370761204547553 -0.0078019595909326507 0.0030607215265625394 0.0012008703702043521 0.013785991027475348 0.0026126022180080893 -0.0018724461474554325 0.0011592140620431913 -0.0050709093291887945 -0.13511094713005528 0.010480225002839211 -0.001182603933465637 -0.00054902840120307089 0.0064641436493751113 0.0083126928296824894 -0.00047953074491274188 0.0047935776664367411 -0.0048152643126763185 -0.0048325078012387002 0.0070844876200623231 -0.0070827633204170199 -0.022121217063494406 -0.0095310429125603432 0.002127129742253148 0.013782287577394321 -0.006161881762057406 0.014060979991922951 0.006267933306777768 -0.00032542819253010726
leaf_weight=19328 30224 19481 26623 8277 22834 26105 39531 6169 45839 31021 29 13857 31763 52024 24255 22686 45863 10459 30748 6590 10652 26772 1627 21753 28279 5114 15907 2575 13665 15384
leaf_count=19328 30224 19481 26623 8277 22834 26105 39531 6169 45839 31021 29 13857 31763 52024 24255 22686 45863 10459 30748 6590 10652 26772 1627 21753 28279 5114 15907 2575 13665 15384
internal_value=0 0.0036617 -0.00302817 -0.00100349 0.00134252 0.00796717 0.000632445 -0.00699352 -0.000333452 -0.00132408 -0.0100497 0.00555799 -0.00462078 -0.00223815 0.00324287 0.00509679 -0.00227121 0.0115289 -0.00502263 0.00154881 0.00227649 -0.00997373 -0.00794433 -0.00783898 0.00412987 0.00774537 -0.00284414 0.0056709 0.00309795 -0.003318
internal_weight=0 295058 360376 238566 191763 103295 164273 121810 132578 93897 47756 61617 74293 83045 70376 59185 76087 41678 74054 46121 56491 47727 28399 27922 47760 15573 47670 10852 36499 46132
internal_count=655434 295058 360376 238566 191763 103295 164273 121810 132578 93897 47756 61617 74293 83045 70376 59185 76087 41678 74054 46121 56491 47727 28399 27922 47760 15573 47670 10852 36499 46132
is_linear=0
shrinkage=0.05


Tree=7
num_leaves=31
num_cat=0
split_feature=0 1 2 5 5 6 29 29 26 6 3 84 3 80 5 3 60 2 60 60 80 9 14 60 6 3 91 5 6 5
split_gain=3048.3 1387.03 698.546 593.161 400.68 343.358 257.976 249.254 215.073 214.438 202.338 193.168 159.173 149.782 146.348 141.265 126.225 123.472 111.058 103.446 103.103 101.327 98.3358 95.7782 100.034 90.5057 90.0277 82.8027 81.1575 80.8199
threshold=1.0000000180025095e-35 1.0000000180025095e-35 -0.0093554669999999975 -0.2799894349999999 0.21692696500000003 0.42716235000000008 -0.17577733079999996 1.0000000180025095e-35 -0.13939868999999996 -1.0000000180025095e-35 0.031148260500000004 5.1569120000000011 0.4652271850000001 -0.10797399499999998 0.79497170000000017 0.41145997000000006 1.3621219000000002 -0.14499079499999998 -0.73189455499999989 -1.1506978999999997 -0.78880843499999986 -0.34161675802499991 0.16689925000000003 1.3621219000000002 1.0000000180025095e-35 0.31046560500000003 4.4814943000000005 1.1779628000000002 1.0000000180025095e-35 0.82033407500000011
decision_type=2 2 2 2 2 2 2 2 2 2 2 2 2 2 2 2 2 2 2 2 2 2 2 2 2 2 2 2 2 2
left_child=2 3 6 10 9 8 20 13 18 19 23 14 -6 -4 21 -11 25 -10 27 -3 26 -8 -12 24 -2 -7 -1 -5 -20 -9
right_child=1 4 7 5 12 16 11 29 17 15 22 -13 -14 -15 -16 -17 -18 -19 28 -21 -22 -23 -24 -25 -26 -27 -28 -29 -30 -31
leaf_value=-0.014147001611864799 -0.0071100993118911621 0.0093078634160781281 -0.0058585824624426946 0.0052954903869728565 0.0077923100440565373 0.0049279812975926403 -0.0089125627101793534 0.00063941822637377378 -0.0030949653472936768 0.0040308251962357187 -0.0020767287812081163 -0.12460211921921548 0.013207746730903795 -0.0014686126904572654 -0.00028229744789981889 0.0091932895651463137 -0.0014069105674718641 0.0009670789447269101 -0.00017750012622097484 -0.0005365816077658478 -0.0088180132949613396 -0.0048424483529169648 0.0023642340285142901 -0.015221795065843433 -0.0022196166865349268 0.0096865826949846853 -0.10555796750165798 0.015162281704913134 0.0041363599865046749 0.0068916567226283421
leaf_weight=11218 20090 3020 33219 9794 36701 24841 23945 28954 33011 32683 36608 34 21528 46810 11859 22288 5220 43176 20695 22928 32779 42313 18901 2220 21806 16716 27 2716 23042 6292
leaf_count=11218 20090 3020 33219 9794 36701 24841 23945 28954 33011 32683 36608 34 21528 46810 11859 22288 5220 43176 20695 22928 32779 42313 18901 2220 21806 16716 27 2716 23042 6292
internal_value=0 0.0025543 -0.00453981 0.000519614 0.00663156 0.00223904 -0.00717406 -0.00174787 0.00093834 0.00435555 -0.00257339 -0.00544963 0.00979447 -0.00329083 -0.00539777 0.00612395 0.00592156 -0.000792961 0.0032834 0.00060918 -0.0102353 -0.00631335 -0.000564566 -0.00510099 -0.0045647 0.00684209 -0.0143665 0.00743763 0.00209517 0.00175555
internal_weight=0 417984 237450 278836 139148 179211 122175 115275 132434 80919 99625 78151 58229 80029 78117 54971 46777 76187 56247 25948 44024 66258 55509 44116 41896 41557 11245 12510 43737 35246
internal_count=655434 417984 237450 278836 139148 179211 122175 115275 132434 80919 99625 78151 58229 80029 78117 54971 46777 76187 56247 25948 44024 66258 55509 44116 41896 41557 11245 12510 43737 35246
is_linear=0
shrinkage=0.05


Tree=8
num_leaves=31
num_cat=0
split_feature=0 2 1 3 5 10 60 91 5 6 60 29 29 60 10 29 14 10 9 5 60 60 2 60 26 6 5 26 9 83
split_gain=2751.09 1290.6 633.954 551.357 447.408 353.804 274.955 294.183 274.239 268.588 268.55 235.427 209.079 166.023 155.25 144.641 143.2 130.986 128.261 124.069 97.7451 97.4212 97.2875 96.9489 91.5288 90.8306 90.4303 89.9933 88.8201 88.7967
threshold=1.0000000180025095e-35 0.045222450000000004 1.0000000180025095e-35 0.31046560500000003 0.36061829000000006 -0.23224297499999999 -1.1506978999999997 5.2646998500000004 -0.15176379499999998 -1.0000000180025095e-35 1.3621219000000002 1.0000000180025095e-35 1.0000000180025095e-35 1.1527203000000001 0.20288253000000003 1.0000000180025095e-35 0.043914474500000002 0.22440707500000004 -1.0000000180025095e-35 0.40376177000000008 -2.8259108999999998 -1.1506978999999997 -0.86671648499999987 0.94331868000000019 0.16057414500000003 -0.69907084999999991 0.24288780000000001 -0.15121605499999999 1.0000000180025095e-35 2.1693090000000006
decision_type=2 2 2 2 2 2 2 2 2 2 2 2 2 2 2 2 2 2 2 2 2 2 2 2 2 2 2 2 2 2
left_child=2 4 5 8 9 6 7 20 24 21 12 16 19 17 26 28 -5 -11 27 -7 -1 -2 -8 -16 -3 -23 -4 -10 -6 -13
right_child=1 3 14 11 15 10 22 -9 18 13 -12 29 -14 -15 23 -17 -18 -19 -20 -21 -22 25 -24 -25 -26 -27 -28 -29 -30 -31
leaf_value=0.011810093437110661 0.001329908253194137 0.002003733907036267 -0.0033422779227279356 0.0035288792216748611 0.00023405373292114561 -0.0061687234834622868 -0.014533420060403986 -0.15464623309671879 0.0064390223385225728 -0.00063075214022955957 -0.014157643028019916 0.01172711941661999 -0.00014924438521152184 -0.0059065588098954147 0.0063911351513288557 0.0061769459634777937 0.0088932707784313489 0.0036533629503456124 0.0086810307433966959 -0.0014005832609475749 -0.0038910253706708354 -0.0076670785253136649 -0.0093427982615267285 -0.0014107131884448659 -0.002536051021486439 -0.0034309711494731978 0.0015077497161450988 0.0020182008742420862 0.0053801134790050394 0.03281028490462231
leaf_weight=1058 7380 28364 26245 22527 35230 54756 11905 32 19539 48854 6259 29566 32314 10026 12693 25043 27785 28107 19146 18170 15706 18475 37346 5802 18244 40165 15164 28021 11004 508
leaf_count=1058 7380 28364 26245 22527 35230 54756 11905 32 19539 48854 6259 29566 32314 10026 12693 25043 27785 28107 19146 18170 15706 18475 37346 5802 18244 40165 15164 28021 11004 508
internal_value=0 0.00242658 -0.00431282 0.00541623 -0.000155386 -0.00581349 -0.00871353 -0.00318921 0.0031694 -0.00167959 -0.00409563 0.00858341 -0.00349721 0.000145437 0.000134935 0.00311654 0.00649139 0.000933854 0.00522548 -0.00498071 -0.00290011 -0.00408421 -0.0105975 0.00394365 0.000226703 -0.00476559 -0.00156619 0.0038344 0.00145885 0.0120832
internal_weight=0 417984 237450 193700 224284 177546 66047 16796 113314 153007 111499 80386 105240 86987 59904 71277 50312 76961 66706 72926 16764 66020 49251 18495 46608 58640 41409 47560 46234 30074
internal_count=655434 417984 237450 193700 224284 177546 66047 16796 113314 153007 111499 80386 105240 86987 59904 71277 50312 76961 66706 72926 16764 66020 49251 18495 46608 58640 41409 47560 46234 30074
is_linear=0
shrinkage=0.05


Tree=9
num_leaves=31
num_cat=0
split_feature=3 2 2 29 5 29 10 5 80 10 26 9 13 5 5 29 83 60 6 10 60 9 26 26 10 14 14 26 10 60
split_gain=2274.35 944.982 919.51 417.328 377.291 342.127 261.107 248.39 227.838 199.603 165.7 145.546 136.27 131.619 129.38 128.755 109.19 107.455 101.314 97.2949 92.9044 90.2194 87.1534 86.595 86.4348 81.5186 80.36 79.6503 77.5558 76.9872
threshold=1.0756840000000003e-05 -0.064739432499999985 0.33647260500000004 1.0000000180025095e-35 0.19053057000000004 -0.52502982499999984 0.27590122000000006 -0.20709080499999996 -0.55487809999999993 -0.22114966 -0.034765474999999997 -0.34161675802499991 0.23053190000000004 0.56692680500000014 0.65723603000000008 -1.0000000180025095e-35 2.6706793500000008 0.94331868000000019 -0.69907084999999991 0.17145899000000001 1.1527203000000001 1.0229313750000002 -0.092802737999999982 -0.086710799999999991 -0.25926334999999995 0.10296476250000001 0.039869198000000002 0.21564649000000002 0.11804828000000002 1.3621219000000002
decision_type=2 2 2 2 2 2 2 2 2 2 2 2 2 2 2 2 2 2 2 2 2 2 2 2 2 2 2 2 2 2
left_child=1 5 3 7 9 -1 14 18 16 22 28 -10 -9 19 26 27 29 -8 -2 -5 -21 -19 -3 -13 -12 -20 -4 -11 -6 -7
right_child=2 4 6 13 10 8 17 12 11 15 24 23 -14 -15 -16 -17 -18 21 25 20 -22 -23 -24 -25 -26 -27 -28 -29 -30 -31
leaf_value=-0.010403178686366128 -0.0067294994201109659 -0.0025588106016651299 0.0016892008641285093 0.0015341881773187805 0.0033135914382912256 -0.0069467224063701734 0.012917527221483496 -0.00028218473247689093 -0.0059852189836190521 -0.00069885808700060486 -0.0038538917608702062 0.000302024581276627 0.003777598428979359 0.0084128110176361244 0.0099595656035253843 0.0020932610080566382 -0.04334684125532532 0.0043882903867235408 -0.0031726951398668816 0.0078053561467426929 -0.0019866242429703164 0.012903038781283835 -0.0077263094309345266 -0.0033752875850674492 0.0014701216015053954 0.0010527004564921335 0.0061273255271083876 -0.0044542200772762211 0.0083515242920619431 -0.017324787978786876
leaf_weight=29129 11662 14714 20180 28358 27178 36881 22355 42728 30068 37212 10210 28276 40038 17841 11389 25926 213 9074 29445 15105 2885 4734 18317 36903 30092 18641 20623 22753 10626 1878
leaf_count=29129 11662 14714 20180 28358 27178 36881 22355 42728 30068 37212 10210 28276 40038 17841 11389 25926 213 9074 29445 15105 2885 4734 18317 36903 30092 18641 20623 22753 10626 1878
internal_value=0 -0.00267929 0.00324085 0.00141596 -0.000347998 -0.00549126 0.0075101 -9.18208e-05 -0.00442525 -0.00212119 0.00235181 -0.00310752 0.00168173 0.00476356 0.00524757 -0.00085088 -0.00764577 0.0107755 -0.00254864 0.00335883 0.00623505 0.00730753 -0.00542439 -0.00177999 0.00012135 -0.00153468 0.00393236 -0.00212379 0.00472966 -0.00744957
internal_weight=0 360376 295058 206703 197028 163348 88355 142514 134219 118922 78106 95247 82766 64189 52192 85891 38972 36163 59748 46348 17990 13808 33031 65179 40302 48086 40803 59965 37804 38759
internal_count=655434 360376 295058 206703 197028 163348 88355 142514 134219 118922 78106 95247 82766 64189 52192 85891 38972 36163 59748 46348 17990 13808 33031 65179 40302 48086 40803 59965 37804 38759
is_linear=0
shrinkage=0.05


Tree=10
num_leaves=31
num_cat=0
split_feature=0 1 2 5 6 10 3 60 10 87 5 60 5 60 10 29 29 26 10 83 91 54 84 26 29 2 26 5 29 83
split_gain=2321.46 933.495 660.205 479.792 283.992 279.715 263.421 253.184 247.89 231.593 226.905 174.381 140 138.395 199.419 127.151 125.518 124.755 119.038 115.481 122.408 103.735 110.602 98.2557 97.3196 97.284 95.7368 93.5355 90.17 87.2233
threshold=0.12737553980000002 -0.24580343874999996 0.068137981000000014 -0.38465963499999994 0.42716235000000008 0.23767518500000004 -0.32520614499999995 -1.1506978999999997 -0.30580083999999991 6.5304425000000004 -0.064240664999999988 0.94331868000000019 -0.61588339999999986 1.7809252500000003 0.27590122000000006 1.0000000180025095e-35 1.0000000180025095e-35 0.36534013000000004 0.04282460300000001 3.3543661500000006 3.4045868000000001 1.5369866000000003 2.9903284000000006 0.022178367500000004 -0.17577733079999996 -1.0000000180025095e-35 -0.18791206499999999 1.1202443500000003 -0.17577733079999996 2.6706793500000008
decision_type=2 2 2 2 2 2 2 2 2 2 2 2 2 2 2 2 2 2 2 2 2 2 2 2 2 2 2 2 2 2
left_child=1 6 10 13 7 12 9 27 -9 15 -2 -6 -4 14 23 29 26 21 28 -19 -21 22 -7 -3 -14 -10 -8 -5 -12 -1
right_child=2 3 5 4 11 17 16 8 25 -11 18 -13 24 -15 -16 -17 -18 19 -20 20 -22 -23 -24 -25 -26 -27 -28 -29 -30 -31
leaf_value=-0.0091668676376902552 -0.0009135032134959339 -0.0026581208081255222 6.4805851496806347e-05 0.0039945023216465033 0.0059334528305855505 0.012079001544083387 -0.002049495165665138 -0.0042748606564599126 -0.0011669026059168109 -0.17397983475100429 -0.0016304835942735807 -0.0011065260274022652 0.0024342748990633643 -0.014674375998222314 0.001057659402481356 -0.0043898985445291116 -0.00038486875589224481 0.005156360334798305 0.0064911474588944945 0.027550043012403574 0.16981527038982935 0.0025918440259834865 0.065014769631729585 -0.0065528017676793077 0.0071422207480149758 0.0020489923670213581 -0.0063525863418110035 0.013867554608625023 0.003391159034818958 -0.035488859976036617
leaf_weight=43906 55954 32209 13189 9494 35758 29995 19863 38582 45812 21 12611 11666 15309 2741 20351 18196 21765 12577 21346 54 21 3061 99 32569 38790 48322 37010 3210 30705 317
leaf_count=43906 55954 32209 13189 9494 35758 29995 19863 38582 45812 21 12611 11666 15309 2741 20351 18196 21765 12577 21346 54 21 3061 99 32569 38790 48322 37010 3210 30705 317
internal_value=0 -0.00222117 0.00399109 -0.000553634 0.000841711 0.00673551 -0.00553919 -0.000254028 -0.00089951 -0.00796385 0.0014178 0.00420166 0.00468386 -0.00361593 -0.00325987 -0.00790799 -0.00361397 0.00974928 0.00343515 0.00552524 0.0673843 0.0113612 0.0122531 -0.00461628 0.00580996 0.000483919 -0.00484972 0.00648919 0.00192916 -0.00935555
internal_weight=0 421792 233711 280714 192844 113095 141078 145420 132716 62440 120616 47424 67288 87870 85129 62419 78638 45807 64662 12652 75 33155 30094 64778 54099 94134 56873 12704 43316 44223
internal_count=655503 421792 233711 280714 192844 113095 141078 145420 132716 62440 120616 47424 67288 87870 85129 62419 78638 45807 64662 12652 75 33155 30094 64778 54099 94134 56873 12704 43316 44223
is_linear=0
shrinkage=0.05


Tree=11
num_leaves=31
num_cat=0
split_feature=0 1 2 29 80 29 29 5 91 10 2 80 80 10 60 60 80 60 3 83 82 14 14 2 60 29 60 6 5 60
split_gain=2095.12 842.479 608.378 455.655 304.74 277.886 247.011 172.833 170.468 169.63 156.959 141.26 130.928 106.501 114.41 114.348 105.209 96.5086 96.1766 93.3075 116.38 92.5367 91.9484 90.5627 89.5075 85.2808 72.3992 110.221 72.1536 71.2095
threshold=0.12737553980000002 -0.24580343874999996 0.3633908500000001 -1.0000000180025095e-35 -0.10797399499999998 -0.17577733079999996 -0.17577733079999996 0.023689685000000005 5.2646998500000004 0.23767518500000004 0.079824670000000014 -0.24116472499999997 0.3940676600000001 -0.22114966 -1.1506978999999997 1.5715236000000001 0.25735508500000009 0.94331868000000019 1.0000000180025095e-35 2.9897333500000003 1.1498115000000002 1.0000000180025095e-35 -0.13359484499999996 0.15995359500000003 -1.5695010999999999 -0.17577733079999996 -0.94129617999999993 -0.41751254999999993 0.79497170000000017 1.3621219000000002
decision_type=2 2 2 2 2 2 2 2 2 2 2 2 2 2 2 2 2 2 2 2 2 2 2 2 2 2 2 2 2 2
left_child=1 6 5 4 13 16 8 -7 22 24 26 19 23 14 -3 -15 -2 -11 -12 29 -21 -9 -1 -5 -4 -26 -6 -28 -13 -8
right_child=2 3 9 12 10 7 11 21 -10 17 18 28 -14 15 -16 -17 -18 -19 -20 20 -22 -23 -24 -25 25 -27 27 -29 -30 -31
leaf_value=-0.010163449130107185 -0.00317584406715672 0.0022081369168577857 0.016064850854322417 -0.00067600411016856743 0.0034685564736836845 0.0013403257590097492 -0.005416324428088432 0.0033355668847133632 -0.12003791998414433 0.012377838511858953 -7.3874019593702262e-05 -0.0030686487876827474 0.0052072912523061536 -0.0024153922064263328 -0.0080753875763298118 -0.012728691151182886 0.0016070867598757929 0.0068488677615938538 0.0041819955216320474 -0.02655025212236254 -0.14949625451927601 0.0073165175329393027 -0.0058400503218700734 0.0034922087661152152 0.0013488788904451841 0.0063991229581010075 -0.0064174068348246682 -0.0012328151605447235 0.001287679908696411 -0.016194128841358606
leaf_weight=25063 27464 3069 1877 30868 5696 53233 37424 29903 34 19938 30747 40226 30093 51380 22786 2836 19777 13064 23361 118 23 28520 24146 22552 11913 28022 13369 43957 12446 1598
leaf_count=25063 27464 3069 1877 30868 5696 53233 37424 29903 34 19938 30747 40226 30093 51380 22786 2836 19777 13064 23361 118 23 28520 24146 22552 11913 28022 13369 43957 12446 1598
internal_value=0 -0.00211011 0.00379154 -0.000525952 -0.00183688 0.00204108 -0.00526223 0.00340116 -0.00811936 0.00750932 -0.000211765 -0.0037302 0.00256957 -0.00421414 -0.00685473 -0.00295487 -0.00117352 0.0101892 0.00176359 -0.00600439 -0.0466053 0.00527892 -0.00804203 0.00108367 0.00539412 0.00489259 -0.00190772 -0.00244191 -0.00203928 -0.00585769
internal_weight=0 421792 233711 280714 197201 158897 141078 111656 49243 74814 117130 91835 83513 80071 25855 54216 47241 33002 54108 39163 141 58423 49209 53420 41812 39935 63022 57326 52672 39022
internal_count=655503 421792 233711 280714 197201 158897 141078 111656 49243 74814 117130 91835 83513 80071 25855 54216 47241 33002 54108 39163 141 58423 49209 53420 41812 39935 63022 57326 52672 39022
is_linear=0
shrinkage=0.05


Tree=12
num_leaves=31
num_cat=0
split_feature=3 1 2 5 29 10 10 5 5 60 2 29 10 60 60 60 14 87 83 5 14 14 6 8 6 7 84 5 29 60
split_gain=1818.98 867.501 585.608 360.04 309.799 272.88 269.543 203.073 196.048 186.004 163.784 143.61 140.396 131.494 122.168 110.444 106.634 106.512 119.429 93.1011 89.6965 87.6284 85.1954 84.7489 78.3747 78.15 77.8788 76.6819 75.3026 70.4588
threshold=1.0000000180025095e-35 1.0000000180025095e-35 1.0000000180025095e-35 0.58088225000000004 -0.52502982499999984 0.26605178000000007 0.22440707500000004 -0.03863036999999999 0.39980852500000003 0.94331868000000019 -0.13787464999999996 -0.17577733079999996 0.27590122000000006 0.94331868000000019 1.1527203000000001 -1.1506978999999997 -0.13308500499999995 5.2507949000000007 5.6105325000000006 -1.3128271499999997 0.26572935500000006 0.17708985000000002 0.70872063000000007 -0.97520566999999991 0.70872063000000007 -1.1399334499999998 5.1569120000000011 -0.74432989999999999 -0.17577733079999996 2.8279334500000002
decision_type=2 2 2 2 2 2 2 2 2 2 2 2 2 2 2 2 2 2 2 2 2 2 2 2 2 2 2 2 2 2
left_child=2 3 4 5 26 10 11 19 12 22 28 -3 23 24 -14 -13 29 18 25 -6 -5 -17 -7 -4 -8 -15 -1 -12 -2 -9
right_child=1 6 8 20 7 9 13 16 -10 -11 27 15 14 17 -16 21 -18 -19 -20 -21 -22 -23 -24 -25 -26 -27 -28 -29 -30 -31
leaf_value=-0.0092374455432071359 -0.0057712441984682731 0.00056724142764104856 -0.0069895336546879393 0.0030478542032427625 -0.01086161114832682 0.0033762744589788275 0.0088143918311917955 -0.0040726099311486699 0.0028302551309048979 -0.0021689115678622983 -0.0031919729057386134 0.01318318305519754 0.0038011508272164786 -0.0046651762928223419 -0.0045762290182567713 0.0029289522767786489 -0.00034688416306701757 -0.099993280018679798 0.1218350643461401 -0.0050686771881939957 0.0077163079594371534 0.0073369179626428839 0.0091798788583776214 -0.0019825821135991172 0.014078355633250845 0.0064215156575059525 -0.10127777483152307 0.00081322533269594848 -0.0021312771222493851 -0.061770953336414303
leaf_weight=30722 22269 22025 10126 38473 7806 26846 19199 31616 36564 13464 14877 4182 17679 1775 5773 28014 43053 24 22 62218 14045 18869 8272 51103 11194 15211 23 60750 39256 53
leaf_count=30722 22269 22025 10126 38473 7806 26846 19199 31616 36564 13464 14877 4182 17679 1775 5773 28014 43053 24 22 62218 14045 18869 8272 51103 11194 15211 23 60750 39256 53
internal_value=0 0.00238973 -0.00290178 0.000641086 -0.00474804 -0.000392473 0.00584671 -0.00377984 -0.00022949 0.00282766 -0.00153311 0.00394196 -0.00155064 0.00878225 0.00173896 0.00539751 -0.00196686 0.00526524 0.00541377 -0.00571445 0.00429635 0.00470303 0.00474331 -0.00281063 0.0107532 0.00526298 -0.0093063 2.53409e-05 -0.00344876 -0.00416917
internal_weight=0 358767 296736 238252 175491 185734 120515 144746 121245 48582 137152 73090 84681 47425 23452 51065 74722 17032 17008 70024 52518 46883 35118 61229 30393 16986 30745 75627 61525 31669
internal_count=655503 358767 296736 238252 175491 185734 120515 144746 121245 48582 137152 73090 84681 47425 23452 51065 74722 17032 17008 70024 52518 46883 35118 61229 30393 16986 30745 75627 61525 31669
is_linear=0
shrinkage=0.05


Tree=13
num_leaves=31
num_cat=0
split_feature=0 1 1 5 14 5 26 13 84 10 5 10 60 60 26 82 91 14 6 6 60 6 87 2 26 26 83 60 54 26
split_gain=1826.77 867.441 431.903 380.288 289.677 253.916 186.166 186.005 180.9 163.254 152.082 151.893 142.424 139.699 130.809 130.504 115.341 112.925 94.9347 93.7991 111.553 93.4443 92.7235 89.5201 89.1585 83.1933 80.2076 80.1537 78.412 85.209
threshold=1.0000000180025095e-35 -1.0000000180025095e-35 1.0000000180025095e-35 -0.021081799499999998 0.13256559000000004 0.36061829000000006 0.30124828000000009 0.43926055000000003 5.1569120000000011 -0.22114966 -0.51906192499999981 0.27590122000000006 1.3621219000000002 -1.1506978999999997 0.21000267500000003 0.7828268450000001 4.7751965500000013 -0.032106976999999988 0.14560405250000003 0.42716235000000008 -0.73189455499999989 -0.41751254999999993 5.4336017000000014 0.8821847450000001 -0.092802737999999982 -0.092802737999999982 4.5850024000000014 1.3621219000000002 2.2299598500000006 -0.10475353749999998
decision_type=2 2 2 2 2 2 2 2 2 2 2 2 2 2 2 2 2 2 2 2 2 2 2 2 2 2 2 2 2 2
left_child=2 3 5 6 10 8 11 19 9 13 -3 -2 18 -1 22 -10 28 -4 -11 20 -5 -22 23 -6 -12 -7 -8 -13 29 -9
right_child=1 4 17 7 14 25 26 16 15 12 24 27 -14 -15 -16 -17 -18 -19 -20 -21 21 -23 -24 -25 -26 -27 -28 -29 -30 -31
leaf_value=-0.0031870482427080828 -0.0014145948758693674 -0.00096965678339838333 -0.0022722685075782342 0.0040656745822977933 0.0074685081880640136 0.0005559054577988007 -0.0043220223848093259 0.0067620051295283956 -0.027903986543416977 -0.0054555384971214111 0.0064530179587692143 0.004353186441409313 -0.012853730785263246 -0.009720330148046798 0.0045075945097690874 -0.19697995639982679 -0.10992231880399315 0.0021066132243837015 -0.0018062000050844719 0.0038581527467162141 -0.0051062895399591884 -1.9888016504718897e-05 -0.080144386687155428 0.012135212225931474 0.0024656758651216888 -0.0035031454069017415 0.09341898943696704 -0.0041734227854229771 -0.01109825770579765 0.0027195324236508689
leaf_weight=10553 72431 17775 26375 13085 26307 21783 41889 27171 25 44321 26398 20431 4825 36421 22179 21 22 33328 29806 19368 11378 43750 29 16864 29898 30021 21 3186 785 25057
leaf_count=10553 72431 17775 26375 13085 26307 21783 41889 27171 25 44321 26398 20431 4825 36421 22179 21 22 33328 29806 19368 11378 43750 29 16864 29898 30021 21 3186 785 25057
internal_value=0 0.0019841 -0.00350735 0.000372603 0.00520331 -0.00474305 -0.00149249 0.00220244 -0.00595482 -0.00591861 0.00306233 -0.000279205 -0.00452996 -0.00825259 0.00762893 -0.105091 0.00453933 0.000172154 -0.00398816 0.000787324 -8.45896e-05 -0.00106968 0.00923144 0.00929147 0.0043354 -0.00179636 -0.00427305 0.00320292 0.00458683 0.00482258
internal_weight=0 418024 237479 278574 139450 177776 137958 140616 125972 125926 74071 96048 78952 46974 65379 46 53035 59703 74127 87581 68213 55128 43200 43171 56296 51804 41910 23617 53013 52228
internal_count=655503 418024 237479 278574 139450 177776 137958 140616 125972 125926 74071 96048 78952 46974 65379 46 53035 59703 74127 87581 68213 55128 43200 43171 56296 51804 41910 23617 53013 52228
is_linear=0
shrinkage=0.05


Tree=14
num_leaves=31
num_cat=0
split_feature=0 2 2 29 9 80 9 10 84 5 26 80 26 26 5 60 5 0 60 29 26 98 5 11 5 9 10 2 6 14
split_gain=1664.95 667.752 485.516 330.301 267.771 238.863 213.562 177.096 167.906 162.091 122.108 118.139 115.414 112.064 111.078 105.935 103.013 93.8793 94.0102 84.0127 78.8692 78.3098 78.5893 77.7973 76.6659 75.0596 67.5277 63.6494 63.3277 61.5477
threshold=0.12737553980000002 -0.080840134999999994 0.011700557000000002 1.0000000180025095e-35 -0.34161675802499991 -0.45529647499999998 1.0000000180025095e-35 -0.026384995499999998 5.1569120000000011 0.56692680500000014 0.038866551500000006 0.59473811500000007 -0.069438762499999987 0.17289298500000003 -0.021081799499999998 -0.73189455499999989 -0.20709080499999996 -0.63289087499999985 -1.9883043999999999 -1.0000000180025095e-35 0.30124828000000009 3.1563785000000002 0.88758846500000022 -0.42760662999999993 -1.1802777999999998 1.0000000180025095e-35 -0.12704778999999997 1.6040118000000001 1.0000000180025095e-35 0.33288943000000004
decision_type=2 2 2 2 2 2 2 2 2 2 2 2 2 2 2 2 2 2 2 2 2 2 2 2 2 2 2 2 2 2
left_child=1 4 7 5 8 20 11 15 17 12 21 19 -6 25 29 -2 -8 -1 -19 -4 -3 22 -7 -10 -14 -5 -12 -18 -26 -9
right_child=2 3 6 13 9 10 16 14 23 -11 26 -13 24 -15 -16 -17 27 18 -20 -21 -22 -23 -24 -25 28 -27 -28 -29 -30 -31
leaf_value=-0.0094047022878194636 0.0018770458914735676 -0.0027594267023569453 0.0012151962903408273 0.0031089500029939637 -0.0016826653360541455 0.00079161075776457797 0.0050562241865290082 -0.00078484899222505981 -0.17513547993841627 0.00070785000358710229 -0.0045423622444439888 0.0070060576392615122 -0.010626635324239493 0.00024390510846049844 0.004179520920960046 -0.0039503394448352066 0.0089981469524297482 0.0093464155447725347 -0.0057090756503460419 0.0054599390572214303 -0.0068760853343447781 -0.036535417460664008 0.0057200227459125305 -0.037344890609383584 -0.0064618679446892301 0.0078880414152310094 -0.00063160430504510053 0.015375817742696455 -0.002897166037939128 0.003780953787711048
leaf_weight=21301 11861 34873 34936 32409 40575 50002 16442 28191 21 26421 15728 21872 5803 27560 40051 22772 25471 1064 40667 17494 17460 135 9650 20 23300 11006 37019 4622 26778 9999
leaf_count=21301 11861 34873 34936 32409 40575 50002 16442 28191 21 26421 15728 21872 5803 27560 40051 22772 25471 1064 40667 17494 17460 135 9650 20 23300 11006 37019 4622 26778 9999
internal_value=0 -0.00188085 0.00338016 -0.000114338 -0.00412133 -0.00134206 0.00558273 0.00102221 -0.00676963 -0.00276195 -4.4214e-05 0.00391923 -0.00371239 0.00273752 0.00233987 -0.00195459 0.00823882 -0.00670383 -0.00532521 0.00263151 -0.00413288 0.0015028 0.00158889 -0.107921 -0.00518617 0.00432048 -0.00179771 0.0099777 -0.00455573 0.000410581
internal_weight=0 421792 233711 235842 185950 164867 120837 112874 63073 122877 112534 74302 96456 70975 78241 34633 46535 63032 41731 52430 52333 59787 59652 41 55881 43415 52747 30093 50078 38190
internal_count=655503 421792 233711 235842 185950 164867 120837 112874 63073 122877 112534 74302 96456 70975 78241 34633 46535 63032 41731 52430 52333 59787 59652 41 55881 43415 52747 30093 50078 38190
is_linear=0
shrinkage=0.05


Tree=15
num_leaves=31
num_cat=0
split_feature=0 1 1 29 29 29 5 26 5 5 9 3 10 87 10 9 14 10 60 91 14 26 60 3 60 6 91 26 60 5
split_gain=1573.89 759.402 394.07 381.302 266.614 247.738 221.667 184.736 141.635 135.806 117.513 115.1 114.811 111.441 111.33 107.894 98.0795 83.6236 84.6195 80.8823 79.2224 78.0385 74.4609 70.1676 68.9921 74.6425 65.9434 64.7479 64.6194 63.5956
threshold=1.0000000180025095e-35 1.0000000180025095e-35 1.0000000180025095e-35 1.0000000180025095e-35 1.0000000180025095e-35 -0.17577733079999996 -0.92082739999999996 -0.13939868999999996 0.90835218500000015 0.64873367500000012 -0.34161675802499991 0.24832664000000002 -0.25926334999999995 5.2507949000000007 0.25956040500000005 1.0000000180025095e-35 0.18961503000000005 -0.15036185499999996 -0.94129617999999993 4.6772959500000004 -0.19021788999999997 -0.46351059999999994 0.94331868000000019 0.24832664000000002 -0.73189455499999989 -1.0000000180025095e-35 3.1108847500000008 -0.12192466699999999 -1.5695010999999999 0.64873367500000012
decision_type=2 2 2 2 2 2 2 2 2 2 2 2 2 2 2 2 2 2 2 2 2 2 2 2 2 2 2 2 2 2
left_child=2 3 5 6 9 13 -2 20 10 15 19 27 -9 17 29 -3 -6 18 -1 -7 -8 -12 -16 -14 -22 -26 -25 -5 -10 -4
right_child=1 4 14 11 16 8 7 12 28 -11 21 -13 23 -15 22 -17 -18 -19 -20 -21 24 -23 -24 26 25 -27 -28 -29 -30 -31
leaf_value=-0.0045352092414571573 -0.005355797966656718 0.00087217537808272094 -0.0021043753973439745 0.0037390942164553008 0.0056733532704714498 -0.0061071132307275854 -0.00081528802508897468 -0.0043649681838557487 0.01152212452026067 0.0071405589596372533 0.00088936511112000256 0.0053588976824640562 -0.0017515093854157519 -0.091518445962514627 0.005801361581060805 0.0049495470721195893 0.010134141201609258 -0.0052257041113732174 -0.010603740996977765 -0.10426459582079024 0.0075363492961690211 -0.0033808376636945236 -0.0011527181431487173 0.0013686975487637318 -0.00042159899083867426 0.0038614029154820221 0.066432784435649719 5.6183650248683363e-05 0.00045325574965104725 0.002821908936692737
leaf_weight=7929 24260 47569 33929 20486 25862 33476 21321 27613 1473 17786 13259 34613 46657 39 12024 24623 23537 32312 20849 21 6737 55419 5662 26625 17382 24526 39 28587 12575 8119
leaf_count=7929 24260 47569 33929 20486 25862 33476 21321 27613 1473 17786 13259 34613 46657 39 12024 24623 23537 32312 20849 21 6737 55419 5662 26625 17382 24526 39 28587 12575 8119
internal_value=0 0.00183377 -0.00326569 0.000327455 0.00484739 -0.00444872 -0.000883291 -0.000248399 -0.00309345 0.00322705 -0.00374066 0.00315098 -0.00161707 -0.00702546 0.000246771 0.00226287 0.00779877 -0.00697152 -0.00893172 -0.00616865 0.00172607 -0.00255643 0.00357508 -0.000582203 0.00283994 0.00208496 0.00146386 0.00159365 0.00161388 -0.00115316
internal_weight=0 418223 237086 278846 139377 177352 195160 170900 116223 89978 102175 83686 100934 61129 59734 72192 49399 61090 28778 33497 69966 68678 17686 73321 48645 41908 26664 49073 14048 42048
internal_count=655309 418223 237086 278846 139377 177352 195160 170900 116223 89978 102175 83686 100934 61129 59734 72192 49399 61090 28778 33497 69966 68678 17686 73321 48645 41908 26664 49073 14048 42048
is_linear=0
shrinkage=0.05


Tree=16
num_leaves=31
num_cat=0
split_feature=0 10 2 2 60 60 6 6 5 3 29 83 80 60 6 10 26 29 2 14 60 60 14 60 13 60 5 83 80 50
split_gain=1420.44 717.675 380.733 361.996 279.058 243.493 291.668 233.145 187.615 178.85 155.859 147.699 147.056 125.838 136.036 122.852 121.792 112.019 99.4748 99.2329 95.6949 92.8236 86.2399 85.6361 81.5393 74.8347 73.3781 67.403 65.3623 63.9369
threshold=-1.0000000180025095e-35 0.27590122000000006 -0.00081321539999999986 -0.081156699999999984 1.3621219000000002 -0.73189455499999989 -0.41751254999999993 0.70872063000000007 0.65723603000000008 0.54249515000000004 -0.17577733079999996 4.9040563000000015 0.61010956500000002 0.73391703000000008 0.42716235000000008 -0.25926334999999995 0.22214130500000004 -0.87428233499999986 0.35117734500000003 0.22124305500000005 -1.7789027999999998 -0.73189455499999989 1.0000000180025095e-35 -1.9883043999999999 0.53874403500000012 0.73391703000000008 -0.85619387999999985 2.6251003000000002 0.55887365000000011 -1.0345281
decision_type=2 2 2 2 2 2 2 2 2 2 2 2 2 2 2 2 2 2 2 2 2 2 2 2 2 2 2 2 2 2
left_child=3 2 10 12 7 20 -7 16 15 -6 -2 -11 17 14 24 21 18 27 -3 -17 -4 -5 -19 -12 -8 -9 -25 -1 -22 -10
right_child=1 4 5 8 9 6 13 25 29 11 23 -13 -14 -15 -16 19 -18 22 -20 -21 28 -23 -24 26 -26 -27 -28 -29 -30 -31
leaf_value=-0.010609982009385115 -0.0041721999656429325 0.0042349394773637423 0.013983558837549068 -0.00096397580565383211 -0.0045429266013257402 -0.0036133215216037915 0.00064130108079230507 0.01109659660135766 0.0099225198617580324 0.0043067649032782753 0.010267345733761129 0.094122154249445256 -0.0020129092487112523 -0.0041143768345882998 0.006073616169105938 -0.0021767164832651236 0.0013979043963198666 -0.0067122778665305088 0.0093323236376448276 0.0020465912793540151 0.0030135844382653421 -0.0068412341566102819 -0.0030608585380578887 -0.0048089238171299745 0.0038775094797652739 0.0064808460440133305 -0.00014343228031713491 -0.045915034515647234 0.0091187945208527268 0.0018150034605752549
leaf_weight=10234 42270 31941 3831 10116 11615 25870 56196 21096 2753 9300 1824 46 27743 7269 23242 52614 24610 49796 13666 18907 11661 20001 23947 9538 29778 15043 72402 137 7025 20838
leaf_count=10234 42270 31941 3831 10116 11615 25870 56196 21096 2753 9300 1824 46 27743 7269 23242 52614 24610 49796 13666 18907 11661 20001 23947 9538 29778 15043 72402 137 7025 20838
internal_value=0 0.00174208 0.00037184 -0.0031024 0.00487294 0.00195336 0.00118915 0.00591214 -0.00125591 -0.00039996 -0.00169703 0.00474883 -0.00516964 0.00225573 0.0026797 -0.0021883 0.00423268 -0.00621081 0.00576236 -0.00106026 0.00678474 -0.00486712 -0.00552653 -0.000447981 0.0017622 0.00917527 -0.000686506 -0.0110764 0.00530884 0.00276113
internal_weight=0 418223 290906 237086 127317 164872 142355 106356 125229 20961 126034 9346 111857 116485 109216 101638 70217 84114 45607 71521 22517 30117 73743 83764 85974 36139 81940 10371 18686 23591
internal_count=655309 418223 290906 237086 127317 164872 142355 106356 125229 20961 126034 9346 111857 116485 109216 101638 70217 84114 45607 71521 22517 30117 73743 83764 85974 36139 81940 10371 18686 23591
is_linear=0
shrinkage=0.05


Tree=17
num_leaves=31
num_cat=0
split_feature=0 1 10 29 80 1 14 84 12 26 5 60 6 84 54 83 2 26 7 13 60 26 80 6 45 75 60 10 29 80
split_gain=1304.56 583.166 409.372 344.526 234.715 229.678 181.801 150.82 184.545 150.384 146.126 139.218 132.784 131.333 128.335 131.215 116.761 103.108 101.206 100.75 96.4827 95.0919 92.3304 86.6835 84.8384 76.2613 71.8549 80.0608 71.6478 69.6513
threshold=0.12737553980000002 -0.24580343874999996 0.22440707500000004 -0.17577733079999996 0.3940676600000001 -0.24580343874999996 -0.063640699999999981 4.4569390000000011 -2.7087332499999994 0.37983373000000004 -0.12052166499999999 1.5715236000000001 0.70872063000000007 3.5903054500000002 1.5369866000000003 1.6679386500000002 0.64156594500000008 -0.15121605499999999 -0.29976603999999996 0.19022750000000002 -0.73189455499999989 -0.13939868999999996 0.2772865650000001 -0.41751254999999993 0.80498892000000011 0.72755960000000008 -1.9883043999999999 -0.30580083999999991 -0.52502982499999984 0.23617659500000002
decision_type=2 2 2 2 2 2 2 2 2 2 2 2 2 2 2 2 2 2 2 2 2 2 2 2 2 2 2 2 2 2
left_child=1 6 5 22 11 -2 7 18 -9 14 28 12 19 -11 15 16 29 -6 -1 -5 -12 -8 -3 -22 -10 -17 -20 -28 -7 -4
right_child=2 3 9 4 17 10 21 8 24 13 20 -13 -14 -15 -16 25 -18 -19 26 -21 23 -23 -24 -25 -26 -27 27 -29 -30 -31
leaf_value=-0.0081047945028592094 -0.001675266315193027 -0.00434733438759275 0.0040589955612591383 -0.0018985028767701979 0.005396880595991695 -0.0038031291852754635 1.4308406824161563e-05 -0.18827899122238159 0.054545718537909654 0.0021157365539243669 0.0085422687021662388 -0.010312404008833549 0.0041162392052476278 0.06402232044289799 -0.00082483839614270896 0.038994468627407269 0.011189926534236542 0.0015041780011158877 0.0054383345058547092 0.0013728789555446936 -0.0017697322232875711 -0.0038774410301423675 -0.00092988268063441811 0.0041380104040396447 -0.083066559024155148 0.011823372855322284 -0.0074700336156846361 -0.0029760231475983783 0.001413308447505428 0.0083212220905629769
leaf_weight=31094 42455 51710 20825 72766 28911 7962 25264 25 21 22462 10693 3513 15453 86 4654 519 15239 41328 1793 34787 7187 41446 31992 45637 24 514 16597 24599 37994 17759
leaf_count=31094 42455 51710 20825 72766 28911 7962 25264 25 21 22462 10693 3513 15453 86 4654 519 15239 41328 1793 34787 7187 41446 31992 45637 24 514 16597 24599 37994 17759
internal_value=0 -0.00167261 0.0029835 -0.000354286 0.000788718 0.00144649 -0.0042974 -0.00600113 -0.0793587 0.00582923 0.00265715 -0.000498007 -0.000217712 0.00235185 0.00714678 0.0078231 0.00748432 0.00310645 -0.00593182 -0.000840405 0.004211 -0.00240358 -0.00304114 0.00333423 -0.0188475 0.0254747 -0.0043601 -0.00478657 0.000509547 0.00602076
internal_weight=0 421323 233986 280460 196758 151928 140863 74153 70 82058 109473 126519 123006 22548 59510 54856 53823 70239 74083 107553 63517 66710 83702 52824 45 1033 42989 41196 45956 38584
internal_count=655309 421323 233986 280460 196758 151928 140863 74153 70 82058 109473 126519 123006 22548 59510 54856 53823 70239 74083 107553 63517 66710 83702 52824 45 1033 42989 41196 45956 38584
is_linear=0
shrinkage=0.05


Tree=18
num_leaves=31
num_cat=0
split_feature=3 2 14 29 9 2 80 1 80 5 6 60 83 82 29 80 60 60 13 14 60 14 6 1 6 13 5 0 29 9
split_gain=1207.57 562.76 421.265 315.182 213.528 203.94 199.487 188.528 155.377 119.719 119.001 117.98 103.179 129.037 99.8173 91.9792 88.3574 84.2314 84.096 81.7301 80.1821 77.5712 77.0123 68.711 68.5443 66.6431 63.7329 63.59 61.7961 60.0214
threshold=0.16638157000000003 -0.16357405999999997 0.13256559000000004 -0.17577733079999996 1.0000000180025095e-35 0.9468373000000001 -0.20805078499999999 -0.24580343874999996 -0.33413009499999996 0.52557185500000014 0.70872063000000007 -1.5695010999999999 3.3543661500000006 1.1333386000000003 -1.0000000180025095e-35 -0.85261484999999981 1.1527203000000001 -1.5695010999999999 0.10839341500000001 1.0000000180025095e-35 0.73391703000000008 -0.27188419999999996 0.99027893000000011 1.0000000180025095e-35 0.42716235000000008 -0.010726089499999999 -1.3969419499999998 -0.37946873499999995 -0.17577733079999996 -0.34161675802499991
decision_type=2 2 2 2 2 2 2 2 2 2 2 2 2 2 2 2 2 2 2 2 2 2 2 2 2 2 2 2 2 2
left_child=1 6 7 15 8 9 12 28 20 25 11 -9 19 -14 21 -3 -12 -10 -13 26 24 -8 27 -6 -5 -4 -1 -19 -2 -17
right_child=2 3 5 4 23 -7 14 10 17 -11 16 18 13 -15 -16 29 -18 22 -20 -21 -22 -23 -24 -25 -26 -27 -28 -29 -30 -31
leaf_value=-0.012388390089686873 -0.0045768237560594519 -0.0061295587617993617 0.00070501240278936141 -0.0022917720641125066 0.0020959966688774072 0.010059249116789787 -0.0059444868582373966 0.011519251415653319 0.0096157977916976646 0.0074809318094477412 0.0082810097601935858 -0.00074290591387086156 -0.025343426459779345 -0.14055846176784614 0.00020265492665166065 -0.0045989362852894983 -0.00013417427662762066 -0.001905310316228506 0.0025845181696874291 -0.0035352527500811001 -0.0071819201178638971 -0.0022343354653153809 0.0059472703226523659 0.0060085073701719467 0.0028063272868115259 0.0043034042949651819 -0.006544374958260081 0.0013251239734106536 -0.00041187081353942544 -0.001065753753526014
leaf_weight=5314 13379 17003 19499 39257 24633 18835 21683 2823 2889 21149 12301 34065 150 29 25129 16231 4179 20505 42906 22298 6967 40222 7048 20611 7924 37831 38218 59259 26638 46334
leaf_count=5314 13379 17003 19499 39257 24633 18835 21683 2823 2889 21149 12301 34065 150 29 25129 16231 4179 20505 42906 22298 6967 40222 7048 20611 7924 37831 38218 59259 26638 46334
internal_value=0 -0.00160708 0.00287422 -0.000228498 0.000882414 0.00538699 -0.00402712 0.00108006 -5.98799e-05 0.00426564 0.00227899 0.0014801 -0.00609995 -0.0440095 -0.00245503 -0.00286858 0.00614709 0.00121686 0.0011119 -0.00599687 -0.00217491 -0.00353386 0.000937353 0.00387835 -0.00143555 0.00307952 -0.00725776 0.000494673 -0.00180435 -0.00198235
internal_weight=0 421704 233605 268661 189093 97314 153043 136291 143849 78479 96274 79794 66009 179 87034 79568 16480 89701 76971 65830 54148 61905 86812 45244 47181 57330 43532 79764 40017 62565
internal_count=655309 421704 233605 268661 189093 97314 153043 136291 143849 78479 96274 79794 66009 179 87034 79568 16480 89701 76971 65830 54148 61905 86812 45244 47181 57330 43532 79764 40017 62565
is_linear=0
shrinkage=0.05


Tree=19
num_leaves=31
num_cat=0
split_feature=0 9 80 1 10 1 29 60 6 10 26 84 26 60 6 87 10 60 5 6 60 60 4 14 10 60 54 26 91 60
split_gain=1120.95 587.281 341.145 307.379 212.935 191.317 188.997 146.5 136.282 126.462 122.825 116.597 116.536 114.918 100.69 94.472 93.9417 93.2027 90.3578 85.3685 81.2807 80.3783 70.1195 68.3368 68.3117 76.2763 64.0785 75.7577 107.133 63.8319
threshold=1.0000000180025095e-35 1.0000000180025095e-35 -0.27912078499999993 1.0000000180025095e-35 0.04282460300000001 0.73548993000000007 -0.17577733079999996 -1.1506978999999997 -0.41751254999999993 -0.016997455999999998 -0.011362144499999999 5.1569120000000011 0.40332896500000009 1.3621219000000002 0.70872063000000007 5.2507949000000007 0.25956040500000005 0.73391703000000008 0.56692680500000014 1.2718372500000001 2.1997285000000004 -1.5695010999999999 0.13872118000000003 -1.0000000180025095e-35 -0.15036185499999996 -1.1506978999999997 1.3022395000000002 0.30124828000000009 3.6982890500000005 1.1527203000000001
decision_type=2 2 2 2 2 2 2 2 2 2 2 2 2 2 2 2 2 2 2 2 2 2 2 2 2 2 2 2 2 2
left_child=3 2 9 6 7 12 15 -4 -9 21 23 20 18 14 -11 24 -5 19 -3 -6 -12 -2 -10 -8 25 -1 27 -7 -29 -18
right_child=1 5 4 16 17 26 10 8 22 13 11 -13 -14 -15 -16 -17 29 -19 -20 -21 -22 -23 -24 -25 -26 -27 -28 28 -30 -31
leaf_value=-0.0027565539862342294 0.0043364964202991544 0.003356511581673995 0.0058651312736601327 -0.00093950542272560602 0.0048431287193238517 0.010928664901594944 -0.0021943515702434863 -0.0030283230810511214 -0.00027604523961119768 -0.00083605806780347408 -0.0038838436136931103 -0.10612640295709884 0.00021618436472498455 -0.0071779210985148424 0.0043830286627233412 -0.083845938512912166 0.0051246126150675348 0.0010616877407731839 0.0075163341764255889 0.012814177034193495 -0.021302964738563277 -0.0048067085797267491 0.00258889527091842 0.0015310435215674548 -0.0044235592962931173 -0.0090940128195951143 0.0017535265408203504 0.0046374340893493475 0.10261469352990389 -0.0018396665549701725
leaf_weight=5998 2586 51242 11897 42048 36347 16745 34270 27542 47535 64212 62038 28 21736 6181 10795 39 13316 15965 17517 3701 677 34099 38782 19210 32312 22780 3454 7859 28 4370
leaf_count=5998 2586 51242 11897 42048 36347 16745 34270 27542 47535 64212 62038 28 21736 6181 10795 39 13316 15965 17517 3701 677 34099 38782 19210 32312 22780 3454 7859 28 4370
internal_value=0 0.0015479 0.00036922 -0.00275568 0.0017278 0.0045263 -0.00380051 0.000585675 3.40303e-05 -0.00172581 -0.00261677 -0.00411742 0.00340745 -0.000624931 -8.49276e-05 -0.00605113 0.000346464 0.00429201 0.00441627 0.00557977 -0.00407188 -0.00416219 0.00101116 -0.000856191 -0.00600146 -0.00777314 0.00813131 0.00902563 0.00498527 0.00340382
internal_weight=0 418223 299642 237086 181769 118581 177352 125756 113859 117873 116223 62743 90495 81188 75007 61129 59734 56013 68759 40048 62715 36685 86317 53480 61090 28778 28086 24632 7887 17686
internal_count=655309 418223 299642 237086 181769 118581 177352 125756 113859 117873 116223 62743 90495 81188 75007 61129 59734 56013 68759 40048 62715 36685 86317 53480 61090 28778 28086 24632 7887 17686
is_linear=0
shrinkage=0.05


Tree=20
num_leaves=31
num_cat=0
split_feature=3 2 10 10 29 29 9 26 26 26 26 91 50 80 80 80 83 82 50 7 10 29 83 54 26 50 83 41 8 16
split_gain=1062.01 505.76 374.076 248.916 244.148 219.848 178.36 171.753 139.749 135.226 132.213 106.928 103.621 102.192 89.0831 83.452 91.6507 87.0661 78.4442 75.3891 71.6217 72.2592 70.8159 70.2726 69.1438 67.957 64.3869 61.9947 61.4955 57.9369
threshold=1.0000000180025095e-35 0.063376035000000011 -0.30580083999999991 0.27590122000000006 0.5227276500000001 -0.17577733079999996 1.0000000180025095e-35 -0.15718651999999997 -0.18791206499999999 0.055680881500000008 0.17902349000000004 4.8730971500000004 1.8047724000000003 0.42338676500000005 0.50538468000000014 -0.78880843499999986 2.9897333500000003 1.1333386000000003 -1.2296960499999996 0.76061448500000006 -0.25926334999999995 0.5227276500000001 1.8046760000000002 1.6003925000000001 -0.14513198999999996 -2.2967563999999991 5.4510060000000005 0.054657129500000005 0.75796391500000015 1.0000000180025095e-35
decision_type=2 2 2 2 2 2 2 2 2 2 2 2 2 2 2 2 2 2 2 2 2 2 2 2 2 2 2 2 2 2
left_child=2 5 7 10 6 24 9 18 27 23 11 14 29 26 -3 16 -9 -18 19 -1 -10 -22 -6 28 -2 -17 -5 -7 -4 -11
right_child=1 3 4 13 22 8 -8 15 20 12 -12 -13 -14 -15 -16 25 17 -19 -20 -21 21 -23 -24 -25 -26 -27 -28 -29 -30 -31
leaf_value=-0.00036828518521001143 -0.00034354113030361913 0.0024971643676094529 -0.0013752832458237673 0.0049060877518404787 0.0028553080129400488 0.0013531320128357862 0.001303266427833009 -0.0093668522955346247 -0.0027610424651313089 -0.0049817103340469449 -2.9435459261188356e-05 -0.11188464850187302 -0.016195356470759967 0.0093281876361758238 0.0063401976487673876 0.0066612299684462228 -0.032040731493186987 -0.13778871693260347 -0.0033840601807516614 0.01124250048218298 -6.9400869882101646e-05 0.0040632052974570853 0.020055923262041721 -0.010048522106982148 -0.0038340236465960499 -0.0057127828947976314 0.088588884991148253 0.0048603504468805849 0.0028650170862182739 -0.0018091018688677039
leaf_weight=6625 23704 46498 54866 38005 28990 22799 38121 14749 18604 41130 36003 20 1753 20617 22317 1140 103 24 30069 1772 53520 13183 611 2081 35342 41563 23 28166 10129 22134
leaf_count=6625 23704 46498 54866 38005 28990 22799 38121 14749 18604 41130 36003 20 1753 20617 22317 1140 103 24 30069 1772 53520 13183 611 2081 35342 41563 23 28166 10129 22134
internal_value=0 0.00183307 -0.00221336 0.00388495 -0.000980742 0.000115636 -0.00170959 -0.00477775 0.00121985 -0.00257908 0.00242574 0.00370988 -0.00420399 0.00649352 0.00374348 -0.00650594 -0.00973103 -0.0520246 -0.00219086 0.00208191 -1.77656e-05 0.000747356 0.00321035 -0.00100405 -0.00243277 -0.00538245 0.0049567 0.00329141 -0.000714463 -0.00387172
internal_weight=0 358801 295860 163483 199815 195318 170214 96045 136272 132093 104838 68835 65017 58645 68815 57579 14876 127 38466 8397 85307 66703 29601 67076 59046 42703 38028 50965 64995 63264
internal_count=654661 358801 295860 163483 199815 195318 170214 96045 136272 132093 104838 68835 65017 58645 68815 57579 14876 127 38466 8397 85307 66703 29601 67076 59046 42703 38028 50965 64995 63264
is_linear=0
shrinkage=0.05


Tree=21
num_leaves=31
num_cat=0
split_feature=0 5 4 10 60 10 29 54 14 6 2 60 1 87 91 84 60 60 26 60 60 10 29 2 26 2 6 21 83 5
split_gain=1002.12 583.953 405.489 240.931 199.988 268.613 186.034 172.038 160.751 139.532 130.013 123.816 119.348 116.645 116.165 107.426 101.537 90.2756 90.1364 84.1521 83.5135 93.7693 81.3491 80.5413 80.118 71.3392 70.2346 70.2205 69.7779 68.4085
threshold=0.380797675 -0.45064395499999993 0.10166994000000001 0.04282460300000001 1.5715236000000001 0.27590122000000006 0.5227276500000001 2.0143498000000002 0.14225598500000003 -0.69907084999999991 -0.16357405999999997 0.52451535000000005 -0.24580343874999996 5.0679882000000012 6.8311107000000009 4.5236030000000005 -1.5695010999999999 0.94331868000000019 0.28059758500000004 0.52451535000000005 -1.5695010999999999 -0.62712429999999986 -0.17577733079999996 1.2840781000000001 -0.35737117499999999 0.77075325000000017 1.2718372500000001 1.0000000180025095e-35 1.8958342500000003 1.0184802500000003
decision_type=2 2 2 2 2 2 2 2 2 2 2 2 2 2 2 2 2 2 2 2 2 2 2 2 2 2 2 2 2 2
left_child=1 4 6 12 5 9 10 8 18 15 13 27 -2 20 17 16 -1 26 29 -7 -3 -22 -14 -19 -12 -10 -5 -11 -9 -4
right_child=3 2 7 14 -6 19 -8 28 25 11 24 -13 22 -15 -16 -17 -18 23 -20 -21 21 -23 -24 -25 -26 -27 -28 -29 -30 -31
leaf_value=0.0010133547596955217 -0.00093249309202245168 0.0038444227113627648 0.0012302413774686674 0.0067476337218381442 -0.011992821641039762 0.0030156329789266696 0.0022064547899364613 -0.0079214442240043825 0.0033950468490709946 -0.0039706075146247336 0.0017689183600516365 -0.0084795981721825075 0.00050451437458245757 -0.1137552625189225 0.12678808137774467 -0.091119980753252394 -0.007953682940192627 0.0017400674618645814 -0.0016966927717742672 -0.0021695243854242606 -0.0077942905657979178 -0.003053800821749384 0.0045470900308471713 0.0095468096242042159 -0.0015653100637402695 0.0077036426395131535 0.012654869346189705 -0.00075261117965925799 -0.034554313575679611 0.0057641704469752709
leaf_weight=3531 23708 3675 60344 31155 6827 18349 31269 2327 46353 36586 23163 9839 18126 24 20 38 29800 14877 23979 13643 12640 59709 39702 4247 81095 12119 6001 31590 275 9650
leaf_count=3531 23708 3675 60344 31155 6827 18349 31269 2327 46353 36586 23163 9839 18126 24 20 38 29800 14877 23979 13643 12640 59709 39702 4247 81095 12119 6001 31590 275 9650
internal_value=0 -0.0010061 6.96617e-05 0.00379218 -0.00363187 -0.00323376 -0.00135381 0.00201211 0.00222971 -0.00439362 -0.00197124 -0.00323623 0.00205511 -0.0035433 0.00630786 -0.00709953 -0.00700374 0.00626504 0.000948963 0.000804421 -0.00350851 -0.00388201 0.00327996 0.00347377 -0.000824545 0.00428805 0.0077017 -0.00247952 -0.0107362 0.00185533
internal_weight=0 516825 366622 137836 150203 143376 211575 155047 152445 111384 180306 78015 81536 76048 56300 33369 33331 56280 93973 31992 76024 72349 57828 19124 104258 58472 37156 68176 2602 69994
internal_count=654661 516825 366622 137836 150203 143376 211575 155047 152445 111384 180306 78015 81536 76048 56300 33369 33331 56280 93973 31992 76024 72349 57828 19124 104258 58472 37156 68176 2602 69994
is_linear=0
shrinkage=0.05


Tree=22
num_leaves=31
num_cat=0
split_feature=16 9 1 29 5 26 2 91 58 3 26 1 5 10 26 26 60 41 84 41 10 60 10 10 26 60 91 60 83 60
split_gain=933.618 452.635 430.126 263.284 242.559 168.483 152.837 141.248 134.794 133.551 129.917 103.792 100.746 97.4386 93.4702 90.3729 84.5721 83.5828 98.0095 81.5751 78.1302 69.1766 68.9039 68.1721 65.1724 65.0465 62.0589 60.9351 60.5904 60.236
threshold=0.51329210815000004 -1.0000000180025095e-35 -0.24580343874999996 1.0000000180025095e-35 -0.2799894349999999 0.14290106000000002 0.9468373000000001 5.2646998500000004 1.8901385000000002 -0.61943414999999991 -0.10475353749999998 -0.24580343874999996 0.56692680500000014 -0.30580083999999991 -0.19386666499999997 0.21000267500000003 -1.5695010999999999 0.27461121000000005 3.6569697000000008 0.13081398500000002 0.25956040500000005 3.8749416000000001 0.14633215500000005 -0.56874000999999985 -0.040362668499999997 -1.9883043999999999 3.8940903000000002 -1.5695010999999999 3.7189993000000006 1.7809252500000003
decision_type=2 2 2 2 2 2 2 2 2 2 2 2 2 2 2 2 2 2 2 2 2 2 2 2 2 2 2 2 2 2
left_child=2 3 7 5 15 11 12 9 -9 21 20 -2 24 27 25 22 -13 -5 -19 -18 -6 -1 -4 -7 -3 -11 -16 -12 -22 -25
right_child=1 6 4 17 10 23 -8 8 -10 14 13 16 -14 -15 26 -17 19 18 -20 -21 28 -23 -24 29 -26 -27 -28 -29 -30 -31
leaf_value=-0.0067457300328993379 -0.0015129105257605374 0.0047661548297776215 -0.0025888139878132831 0.0020256666467202496 0.0012974633319367179 -0.0063853823142274932 0.0093103201849855047 -0.022071536437475257 -0.18001368994062597 0.013361801435983908 0.0054700252793172012 0.012414784620584393 0.007319280657773073 0.00031241712946361577 -0.0044524516149666666 -0.0048935048276656538 8.7999153549625728e-05 0.005479672629574505 0.065150488552340458 0.0036518315528692538 0.005402360990964427 -0.067445432088796692 0.0015436325055434722 -0.001363554390372044 0.0012600804476105138 -0.001174716338640396 0.070006338952641398 -0.0044781744780940822 -0.061412587937186749 -0.010897723000781644
leaf_weight=35680 28663 25310 36879 42234 47729 8921 16853 35 22 793 1677 1925 17340 63091 49433 30745 33838 25689 69 30557 16714 47 13885 52151 27827 26037 28 18744 34 1711
leaf_count=35680 28663 25310 36879 42234 47729 8921 16853 35 22 793 1677 1925 17340 63091 49433 30745 33838 25689 69 30557 16714 47 13885 52151 27827 26037 28 18744 34 1711
internal_value=0 0.00197616 -0.0018038 0.000793746 -0.00056389 -0.000327194 0.00503285 -0.00434279 -0.0830317 -0.00430275 0.000642471 0.00100124 0.00400999 -0.000659246 -0.00312131 -0.00275418 0.00208783 0.00339473 0.00563952 0.00177912 0.00232848 -0.00682558 -0.0014585 -0.00233695 0.00293008 -0.000745068 -0.0044103 -0.00366121 0.00526672 -0.00166642
internal_weight=0 313088 341573 225758 229498 157766 87330 112075 57 112018 147989 94983 70477 83512 76291 81509 66320 67992 25758 64395 64477 35727 50764 62783 53137 26830 49461 20421 16748 53862
internal_count=654661 313088 341573 225758 229498 157766 87330 112075 57 112018 147989 94983 70477 83512 76291 81509 66320 67992 25758 64395 64477 35727 50764 62783 53137 26830 49461 20421 16748 53862
is_linear=0
shrinkage=0.05


Tree=23
num_leaves=31
num_cat=0
split_feature=13 14 5 0 1 84 54 1 26 6 60 29 10 84 91 10 4 60 21 84 54 58 6 58 91 80 7 60 29 86
split_gain=871.804 383.058 381.186 254.295 243.054 194.93 172.931 170.554 142.661 139.866 174.571 131.349 113.782 106.358 104.351 102.689 102.277 92.4013 90.9643 112.814 89.7243 92.194 86.8708 84.654 127.229 80.8037 79.7796 71.8288 71.692 63.7267
threshold=0.11914517000000001 -0.05574646049999999 0.36061829000000006 -0.37946873499999995 0.73548993000000007 3.3236490000000005 1.6003925000000001 -0.24580343874999996 0.197599145 0.42716235000000008 -1.5695010999999999 -0.17577733079999996 0.31974479500000003 3.5903054500000002 4.4814943000000005 -0.30580083999999991 -2.7880276499999996 -0.94129617999999993 -1.0000000180025095e-35 5.1569120000000011 1.8739900000000003 0.027384291000000002 -0.41751254999999993 0.30648744000000006 4.1877925000000014 -1.0636275499999999 0.10417261000000001 -0.52249291499999984 1.0000000180025095e-35 -0.55031554999999988
decision_type=2 2 2 2 2 2 2 2 2 2 2 2 2 2 2 2 2 2 2 2 2 2 2 2 2 2 2 2 2 2
left_child=2 7 3 18 6 11 8 14 12 10 -4 -5 17 -11 -2 -12 -7 -3 19 -1 28 -22 -19 -8 -25 -13 -9 -17 -6 -15
right_child=1 4 9 5 20 16 23 26 -10 13 15 25 -14 29 -16 27 -18 22 -20 -21 21 -23 -24 24 -26 -27 -28 -29 -30 -31
leaf_value=-0.0066608267897188813 -0.0033189340146751547 0.0081164914029609615 0.007715831341698183 -0.0036727470174149342 0.0058107188952609898 0.12522713654838943 -0.0017055903815576591 -0.00056113603475390207 0.0005130704572243386 0.0038782732046918657 -0.0031571673640314701 -0.0034206976962100179 0.0064395944179758665 -0.0063444788940250881 -0.1035279460824453 0.0050978250902522521 0.030834317570248539 -0.0018768017053748542 -0.0031284489881320899 -0.12544010054320096 0.0058089996919889397 -0.015970768220162988 0.0030401916103905049 -0.01229947917747474 -0.10716403334194587 -0.00016765977546654532 0.0027396827700513398 -0.00023039325595585903 0.010454999238168205 0.10092249443133672
leaf_weight=41804 32105 7237 6489 59661 21109 34 4731 39571 43963 25846 29291 23751 31107 20 26 7484 184 11011 30546 20 1168 832 48769 1940 36 97262 34064 40851 13704 45
leaf_count=41804 32105 7237 6489 59661 21109 34 4731 39571 43963 25846 29291 23751 31107 20 26 7484 184 11011 30546 20 1168 832 48769 1940 36 97262 34064 40851 13704 45
internal_value=0 0.00204113 -0.00163032 -0.00269784 0.00340966 -0.00169571 0.00250968 -0.000360478 0.00288002 0.000826934 -0.000162495 -0.00175272 0.0039405 0.00403892 -0.00340002 -0.000821068 0.0455561 0.0027805 -0.0052027 -0.00671763 0.00704727 -0.00325138 0.00213452 -0.00533592 -0.0140278 -0.000806128 0.000965843 0.000594607 0.00763892 0.0679173
internal_weight=0 291373 363288 253262 185607 180892 148794 105766 142087 110026 84115 180674 98124 25911 32131 77626 218 67017 72370 41824 36813 2000 59780 6707 1976 121013 73635 48335 34813 65
internal_count=654661 291373 363288 253262 185607 180892 148794 105766 142087 110026 84115 180674 98124 25911 32131 77626 218 67017 72370 41824 36813 2000 59780 6707 1976 121013 73635 48335 34813 65
is_linear=0
shrinkage=0.05


Tree=24
num_leaves=31
num_cat=0
split_feature=0 2 10 60 60 26 14 6 80 91 12 60 60 60 2 10 60 60 6 60 26 2 14 14 5 60 10 6 6 6
split_gain=818.936 492.382 276.392 248.443 244.118 226.885 203.425 158.954 141.216 140.26 135.045 122.187 118.688 109.946 107.505 95.1567 97.3794 87.6627 86.3842 89.6616 84.9533 82.8226 80.775 77.9398 74.5363 70.2753 86.918 69.1115 62.8588 60.3168
threshold=0.380797675 1.0000000180025095e-35 -0.22114966 -0.73189455499999989 1.3621219000000002 0.197599145 0.017114768000000006 0.14560405250000003 0.3940676600000001 5.2646998500000004 -2.4425124999999994 -2.8259108999999998 -0.52249291499999984 0.52451535000000005 1.7649847000000001 -0.25926334999999995 1.7809252500000003 3.2467368000000003 -0.69907084999999991 0.31511368000000006 0.59387020000000013 -0.16086145499999996 -0.032106976999999988 -0.37950147499999992 0.49674550000000006 -1.1506978999999997 0.25956040500000005 -0.41751254999999993 0.42716235000000008 0.70872063000000007
decision_type=2 2 2 2 2 2 2 2 2 2 2 2 2 2 2 2 2 2 2 2 2 2 2 2 2 2 2 2 2 2
left_child=1 2 3 9 7 8 21 12 22 11 -11 -1 -4 29 20 -7 28 -6 -5 -20 24 -2 -3 -13 -8 -10 -27 -14 -17 -9
right_child=6 5 4 18 17 15 14 13 25 10 -12 23 27 -15 -16 16 -18 -19 19 -21 -22 -23 -24 -25 -26 26 -28 -29 -30 -31
leaf_value=0.013822181546169033 -0.001010928240547137 -0.00098401721518126973 0.0023690830253228876 -0.0095025646661376344 -0.0078289546146752698 -0.0042496176807342301 0.0043288882096352834 0.0010918496978366277 0.010011007263230363 -0.18650946125388146 -0.008859698120099695 -0.0044729367499361872 -0.0050458660935943636 -0.0020740656004917916 0.012188207516580028 -0.0010360623410895814 -0.0092726695453487131 -0.031920765711613112 -0.0045464551866019436 -0.012545677785809957 0.00079739235917994789 0.0027186404504586474 0.0021175509856999138 0.0002408609282890194 0.008315394238108743 0.0021153423711274362 0.0066870335142603906 -0.0019084582381040417 0.0023847565420841749 0.0048663318921703322
leaf_weight=1318 23072 35191 12880 16440 9627 19701 39445 49664 4659 20 23 14775 24190 24093 5176 37649 2855 393 39819 3841 11504 41954 52027 21573 16685 32500 15287 63974 20875 13451
leaf_count=1318 23072 35191 12880 16440 9627 19701 39445 49664 4659 20 23 14775 24190 24093 5176 37649 2855 393 39819 3841 11504 41954 52027 21573 16685 32500 15287 63974 20875 13451
internal_value=0 -0.000909702 -0.00224227 -0.00441732 -0.0011693 0.000877649 0.0034279 -0.000764535 0.00209901 -0.00123599 -0.0914875 -0.00113296 -0.0021143 0.000799378 0.00524316 -0.0012262 -0.000255762 -0.00877387 -0.0064134 -0.00525019 0.00471166 0.00139535 0.00086612 -0.00167524 0.0055139 0.00414931 0.00357782 -0.00276928 0.000184114 0.00189626
internal_weight=0 516825 296081 97809 198272 220744 137836 188252 139664 37709 43 37666 101044 87208 72810 81080 61379 10020 60100 43660 67634 65026 87218 36348 56130 52446 47787 88164 58524 63115
internal_count=654661 516825 296081 97809 198272 220744 137836 188252 139664 37709 43 37666 101044 87208 72810 81080 61379 10020 60100 43660 67634 65026 87218 36348 56130 52446 47787 88164 58524 63115
is_linear=0
shrinkage=0.05


Tree=25
num_leaves=31
num_cat=0
split_feature=14 0 3 80 29 29 26 26 84 60 5 10 60 91 60 81 10 60 29 2 6 83 60 41 2 2 17 84 2 98
split_gain=804.888 379.689 378.845 260.462 187.739 181.139 130.185 124.961 118.668 120.615 97.7225 95.2551 101.08 132.229 100.373 92.5822 92.3851 87.9016 85.2635 83.9069 74.8991 70.4903 65.1259 64.3382 59.6491 59.4534 57.7509 63.8 56.6201 55.0293
threshold=-1.0000000180025095e-35 -0.37946873499999995 0.38779291500000007 0.42338676500000005 -0.17577733079999996 1.0000000180025095e-35 -0.080745154999999985 0.29439974000000008 5.6568932000000007 -1.1506978999999997 0.57359047000000007 -0.24741658499999997 -1.5695010999999999 4.6772959500000004 1.7809252500000003 2.8207202000000007 0.04282460300000001 0.94331868000000019 0.5227276500000001 -1.0000000180025095e-35 0.70872063000000007 4.9040563000000015 4.5031463 0.047578560500000006 0.82499441500000004 0.8659659500000001 -0.86583202499999989 3.5903054500000002 -0.16357405999999997 2.6147300000000002
decision_type=2 2 2 2 2 2 2 2 2 2 2 2 2 2 2 2 2 2 2 2 2 2 2 2 2 2 2 2 2 2
left_child=1 11 5 4 -3 7 23 19 9 -5 21 12 13 -1 18 -16 28 20 -13 -2 -8 24 25 -6 -4 -7 27 -9 -11 -21
right_child=2 3 10 8 6 22 17 26 -10 16 -12 14 -14 -15 15 -17 -18 -19 -20 29 -22 -23 -24 -25 -26 -27 -28 -29 -30 -31
leaf_value=0.00012548636318803708 -0.00052065488224034638 -0.0039275923161013184 0.0029962285568822405 0.0075293399536436661 -0.00052074412716698762 0.0024756025504653477 -0.0019332442623405115 -0.0064948793493708693 -0.10949442620233943 -0.0024033155261645473 0.0078696757206327649 -0.0034224425888942363 -0.007442173880195857 -0.1051060223331054 -0.012185578155606988 -0.065696802100933649 0.0035548475855611927 -0.007132275724438801 0.0023740751299783616 0.0025666490522157346 0.0035736755752641177 0.07197451162102976 -0.070602773750821746 0.0028137292708804761 0.0068176892075518906 0.0068143032339669177 -0.0015108318529277918 0.078771858594634314 0.0010687343726384477 -0.021389812254443519
leaf_weight=6053 51124 60870 45539 8054 27926 56368 61786 7814 24 17678 21022 43305 31037 30 1648 85 25806 7361 7433 44833 6860 38 30 30014 13163 9182 35327 22 34968 241
leaf_count=6053 51124 60870 45539 8054 27926 56368 61786 7814 24 17678 21022 43305 31037 30 1648 85 25806 7361 7433 44833 6860 38 30 30014 13163 9182 35327 22 34968 241
internal_value=0 -0.00151391 0.00202056 -0.000611205 -0.0016251 0.000882703 -0.000578764 -0.000137007 0.00167151 0.00170235 0.00494418 -0.0043487 -0.00628708 -0.000393492 -0.00297742 -0.0148102 0.00110414 -0.00193973 -0.00257327 0.000865898 -0.00138292 0.0038972 0.00304964 0.00120658 0.00385313 0.00308335 -0.0023722 -0.00625549 -9.71452e-05 0.00243856
internal_weight=0 370938 284703 281347 194817 204941 133947 139361 86530 86506 79762 89591 37120 6083 52471 1733 78452 76007 50738 96198 68646 58740 65580 57940 58702 65550 43163 7836 52646 45074
internal_count=655641 370938 284703 281347 194817 204941 133947 139361 86530 86506 79762 89591 37120 6083 52471 1733 78452 76007 50738 96198 68646 58740 65580 57940 58702 65550 43163 7836 52646 45074
is_linear=0
shrinkage=0.05


Tree=26
num_leaves=31
num_cat=0
split_feature=16 9 1 29 29 26 26 84 4 26 89 54 6 83 9 60 7 9 80 60 6 10 83 60 60 81 2 84 26 30
split_gain=738.318 357.426 344.675 205.861 202.846 156.562 138.134 131.065 115.51 108.924 104.327 94.6521 100.568 86.8049 82.3897 80.9121 75.6947 74.4425 69.029 68.7054 79.5396 68.1081 86.8222 65.9966 65.7056 61.9814 61.6986 60.6989 55.286 54.0158
threshold=0.51329210815000004 1.0000000180025095e-35 -0.24580343874999996 1.0000000180025095e-35 -0.17577733079999996 0.19153184500000001 -0.086710799999999991 5.1569120000000011 0.15775560500000002 -0.35737117499999999 1.3997012500000003 2.2299598500000006 0.70872063000000007 1.6679386500000002 -0.34161675802499991 1.3621219000000002 -0.29976603999999996 1.0000000180025095e-35 0.23617659500000002 -0.94129617999999993 -0.41751254999999993 0.34200097500000004 2.1693090000000006 0.94331868000000019 -1.5695010999999999 2.2563634000000001 -0.16357405999999997 4.1236184000000007 -0.35737117499999999 1.4458042500000003
decision_type=2 2 2 2 2 2 2 2 2 2 2 2 2 2 2 2 2 2 2 2 2 2 2 2 2 2 2 2 2 2
left_child=2 3 7 6 19 11 24 9 13 -1 -9 12 17 -3 -11 27 25 -6 -8 -4 -21 28 23 -23 -2 -10 -26 -7 -5 -15
right_child=1 8 4 21 5 15 18 10 16 14 -12 -13 -14 29 -16 -17 -18 -19 -20 20 -22 22 -24 -25 26 -27 -28 -29 -30 -31
leaf_value=-0.0011777369360934428 0.0092020631854293818 0.0019909060923963963 0.0024086013199204198 0.0047957991968679212 0.00032685520050172246 -0.0011283333110640235 -0.0026957617979326536 -0.013736726884962991 0.0038979135198566744 -0.0068114127278938097 -0.14352267719805242 -0.014649454461988232 0.0055005043745020802 0.019296165459455922 -0.0035426299662625243 -0.0088251756554831307 0.0074422341404744331 0.0037923902225959379 0.00015589392302089555 -0.0058552268109718694 -0.0020268551354124548 0.0077718377398861829 0.037555452376445281 -0.00018121235114676958 -0.0010597586386139393 -0.013002646564478604 0.0021787673758966149 0.083893973189627838 0.0012380842995204722 -0.059989587082104251
leaf_weight=28945 2604 36315 5858 15142 66403 55523 53810 32 16450 30413 30 882 15568 912 52647 3606 33203 20213 35041 19978 42281 9890 217 3543 21998 561 44372 21 39161 22
leaf_count=28945 2604 36315 5858 15142 66403 55523 53810 32 16450 30413 30 882 15568 912 52647 3606 33203 20213 35041 19978 42281 9890 217 3543 21998 561 44372 21 39161 22
internal_value=0 0.00177407 -0.00158499 0.000722848 -0.000478451 0.000483063 -0.000267831 -0.00385929 0.00448771 -0.00381906 -0.0765364 0.00165982 0.00180059 0.002378 -0.00473952 -0.00156738 0.00605271 0.00113558 -0.00157113 -0.00276823 -0.00325532 0.00302376 0.00618102 0.00567419 0.00141105 0.00334056 0.00110537 -0.00109619 0.00223013 0.0174286
internal_weight=0 313241 342400 225778 230333 162216 157825 112067 87463 112005 62 103066 102184 37249 83060 59150 50214 86616 88851 68117 62259 67953 13650 13433 68974 17011 66370 55544 54303 934
internal_count=655641 313241 342400 225778 230333 162216 157825 112067 87463 112005 62 103066 102184 37249 83060 59150 50214 86616 88851 68117 62259 67953 13650 13433 68974 17011 66370 55544 54303 934
is_linear=0
shrinkage=0.05


Tree=27
num_leaves=31
num_cat=0
split_feature=14 0 0 80 5 80 29 10 26 83 60 6 60 84 60 41 5 83 29 26 84 54 29 10 81 84 60 5 60 60
split_gain=694.826 331.89 330.462 180.835 177.066 140.553 136.915 129.799 104.971 103.964 100.917 152.52 98.4613 90.8168 91.0083 84.4289 81.4153 81.315 80.178 76.116 71.499 70.6611 67.2412 65.6125 93.2004 63.9906 62.1177 60.9659 60.6044 59.92
threshold=-1.0000000180025095e-35 1.0000000180025095e-35 0.380797675 0.67143582000000013 0.70835050500000019 -0.76938929999999994 -0.17577733079999996 -0.22114966 -0.080745154999999985 2.9897333500000003 0.94331868000000019 0.42716235000000008 -0.94129617999999993 5.6568932000000007 -1.1506978999999997 -0.62109307999999985 0.49674550000000006 4.9040563000000015 -0.87428233499999986 -0.43730716499999994 2.5236792500000003 -1.5439389499999998 1.0000000180025095e-35 -0.016997455999999998 2.4847972500000002 3.5903054500000002 -0.73189455499999989 -1.3011407999999998 1.7809252500000003 0.94331868000000019
decision_type=2 2 2 2 2 2 2 2 2 2 2 2 2 2 2 2 2 2 2 2 2 2 2 2 2 2 2 2 2 2
left_child=1 5 4 6 7 9 -3 12 -8 21 11 -9 -2 14 -5 20 17 23 -7 -20 -11 -1 -16 -4 -25 29 -6 -12 -23 -10
right_child=2 3 16 13 26 18 8 10 25 15 27 -13 -14 -15 22 -17 -18 -19 19 -21 -22 28 -24 24 -26 -27 -28 -29 -30 -31
leaf_value=0.0033449356145457717 0.0022467199217488945 -0.0031698953107620639 0.00046577604164984307 0.0086986783347469641 0.0082446194807068562 -0.0062217476268382546 0.0016531409222862699 0.00047407750983796806 -0.00091982489787438527 -0.024746819260180929 -0.0097835144312041177 0.0047003136263925127 -0.0033471001582030336 -0.10163234646121662 0.00049440345253046441 -0.00035654337368380858 0.0073321271021470555 0.075856366199560654 0.00064368752180426645 -0.0026351167706723201 -0.10427614737015506 -0.0059421698589999551 0.0045132562826777833 0.0050016743622559113 -0.011709004617214275 0.064353437198174976 0.0030187778207694713 -0.0013190972909151964 -0.019065205307536831 -0.0060565096865266444
leaf_weight=2015 10130 50299 12422 5139 7000 12036 50921 82481 58289 50 2480 28803 35208 21 34487 71 21777 39 22744 79821 65 32842 14907 38247 853 37 30304 14959 904 6290
leaf_count=2015 10130 50299 12422 5139 7000 12036 50921 82481 58289 50 2480 28803 35208 21 34487 71 21777 39 22744 79821 65 32842 14907 38247 853 37 30304 14959 904 6290
internal_value=0 -0.00140715 0.00187678 -0.000171039 0.000873361 -0.00321672 -0.000992505 0.000203403 -4.45784e-05 -0.00594454 0.00101373 0.00156793 -0.00209726 0.0023261 0.00236613 -0.0432291 0.0047687 0.00368603 -0.00236108 -0.00190804 -0.0696982 -0.00575061 0.00170728 0.0036314 0.00463712 -0.00138248 0.00399939 -0.00252282 -0.00629371 -0.00142014
internal_weight=0 370938 284703 220390 211365 150548 165836 174061 115537 35947 128723 111284 45338 54554 54533 186 73338 51561 114601 102565 115 35761 49394 51522 39100 64616 37304 17439 33746 64579
internal_count=655641 370938 284703 220390 211365 150548 165836 174061 115537 35947 128723 111284 45338 54554 54533 186 73338 51561 114601 102565 115 35761 49394 51522 39100 64616 37304 17439 33746 64579
is_linear=0
shrinkage=0.05


Tree=28
num_leaves=31
num_cat=0
split_feature=13 54 1 5 91 6 25 16 9 58 26 0 60 60 10 83 54 26 60 10 50 60 10 95 83 91 95 86 45 1
split_gain=664.292 333.466 307.229 291.77 222.762 216.679 216.625 161.093 156.507 137.287 118.37 117.268 95.966 95.7307 92.5993 89.8298 86.7042 87.1309 82.3728 113.26 77.6921 77.6578 101.505 76.5762 121.866 85.4459 77.7072 75.5709 71.5941 71.1625
threshold=0.10839341500000001 1.8739900000000003 1.0000000180025095e-35 0.64873367500000012 5.1667995000000007 -0.98062914999999984 1.3498219000000002 1.0000000180025095e-35 -0.34161675802499991 0.19794103500000002 -0.17559236499999997 0.380797675 -1.5695010999999999 1.1527203000000001 0.54573050500000009 1.6223595500000003 -1.5439389499999998 0.10791599 0.73391703000000008 0.10087232 -1.4887871999999998 -1.9883043999999999 -0.30580083999999991 2.3042708500000004 3.7645783000000006 3.6982890500000005 2.0561490000000004 -0.82580747999999993 1.9725409500000002 -0.24580343874999996
decision_type=2 2 2 2 2 2 2 2 2 2 2 2 2 2 2 2 2 2 2 2 2 2 2 2 2 2 2 2 2 2
left_child=3 2 8 5 9 12 -6 18 -2 -3 -4 13 -1 14 -10 21 -9 -18 19 20 -7 -5 -23 24 25 26 -17 -26 -8 -22
right_child=1 4 10 15 6 7 28 16 11 -11 -12 -13 -14 -15 -16 23 17 -19 -20 -21 29 22 -24 -25 27 -27 -28 -29 -30 -31
leaf_value=0.00098829661851592256 -0.001856696849909929 -0.0023213554639007479 0.0061285897446379306 0.010392233903855692 0.0025662398571148514 0.0054408275664621017 -0.19858552850782873 0.0061887833917931064 0.00063584675443932636 -0.015109744404706789 0.0027220340207623284 0.0040524051185652768 -0.0065716741315992857 -0.0051905414736729411 0.0056361062778454013 0.017007898270795723 0.00085522179842218013 -0.001940337992205439 -0.0059996400986704673 0.00075150331117911019 -0.0051199341950249342 -0.0019465318174891931 0.002339087139021648 0.04310640471898057 -0.13812109299681405 0.088370356543196582 -0.01639826162686487 -0.0038304959144443277 -0.077993003763258462 -0.0022590769509781795
leaf_weight=4804 41234 6094 46764 2265 40 2630 32 5073 87050 3201 56083 37235 33264 6303 10361 834 57717 53903 16856 24727 33632 20299 43265 198 22 36 220 20 20 61459
leaf_count=4804 41234 6094 46764 2265 40 2630 32 5073 87050 3201 56083 37235 33264 6303 10361 834 57717 53903 16856 24727 33632 20299 43265 198 22 36 220 20 20 61459
internal_value=0 0.00178079 0.00208617 -0.00141894 -0.0074917 -0.00209803 -0.0849125 -0.00157465 0.000852782 -0.0067254 0.00427098 0.00164543 -0.00561764 0.000781285 0.00116769 0.00155459 -0.000204241 -0.000494797 -0.00272262 -0.00227151 -0.00303645 0.00129466 0.000970486 0.0144196 0.00940197 0.0126223 0.0100351 -0.0741732 -0.152204 -0.00327091
internal_weight=0 294417 285030 361224 9387 294065 92 255997 182183 9295 102847 140949 38068 103714 97411 67159 116693 111620 139304 122448 97721 65829 63564 1330 1132 1090 1054 42 52 95091
internal_count=655641 294417 285030 361224 9387 294065 92 255997 182183 9295 102847 140949 38068 103714 97411 67159 116693 111620 139304 122448 97721 65829 63564 1330 1132 1090 1054 42 52 95091
is_linear=0
shrinkage=0.05


Tree=29
num_leaves=31
num_cat=0
split_feature=9 5 3 21 10 60 10 14 31 60 10 84 30 5 3 60 5 84 29 6 26 6 29 29 54 85 2 19 6 26
