tree
version=v3
num_class=1
num_tree_per_iteration=1
label_index=0
max_feature_idx=99
objective=regression
feature_names=x0 x1 x2 x3 x4 x5 x6 x7 x8 x9 x10 x11 x12 x13 x14 x15 x16 x17 x18 x19 x20 x21 x22 x23 x24 x25 x26 x27 x28 x29 x30 x31 x32 x33 x34 x35 x36 x37 x38 x39 x40 x41 x42 x43 x44 x45 x46 x47 x48 x49 x50 x51 x52 x53 x54 x55 x56 x57 x58 x59 x60 x61 x62 x63 x64 x65 x66 x67 x68 x69 x70 x71 x72 x73 x74 x75 x76 x77 x78 x79 x80 x81 x82 x83 x84 x85 x86 x87 x88 x89 x90 x91 x92 x93 x94 x95 x96 x97 x98 x99
feature_infos=[-10.389643:11.40466] [-12.266646:15.209567] [-9.0198359999999997:17.494726] [-10.2262:11.443974000000001] [-5.0840649999999998:5.9391930000000004] [-10.398553:7.9498829999999998] [-27.869446:18.587671] [-10.018095000000001:7.2188616000000003] [-8.6739645000000003:7.5378838000000004] [-11.599138999999999:13.645001000000001] [-26.663772999999999:27.961212] [-4.8524345999999996:6.1888265999999996] [-6.3669704999999999:8.6732010000000006] [-5.6719920000000004:5.0597180000000002] [-13.327038:13.819642] [-9.816751:10.693419] [-1.0104454:1.0212045999999999] [-8.2012619999999998:8.9172460000000004] [-2.3451876999999999:2.3772275] [-8.4329359999999998:6.5129843000000003] [-1.4318628:1.4678268000000001] [-1.0427138:1.0232848000000001] [-1.0058735999999999:1.0199113] [-9.0985709999999997:9.5752039999999994] [-3.5443994999999999:3.6051435000000001] [-1.4604305:1.5203150000000001] [-12.139716:12.784757000000001] [-6.1569475999999996:8.0677269999999996] [-6.1055130000000002:6.71143] [-29.338360000000002:27.240542999999999] [-3.9113547999999998:4.0514200000000002] [-12.018281:12.312346] [-8.9514220000000009:12.678822] [-1.4711177:1.5445571] [-2.5055274999999999:2.5356277999999999] [-1.0647850000000001:1.0623899999999999] [-3.8373632:4.1485485999999998] [-4.5437820000000002:3.9478314000000001] [-10.084731:10.967725] [-5.3148669999999996:7.6066229999999999] [-2.3701903999999998:2.3481480000000001] [-12.56596:10.235652999999999] [-1.4784318000000001:1.5760008999999999] [-3.8910813000000002:5.0542239999999996] [-14.079602:6.9891553000000002] [-4.1087020000000001:4.2719849999999999] [-9.9137880000000003:13.095827999999999] [-2.4491329999999998:2.4519193000000001] [-2.4205595999999998:2.3572829999999998] [-6.9895209999999999:9.2254500000000004] [-12.233074:7.6676359999999999] [-2.3344548000000001:2.3046730000000002] [-8.9078040000000005:8.9873740000000009] [-2.4427970000000001:2.3747767999999998] [-19.871672:10.516862] [-2.4373524:2.3812175] [-2.3319252000000001:2.3399003] [-25.155110000000001:30.03539] [-10.384088999999999:6.0710959999999998] [-2.3334625:2.3496583000000002] [-8.7938580000000002:7.7488720000000004] [-7.6747084000000001:10.191345999999999] [-9.3833500000000001:8.5578780000000005] [-2.3308089999999999:2.3542087] [-2.3056405:2.2564662000000002] [-9.2559780000000007:6.9210279999999997] [-2.1680220000000001:2.134779] [-2.4078781999999999:2.4074295000000001] [-2.1667117999999999:2.1110085999999999] [-2.3382046000000001:2.3343980000000002] [-2.1711844999999999:2.0795157] [-10.0504:7.3480252999999998] [-2.3265996000000002:2.2674026] [-26.976486000000001:44.956367] [-2.1537693:2.0594739999999998] [-7.5897245:5.9486213000000001] [-8.1723470000000002:8.6313010000000006] [-5.3294980000000001:7.7573604999999999] [-9.4191020000000005:8.3685469999999995] [-4.9844831999999997:5.0633844999999997] [-3.4904826:3.4038126000000002] [-0.94026094999999998:15.365024999999999] [-2.6620352:2.7018056000000001] [-1.363073:9.4847570000000001] [-1.3761715000000001:14.156568999999999] [-0.98899614999999996:16.274965000000002] [-3.6850163999999999:3.6301519999999998] [-1.4216523000000001:34.408478000000002] [-4.4576025000000001:4.0801369999999997] [-4.0258180000000001:3.9614950000000002] [-0.9844311:19.821912999999999] [-1.5393981000000001:20.390357999999999] [-2.7906556:2.6212605999999998] [-0.53560110000000005:88.621269999999996] [-1.6086605:15.580272000000001] [-2.8713397999999999:2.4361820000000001] [-1.066103:10.22339] [-0.53987426000000005:35.772666999999998] [-0.97137320000000005:25.142434999999999] [-2.8120408000000001:2.7694485000000002]
tree_sizes=3211 3219 3224 3222 3216 3194 3212 3192 3195 3212 3204 3199 3209 3194 3203 3198 3209 3220 3196 3196 3190 3196 3191 3196 3176 3200 3193 3191 3188 3187 3220 3178 3209 3212 3193 3189 3202 3182 3198 3209 3182 3205 3189 3212 3196 3183 3175 3187 3201 3207 3204 3206 3197 3198 3182 3181 3175 3165 3197 3184 3217 3228 3207 3225 3206 3194 3200 3190 3202 3182 3168 3206 3185 3191 3158 3213 3205 3201 3195 3174 3183 3182 3175 3202 3212 3169 3177 3177 3184 3183 3194 3201 3185 3212 3178 3209 3172 3214 3165 3162 3217 3200 3222 3197 3213 3165 3189 3139 3156 3178 3156 3159 3154 3175 3157 3177 3194 3184 3195 3195 3172 3185 3189 3187 3186 3191 3199 3182 3198 3203 3195 3174 3203 3203 3188 3207 3215 3209 3204 3208 3189 3174 3185 3175 3165 3193 3209 3184 3225 3197 3181 3208 3184 3200 3179 3190 3171 3201 3195 3180 3207 3206 3170 3215 3188 3139 3171 3152 3135 3149 3207 3195 3190 3173 3172 3172 3187 3183 3191 3180 3164 3184 3156 3198 3145 3170 3185 3193 3163 3151 3193 3200 3174 3203 3186 3190 3168 3188 3193 3156 3180 3185 3152 3182 3160 3151 3190 3174 3130 3165 3166 3142 3174 3155 3142 3169 3188 3164 3147 3144 3156 3148 3166 3173 3167 3169 3182 3149 3177 3166 3131 3160 3137 3153 3123 3141 3168 3144 3144 3158 3168 3156 3149 3162 3153 3181 3172 3183 3106 3189 3149 3141 3137 3162 3147 3155 3119 3147 3130 3179 3153 3097 3169 3133 3159 3194 3159 3155 3190 3157 3138 3151 3131 3163 3139 3125 3126 3147 3151 3117 3071 3162 3164 3134 3103 3117 3146 3134 3114 3122 3169 3178 3127 3132 3157 3155 3167 3151 3142 3106 3171 3092 3089 3112 3166 3174 3105 3119 3105 3209 3123 3138 3125 3138 3138 3147 3139 3144 3133 3157 3143 3189 3157 3153 3141 3108 3160 3156 3136 3105 3120 3140 3182 3144 3141 3163 3188 3149 3161 3162 3140 3139 3120 3142 3152 3081 3116 3132 3126 3176 3138 3187 3160 3166 3148 3112 3178 3132 3123 3158 3127 3159 3144 3128 3155 3127 3165 3145 3159 3157 3121 3152 3116 3167 3102 3099 3100 3097 3088 3084 3092 3161 3080 3101 3111 3120 3073 3156 3077 3151 3159 3144 3164 3175 3142 3067 3087 3143 3075 3105 3080 3054 3102 3083 3128 3103 3105 3179 3112 3164 3100 3148 3059 3141 3091 3105 3151 3159 3108 3162 3135 3124 3126 3082 3160 3129 3104 3085 3097 3079 3156 3148 3154 3155 3160 3139 3142 3140 3124 3156 3119 3139 3126 3116 3127 3086 3131 3074 3137 3172 3108 3127 3117 3096 3128 3086 3158 3076 3123 3126 3115 3146 3124 3166 3147 3056 3075 3087 3114 3090 3133 3133 3145 3130 3147 3154 3144 3124 3176 3154 3135 3139 3125 3084 3129 3159 3159 3152 3095 3072 3076 3087 3093 3090 3056 3123 3087 3122 3075 3119 3092 3152 3157 3144 3103 3164 3141 3132 3112 3116 3113 3069 3102 3101 3084 3127 3123 3121 3091 3138 3140 3144 3139 3143 3147 3154 3091 3152 3091 3150 3104 3094 3099 3108 3043 3091 3081 3109 3104 3082 3136 3082 3128 3125 3082 3079 3078 3132 3076 3128 3129 3141 3125 3143 3099 3119 3108 3100 3094 3134 3099 3162 3163 3162 3126 3075 3087 3099 3074 3087 3115 3141 3068 3088 3117 3027 3108 3141 3154 3108 3125 3082 3104 3115 3103 3092 3076 3047 3113 3106 3085 3124 3119 3079 3116 3094 3077 3076 3087 3072 3076 3038 3063 3031 3055 3117 3056 3135 3042 3141 3077 3064 3073 3082 3080 3099 3105 3140 3060 3101 3063 3060 3088 3090 3109 3105 3109 3141 3085 3103 3037 3070 3083 3076 3015 3056 3032 3087 3012 3059 3033 3022 3005 3024 3088 3126 3105 3131 3131 3132 3058 3053 3113 3058 3074 3077 3119 3057 3100 3026 3102 3089 3072 3076 3090 3047 3019 3084 3134 3106 3124 3070 3112 3040 3036 3106 3101 3100 3092 3066 3073 3107 3065 3107 3099 3030 3090 3074 3137 3079 3105 3084 3056 3092 3123 3098 3127 3092 3105 3080 3106 3097 3079 3092 3081 3064 3075 3072 3072 3065 3128 3080 3109 3093 3084 3154 3068 3044 3093 3074 3171 3133 3128 3055 3111 3094 3079 3163 3088 3082 3149 3111 3064 3112 3106 3047 3033 3100 3065 3076 3065 3007 3124 3036 3020 3039 3022 3007 3088 3036 3098 3055 3011 3128 3031 3088 3083 3162 3119 3131 3089 3110 3127 3104 3144 3109 3074 3034 3090 3080 3079 3083 3091 3086 3057 3088 3073 3047 3098 3123 3060 3066 3075 3089 3099 3070 3081 3135 3002 3126 3102 3056 3100 3070 3101 3040 3109 3087 3048 3112 3081 3120 3036 3046 3074 3117 3068 3136 3110 3013 3105 3050 3056 3081 3085 3103 3116 3118 3102 3098 3067 3082 3048 3022 2995 3030 3032 2983 3000 2976 3097 3114 3053 3104 3063 3056 3083 3106 3041 3136 3082 3036 3055 3069 3065 3039 3093 3059 3094 3055 3084 3051 3074 3041 3104 3028 3099 3068 3102 3005 3025 3070 3037 3113 3064 3120 3135 3086 3124 3179 3105 3016 3127 3031 3137 3056 3034 3068 3022 3039 3095 3061 3090 3054 3113 3035 3060 3093 3028 3046 3073 3119 3071 3053 3052 3055 3030 3048 3117 3065 3072 3053 3058 3075 3056 3063 3061 3080 3099 3068 3085 3097 3068 3117 3089 3108 3059 3060 3057 3059 3064 3093 3055 3112 3079 3022 3026 3086 3044 3037 3098 3033 3003 3080 3109 3105 3053 3026 3051 3003 3120 3115 3114 3108 3068 3065 3028 3061 3020 2975 3081 3060 3105 3073 3077 3071 3009 3054 3037 3043 3093 2987 3043 3056 3025 3077 3042 3081 3055 3062 3063 3050 3046 3099 3048 3077 3113 3105 3084 3012 3070 3016 3054 3020 3085 3058 3035 3037 3106 3106 3146 3064 3021 3062 3067 3054 3014 3113 3051 3060

Tree=0
num_leaves=31
num_cat=0
split_feature=0 1 1 5 5 5 2 10 84 29 3 29 10 6 2 3 5 8 29 60 3 2 29 3 3 60 29 3 10 29
split_gain=5727.87 2104.57 1521.68 1065.35 619.292 579.698 507.478 397.877 372.755 369.431 285.724 261.792 228.478 226.727 224.409 204.694 200.322 188.578 168.342 160.085 146.421 136.798 135.322 127.437 114.85 109.46 108.313 104.996 98.2864 96.4515
threshold=0.12737553980000002 -0.24580343874999996 1.0000000180025095e-35 -0.12052166499999999 -0.021081799499999998 -0.29097817499999995 1.0000000180025095e-35 0.018430513500000002 5.1569120000000011 -0.17577733079999996 -0.24769616999999997 1.0000000180025095e-35 0.27590122000000006 0.42716235000000008 1.0000000180025095e-35 -0.082809754999999985 0.16865515500000003 0.34838237500000008 1.0000000180025095e-35 1.3621219000000002 -0.082809754999999985 -0.00081321539999999986 -0.17577733079999996 -0.092690689999999978 1.0000000180025095e-35 1.5715236000000001 1.0000000180025095e-35 -0.25782959999999994 -0.12704778999999997 -0.17577733079999996
decision_type=2 2 2 2 2 2 2 2 2 2 2 2 2 2 2 2 2 2 2 2 2 2 2 2 2 2 2 2 2 2
left_child=1 5 4 9 12 8 18 16 15 23 26 20 22 21 -11 -1 29 25 27 -14 -8 -6 -2 -3 -16 -9 -7 -5 -12 -4
right_child=2 3 7 6 13 10 11 17 -10 14 28 -13 19 -15 24 -17 -18 -19 -20 -21 -22 -23 -24 -25 -26 -27 -28 -29 -30 -31
leaf_value=-0.0042120087729750587 -0.0032847377164630905 -0.0038124488473728563 -0.0026324350401417001 -0.0033395390825520085 -0.0025447750963686587 -0.0038233643887608665 -0.0027649810840504399 -0.0013685932672669043 -0.020792518404967059 -0.0032761184304815612 -0.0033921451511671301 -0.0019278273901797327 -0.0021084373383401128 -0.0017112912075321997 -0.0029753644678792474 -0.0035814267191602803 -0.0015546576437471184 -0.00082919639323265903 -0.0025176313456152805 -0.0032413247594207445 -0.002247640141882291 -0.0020226448543913039 -0.002751042412346064 -0.0032642772659379629 -0.0024563273724258808 -0.0022509959632866366 -0.003265427626353234 -0.0028651983263115171 -0.0028995901572925926 -0.0019923307609986227
leaf_weight=35448 18851 23812 8853 18541 27378 27238 28086 20239 33 37863 15272 29357 16536 23524 24465 20205 21238 16413 22170 3843 26659 23154 32107 19112 18885 4253 12780 31464 30069 17554
leaf_count=35448 18851 23812 8853 18541 27378 27238 28086 20239 33 37863 15272 29357 16536 23524 24465 20205 21238 16413 22170 3843 26659 23154 32107 19112 18885 4253 12780 31464 30069 17554
internal_value=-0.00275132 -0.00309798 -0.00212234 -0.0028474 -0.00243705 -0.00359617 -0.00257272 -0.00160563 -0.00399304 -0.00319319 -0.00333726 -0.00230877 -0.00276953 -0.00211677 -0.00299489 -0.00398307 -0.00191617 -0.00124391 -0.00288029 -0.00232207 -0.00251305 -0.00230553 -0.00294847 -0.00356837 -0.00274925 -0.00152182 -0.00364518 -0.00304108 -0.0030655 -0.00220693
internal_weight=0 421459 233943 280414 145393 141045 156277 88550 55686 124137 85359 84102 71337 74056 81213 55653 47645 40905 72175 20379 54745 50532 50958 42924 43350 24492 40018 50005 45341 26407
internal_count=655402 421459 233943 280414 145393 141045 156277 88550 55686 124137 85359 84102 71337 74056 81213 55653 47645 40905 72175 20379 54745 50532 50958 42924 43350 24492 40018 50005 45341 26407
is_linear=0
shrinkage=1


Tree=1
num_leaves=31
num_cat=0
split_feature=0 1 1 5 5 2 5 10 84 29 29 3 10 6 3 5 29 8 2 3 60 2 29 3 3 60 29 10 29 3
split_gain=5670.73 2083.57 1506.5 1056.01 613.114 575.273 573.915 393.908 369.037 308.428 291.976 282.874 226.199 224.465 202.652 198.324 188.009 186.697 171.709 166.108 158.488 135.433 133.972 118.958 110.534 108.368 107.233 97.306 95.4894 94.954
threshold=0.12737553980000002 -0.24580343874999996 1.0000000180025095e-35 -0.2799894349999999 -0.021081799499999998 1.0000000180025095e-35 -0.29097817499999995 0.018430513500000002 5.1569120000000011 -0.17577733079999996 1.0000000180025095e-35 -0.24769616999999997 0.27590122000000006 0.42716235000000008 -0.082809754999999985 0.16865515500000003 1.0000000180025095e-35 0.34838237500000008 0.019564597000000003 -0.082809754999999985 1.3621219000000002 -0.00081321539999999986 -0.17577733079999996 -0.15408050999999998 1.0000000180025095e-35 1.5715236000000001 1.0000000180025095e-35 -0.12704778999999997 -0.17577733079999996 1.0000000180025095e-35
decision_type=2 2 2 2 2 2 2 2 2 2 2 2 2 2 2 2 2 2 2 2 2 2 2 2 2 2 2 2 2 2
left_child=1 6 4 9 12 16 8 15 14 24 19 26 22 21 -1 28 23 25 -11 -7 -14 -6 -2 -5 -3 -9 -8 -13 -4 -20
right_child=2 3 7 5 13 10 11 17 -10 18 -12 27 20 -15 -16 -17 -18 -19 29 -21 -22 -23 -24 -25 -26 -27 -28 -29 -30 -31
leaf_value=-0.0014533877844185659 -0.00053075310390164067 -0.0010945888370570483 0.00011828801557828803 -0.00056426394903960305 0.00020550966566038092 -5.0482688317071155e-05 -0.0010666866515516341 0.0013758106218105404 -0.017950994970107621 -0.00056698278368134773 0.00078184628385812548 -0.00063762349354160779 0.00063966578325707496 0.0010348261548173746 -0.00082595869307062857 0.00119067655341521 0.00019350412457356394 0.0019125105526407388 -0.00028424560521765423 0.00046323538644836701 -0.00048755727341917696 0.00072502926800714878 2.7371503882750359e-07 -0.00011018140864158241 -0.00052649979446494277 0.00049781990966354733 -0.00051153959347533082 -0.00014753125000438829 0.00075519184825310675 0.00024503010061418097
leaf_weight=35448 18851 22034 8853 27459 27378 32219 27238 20239 33 31224 32857 15272 16536 23524 20205 21238 24953 16413 19590 30757 3843 23154 32107 30382 14005 4253 12780 30069 17554 14934
leaf_count=35448 18851 22034 8853 27459 27378 32219 27238 20239 33 31224 32857 15272 16536 23524 20205 21238 24953 16413 19590 30757 3843 23154 32107 30382 14005 4253 12780 30069 17554 14934
internal_value=0 -0.000344929 0.000625828 -9.55985e-05 0.0003127 0.000136022 -0.000840628 0.00113996 -0.00123551 -0.000502072 0.000399762 -0.000583017 -1.81197e-05 0.000631374 -0.0012256 0.000830967 -0.000169253 0.00149987 -0.000298299 0.000200413 0.000427098 0.000443556 -0.00019617 -0.000325749 -0.000873826 0.00122335 -0.000889397 -0.000312607 0.000541669 -5.52975e-05
internal_weight=0 421459 233943 280414 145393 178627 141045 88550 55686 101787 95833 85359 71337 74056 55653 47645 82794 40905 65748 62976 20379 50532 50958 57841 36039 24492 40018 45341 26407 34524
internal_count=655402 421459 233943 280414 145393 178627 141045 88550 55686 101787 95833 85359 71337 74056 55653 47645 82794 40905 65748 62976 20379 50532 50958 57841 36039 24492 40018 45341 26407 34524
is_linear=0
shrinkage=0.005


Tree=2
num_leaves=31
num_cat=0
split_feature=0 1 1 5 5 5 2 10 84 29 3 29 10 2 10 3 5 8 29 60 2 3 29 3 3 60 29 3 10 29
split_gain=5614.17 2062.79 1491.47 1045.65 606.998 568.19 497.4 389.979 365.355 362.308 280.052 256.596 223.942 219.988 208.418 200.631 196.346 184.835 165.006 156.908 144.894 143.517 132.636 125.003 112.66 107.287 106.163 103.116 96.3353 94.5369
threshold=0.12737553980000002 -0.24580343874999996 1.0000000180025095e-35 -0.12052166499999999 -0.021081799499999998 -0.29097817499999995 1.0000000180025095e-35 0.018430513500000002 5.1569120000000011 -0.17577733079999996 -0.24769616999999997 -1.0000000180025095e-35 0.27590122000000006 -1.0000000180025095e-35 0.04282460300000001 -0.082809754999999985 0.16865515500000003 0.34838237500000008 1.0000000180025095e-35 1.3621219000000002 -0.13022316499999997 -0.082809754999999985 -0.17577733079999996 -0.099506424999999982 -1.0000000180025095e-35 1.5715236000000001 1.0000000180025095e-35 -0.25782959999999994 -0.12704778999999997 -0.17577733079999996
decision_type=2 2 2 2 2 2 2 2 2 2 2 2 2 2 2 2 2 2 2 2 2 2 2 2 2 2 2 2 2 2
left_child=1 5 4 9 12 8 18 16 15 23 26 21 22 -11 20 -1 29 25 27 -14 -6 -8 -2 -3 -15 -9 -7 -5 -12 -4
right_child=2 3 7 6 14 10 11 17 -10 13 28 -13 19 24 -16 -17 -18 -19 -20 -21 -22 -23 -24 -25 -26 -27 -28 -29 -30 -31
leaf_value=-0.0014461208369250644 -0.00052809932690526206 -0.0010540664552984636 0.00011769657661687418 -0.00058245916346249898 0.00013597990541257306 -0.0010613532244294569 -1.3342802823282595e-05 0.0013689315344746042 -0.017861239952740797 -0.00051976734910791247 -0.00063443541392175877 0.00081546340230025344 0.00063646745317377676 -0.00022206331399848411 0.0010054613844766305 -0.00082182882878716415 0.0011847231849709667 0.0019029479947001199 0.00023155018409269236 -0.00048511945940127625 0.00068079680954759596 0.00049884280996407562 2.7231733515860842e-07 -0.00051186398603370487 0.00029200226462093072 0.00049533081716412661 -0.00050898191862014895 -0.00011238512982660953 -0.00014679365529733399 0.00075141587021737804
leaf_weight=35448 18851 23543 8853 18541 21747 27238 28086 20239 33 37863 15272 29357 16536 24465 24500 20205 21238 16413 22170 3843 27809 26659 32107 19381 18885 4253 12780 31464 30069 17554
leaf_count=35448 18851 23543 8853 18541 21747 27238 28086 20239 33 37863 15272 29357 16536 24465 24500 20205 21238 16413 22170 3843 27809 26659 32107 19381 18885 4253 12780 31464 30069 17554
internal_value=0 -0.000343205 0.000622699 -9.51205e-05 0.000311137 -0.000836425 0.000177003 0.00113426 -0.00122933 -0.000437699 -0.000580102 0.000438319 -1.80291e-05 -0.000241319 0.000628217 -0.00121947 0.000826812 0.00149237 -0.000127496 0.000424963 0.000441711 0.000236075 -0.000195189 -0.000809252 1.88429e-06 0.00121723 -0.00088495 -0.000286681 -0.000311044 0.00053896
internal_weight=0 421459 233943 280414 145393 141045 156277 88550 55686 124137 85359 84102 71337 81213 74056 55653 47645 40905 72175 20379 49556 54745 50958 42924 43350 24492 40018 50005 45341 26407
internal_count=655402 421459 233943 280414 145393 141045 156277 88550 55686 124137 85359 84102 71337 81213 74056 55653 47645 40905 72175 20379 49556 54745 50958 42924 43350 24492 40018 50005 45341 26407
is_linear=0
shrinkage=0.005


Tree=3
num_leaves=31
num_cat=0
split_feature=0 1 1 5 5 2 5 10 84 29 29 3 10 6 3 5 29 5 2 3 60 2 29 3 3 29 60 10 29 10
split_gain=5558.16 2042.21 1476.59 1036.48 600.943 564.057 562.523 386.089 361.711 302.316 286.243 277.259 221.709 221.266 198.63 194.387 184.4 177.738 168.465 162.815 155.342 133.132 131.313 116.865 108.481 105.104 100.292 95.3744 93.5939 93.4658
threshold=0.12737553980000002 -0.24580343874999996 1.0000000180025095e-35 -0.2799894349999999 -0.021081799499999998 1.0000000180025095e-35 -0.29097817499999995 0.018430513500000002 5.1569120000000011 -0.17577733079999996 -1.0000000180025095e-35 -0.24769616999999997 0.27590122000000006 0.42716235000000008 -0.082809754999999985 0.16865515500000003 1.0000000180025095e-35 0.30028444500000007 0.079824670000000014 -0.082809754999999985 1.3621219000000002 -0.00081321539999999986 -0.17577733079999996 -0.15408050999999998 1.0000000180025095e-35 1.0000000180025095e-35 1.5715236000000001 -0.12704778999999997 -0.17577733079999996 -0.24741658499999997
decision_type=2 2 2 2 2 2 2 2 2 2 2 2 2 2 2 2 2 2 2 2 2 2 2 2 2 2 2 2 2 2
left_child=1 6 4 9 12 16 8 15 14 24 19 25 22 21 29 28 23 26 -11 -7 -14 -6 -2 -5 -3 -8 -9 -13 -4 -1
right_child=2 3 7 5 13 10 11 17 -10 18 -12 27 20 -15 -16 -17 -18 -19 -20 -21 -22 -23 -24 -25 -26 -27 -28 -29 -30 -31
leaf_value=-0.0017285718618812707 -0.00052545884129758327 -0.0010840965652158645 0.00011710816583666968 -0.00055885506321848646 0.00020258559929410856 -4.9798979274627914e-05 -0.0010560464470783907 0.0013649822248022389 -0.017771933637136087 -0.00053530345713330061 0.00077429386256000292 -0.00063126324945915631 0.0006332851185917428 0.0010256428052244013 -0.00081771968534334746 0.0011787995340098556 0.00019179786312131949 0.0018918602326745623 -2.8365193178201175e-05 0.00045880212711534523 -0.00048269381008716556 0.00071767347445374555 2.7101343221714086e-07 -0.00010878594280273474 -0.00052130798017257021 -0.00050643697738500255 0.00052750579270328458 -0.00014605962124502201 0.00074765879974217494 -0.0012113385390970098
leaf_weight=15595 18851 22034 8853 27459 27378 32219 27238 20366 33 34659 32857 15272 16536 23524 20205 21238 24953 16203 31089 30757 3843 23154 32107 30382 14005 12780 4336 30069 17554 19853
leaf_count=15595 18851 22034 8853 27459 27378 32219 27238 20366 33 34659 32857 15272 16536 23524 20205 21238 24953 16203 31089 30757 3843 23154 32107 30382 14005 12780 4336 30069 17554 19853
internal_value=0 -0.000341489 0.000619586 -9.46449e-05 0.000309581 0.000134823 -0.000832243 0.00112859 -0.00122319 -0.000497341 0.000395979 -0.000577202 -1.7939e-05 0.000625076 -0.00121337 0.000822678 -0.000167461 0.00148491 -0.000295597 0.000198598 0.000422838 0.000438601 -0.000194213 -0.000322448 -0.000865393 -0.000880525 0.00121798 -0.000309489 0.000536265 -0.00143889
internal_weight=0 421459 233943 280414 145393 178627 141045 88550 55686 101787 95833 85359 71337 74056 55653 47645 82794 40905 65748 62976 20379 50532 50958 57841 36039 40018 24702 45341 26407 35448
internal_count=655402 421459 233943 280414 145393 178627 141045 88550 55686 101787 95833 85359 71337 74056 55653 47645 82794 40905 65748 62976 20379 50532 50958 57841 36039 40018 24702 45341 26407 35448
is_linear=0
shrinkage=0.005


Tree=4
num_leaves=31
num_cat=0
split_feature=0 1 1 5 5 5 29 29 29 84 3 3 10 6 5 3 3 60 3 29 10 1 60 10 4 1 29 1 9 29
split_gain=5502.72 2021.84 1461.87 1027.88 594.964 556.924 423.808 409.556 383.409 328.569 275.619 240.886 222.88 217.408 203.996 196.338 192.669 153.612 135.97 129.763 125.89 125.194 123.08 127.965 114.868 108.434 105.086 101.856 100.874 94.2755
threshold=0.12737553980000002 -0.24580343874999996 1.0000000180025095e-35 0.023689685000000005 1.0000000180025095e-35 -0.29848984999999995 -0.17577733079999996 1.0000000180025095e-35 1.0000000180025095e-35 5.1569120000000011 -0.24769616999999997 -0.0065645380999999987 0.27590122000000006 0.42716235000000008 0.21692696500000003 -0.16418419999999997 -0.082809754999999985 1.3621219000000002 -0.13218544999999998 -0.17577733079999996 0.20288253000000003 1.0000000180025095e-35 -0.94129617999999993 -0.026384995499999998 -0.009005596749999999 1.0000000180025095e-35 1.0000000180025095e-35 1.0000000180025095e-35 1.0229313750000002 -0.17577733079999996
decision_type=2 2 2 2 2 2 2 2 2 2 2 2 2 2 2 2 2 2 2 2 2 2 2 2 2 2 2 2 2 2
left_child=1 5 4 6 12 9 18 16 14 15 26 24 19 22 -4 -1 -5 -14 -3 -2 -10 -9 -6 -24 -8 -13 -7 -18 -16 -12
right_child=2 3 8 7 13 10 11 21 20 -11 29 25 17 -15 28 -17 27 -19 -20 -21 -22 -23 23 -25 -26 -27 -28 -29 -30 -31
leaf_value=-0.001463652790789167 -0.00052131211694826966 -0.001013991098319322 0.00062476998522099762 -0.00020063876183057559 0.0010103534232625082 -0.0010525068072703284 -0.00064159128522658904 0.00037698933810641336 0.0012305555363315004 -0.017237365392575157 -0.0006669191731469347 -0.00011027150815641318 0.00063348443019357545 0.001021052450112163 0.0010871144650224588 -0.00085837269130656661 7.5667763680789809e-05 -0.00047455775721136871 -0.00048669164607081748 1.2072733123478896e-07 0.0018456725553772516 0.00090671675188569347 -8.1103180955410716e-05 0.0005142136220229515 -0.00018106227901697471 0.00041137777171048484 -0.00050451832653858612 0.00057596015600328075 0.0019769011146914509 -0.00016548279607620303
leaf_weight=32099 18933 25830 33721 46272 7915 27443 27377 25734 16181 32 13181 25892 16602 23438 17644 22996 27163 3854 23212 32264 17117 19686 13036 29351 26790 16192 12843 16266 3887 32451
leaf_count=32099 18933 25830 33721 46272 7915 27443 27377 25734 16181 32 13181 25892 16602 23438 17644 22996 27163 3854 23212 32264 17117 19686 13036 29351 26790 16192 12843 16266 3887 32451
internal_value=0 -0.000339781 0.000616488 -9.41717e-05 0.000308033 -0.000828081 -0.000386103 0.000219737 0.00112295 -0.00122032 -0.000576413 -0.000193345 -1.64396e-05 0.000623322 0.000867537 -0.00121102 2.38568e-05 0.000424724 -0.000764416 -0.000192709 0.00154676 0.000606585 0.000438002 0.000331126 -0.000413822 9.04353e-05 -0.00087781 0.000263048 0.00124775 -0.000310325
internal_weight=0 421459 233943 280414 145393 141045 145293 135121 88550 55127 85918 96251 71653 73740 55252 55095 89701 20456 49042 51197 33298 45420 50302 42387 54167 42084 40286 43429 21531 45632
internal_count=655402 421459 233943 280414 145393 141045 145293 135121 88550 55127 85918 96251 71653 73740 55252 55095 89701 20456 49042 51197 33298 45420 50302 42387 54167 42084 40286 43429 21531 45632
is_linear=0
shrinkage=0.005


Tree=5
num_leaves=31
num_cat=0
split_feature=0 1 2 5 3 2 10 5 29 91 5 5 58 6 6 5 2 5 29 5 10 3 3 3 83 29 29 10 83 14
split_gain=5438.35 2031.41 1411.41 987.932 530.723 512.849 495.96 488.903 350.116 332.087 288.729 260.19 258.658 225.631 214.263 214.073 192.363 184.785 160.389 148.44 146.693 115.873 112.817 110.258 109.789 104.46 96.5603 91.8307 90.1237 89.4054
threshold=0.12737553980000002 -0.24580343874999996 0.063606310000000013 -0.15176379499999998 -0.32520614499999995 1.0000000180025095e-35 0.23767518500000004 0.20515285000000003 -0.17577733079999996 5.2646998500000004 -0.049180522499999997 -0.21605398499999998 1.8901385000000002 0.42716235000000008 1.0000000180025095e-35 -0.20210982499999997 -1.0000000180025095e-35 0.079909725000000015 -0.17577733079999996 0.83188865000000012 -0.15036185499999996 1.0756836000000002e-05 -0.0065645380999999987 -0.27848861999999996 2.6251003000000002 1.0000000180025095e-35 1.0000000180025095e-35 0.16324100000000002 3.4911036500000008 0.16689925000000003
decision_type=2 2 2 2 2 2 2 2 2 2 2 2 2 2 2 2 2 2 2 2 2 2 2 2 2 2 2 2 2 2
left_child=1 4 7 8 9 18 10 14 22 15 -4 -6 -11 19 -2 24 -10 -8 -5 21 28 -7 -3 -20 -1 -12 -13 -18 -9 -16
right_child=2 3 6 5 11 13 17 20 16 12 25 26 -14 -15 29 -17 27 -19 23 -21 -22 -23 -24 -25 -26 -27 -28 -29 -30 -31
leaf_value=-0.0014494498634130633 -0.00035355198515274884 -0.0010199911184725278 0.0003781854976025133 -0.00052431399626888433 -0.00089939423956958528 -8.846612305212535e-05 0.0010905045332774246 0.00021399729322179467 -0.00050700051288585734 -0.0043775339321843508 0.00083457274966296441 -0.00046748660226833192 -0.027418955848330543 0.00082426836284668571 1.6163334042223391e-05 -0.00089202349819454316 -0.00017775035094638958 0.0017245273949835541 -0.00030304161257858344 0.00071197536892797541 0.00079971980147396896 0.00041107021129943431 -0.00048594362541560122 0.00016756478564389582 -0.004629587691437018 0.001386135330046911 2.8565577990270078e-05 0.00031599576828142135 -0.006953158283775504 0.00048977662887689179
leaf_weight=28578 29850 25096 30662 20092 32530 26933 22802 13953 36574 29 23819 32039 21 25005 25558 33488 27963 23169 19404 14058 33968 20403 16320 34710 274 13421 14140 14199 44 16332
leaf_count=28578 29850 25096 30662 20092 32530 26933 22802 13953 36574 29 23819 32039 21 25005 25558 33488 27963 23169 19404 14058 33968 20403 16320 34710 274 13421 14140 14199 44 16332
internal_value=0 -0.000340463 0.000610514 -9.44921e-05 -0.000829892 0.000162047 0.00100901 0.000231431 -0.000437404 -0.00117432 0.000737503 -0.000556876 -0.0140549 0.000423896 -2.98493e-05 -0.00116399 -0.000241651 0.00141005 -0.000142826 0.000260829 0.000622221 0.000126847 -0.000809549 -1.18353e-06 -0.00147965 0.00103335 -0.000315596 -1.14703e-05 0.000191467 0.000200815
internal_weight=0 421856 233578 280757 141099 160605 113873 119705 120152 62390 67902 78709 50 86399 71740 62340 78736 45971 74206 61394 47965 47336 41416 54114 28852 37240 46179 42162 13997 41890
internal_count=655434 421856 233578 280757 141099 160605 113873 119705 120152 62390 67902 78709 50 86399 71740 62340 78736 45971 74206 61394 47965 47336 41416 54114 28852 37240 46179 42162 13997 41890
is_linear=0
shrinkage=0.005


Tree=6
num_leaves=31
num_cat=0
split_feature=3 1 2 5 5 5 10 10 10 29 29 5 29 2 10 84 60 60 5 60 4 1 10 14 60 29 83 29 6 60
split_gain=4452.99 1846.76 1831.31 754.243 701.296 664.534 487.964 343.541 295.617 283.196 256.887 236.516 236.437 215.998 214.539 216.326 185.639 177.242 176.808 174.188 149.558 141.483 138.712 122.964 122.737 118.118 112.172 110.047 109.658 104.093
threshold=1.0756840000000003e-05 1.0000000180025095e-35 -0.012577826999999998 0.049364283500000009 0.19053057000000004 -0.29848984999999995 0.27590122000000006 0.23767518500000004 -0.25926334999999995 -0.17577733079999996 1.0000000180025095e-35 0.10436497500000001 1.0000000180025095e-35 -0.0093554669999999975 -0.23224297499999999 4.6569314000000004 1.3621219000000002 -1.1506978999999997 0.21692696500000003 0.94331868000000019 0.24293345500000005 1.0000000180025095e-35 0.25956040500000005 1.0000000180025095e-35 1.1527203000000001 1.0000000180025095e-35 4.3571068000000013 -0.17577733079999996 1.0000000180025095e-35 1.5715236000000001
decision_type=2 2 2 2 2 2 2 2 2 2 2 2 2 2 2 2 2 2 2 2 2 2 2 2 2 2 2 2 2 2
left_child=2 4 5 9 7 14 11 13 17 -4 23 -3 20 27 15 -1 28 26 29 -9 -5 25 -11 -6 -24 -10 -7 -2 -16 -8
right_child=1 6 3 12 10 8 18 19 21 22 -12 -13 -14 -15 16 -17 -18 -19 -20 -21 -22 -23 24 -25 -26 -27 -28 -29 -30 -31
leaf_value=-0.0014909681690180754 -0.00078982681749573233 0.00041833950093072517 -0.00070900036449220247 -0.00010351302814928173 0.00010008274062681837 -0.00027192664305570458 0.0012809955762410866 0.00060493803226119617 -0.00054737896196077791 -0.00029166138854740722 0.00092218425490007017 0.0010389881987479782 0.00066281923035294346 3.2356660069372383e-05 -0.0011260094548509144 -0.015920895210180717 -0.0020822934736320978 -0.0010730288780505328 0.0017789942815664202 -0.00020751276885834451 0.00041158447889504839 0.00029543750407078957 0.00040672083250154471 0.00060490262423473242 -0.00056174458461022956 -7.9598240919515585e-05 -0.010293361751662036 -0.00028777301962758711 -0.0005849831970170578 0.00041964342090622928
leaf_weight=24864 17607 32637 32974 32879 27925 10168 19091 22082 40980 46634 27419 28980 30326 37369 16639 26 3162 27045 18290 9408 24662 8492 15826 21236 4124 20121 28 28717 21426 4297
leaf_count=24864 17607 32637 32974 32879 27925 10168 19091 22082 40980 46634 27419 28980 30326 37369 16639 26 3162 27045 18290 9408 24662 8492 15826 21236 4124 20121 28 28717 21426 4297
internal_value=0 0.000453912 -0.000374466 -3.2077e-05 0.00016359 -0.00074551 0.000992882 -8.29581e-05 -0.00050169 -0.000330057 0.00053442 0.000710246 0.00030555 -0.000250455 -0.00113948 -0.00150604 -0.000918178 -0.000861234 0.00141073 0.000362209 0.000117257 -0.000309289 -0.000142395 0.000318149 0.000206523 -0.000393335 -0.000299447 -0.000478596 -0.000821477 0.00112274
internal_weight=0 295058 360376 187425 191763 172951 103295 115183 106834 99558 76580 61617 87867 83693 66117 24890 41227 37241 41678 31490 57541 69593 66584 49161 19950 61101 10196 46324 38065 23388
internal_count=655434 295058 360376 187425 191763 172951 103295 115183 106834 99558 76580 61617 87867 83693 66117 24890 41227 37241 41678 31490 57541 69593 66584 49161 19950 61101 10196 46324 38065 23388
is_linear=0
shrinkage=0.005


Tree=7
num_leaves=31
num_cat=0
split_feature=0 1 2 5 3 2 5 5 29 91 58 5 29 6 5 1 29 2 29 29 3 14 3 83 3 29 3 14 14 87
split_gain=5353.31 1998.13 1387.33 969.603 522.01 503.77 479.303 478.724 344.125 327.883 255.726 255.483 223.015 210.693 209.776 205.808 199.547 188.638 157.908 141.946 141.7 123.253 110.333 108.388 108.358 94.6123 89.203 88.3797 87.1321 84.5582
threshold=0.12737553980000002 -0.24580343874999996 0.063606310000000013 -0.15176379499999998 -0.32520614499999995 1.0000000180025095e-35 0.20515285000000003 0.11332816200000002 -0.17577733079999996 5.2646998500000004 1.8901385000000002 -0.21605398499999998 -1.0000000180025095e-35 1.0000000180025095e-35 -0.20210982499999997 0.73548993000000007 1.0000000180025095e-35 1.0000000180025095e-35 -0.17577733079999996 1.0000000180025095e-35 1.0756836000000002e-05 0.16689925000000003 -0.0065645380999999987 2.6251003000000002 -0.27848861999999996 1.0000000180025095e-35 1.0000000180025095e-35 0.16689925000000003 0.39867034500000004 3.9711476500000003
decision_type=2 2 2 2 2 2 2 2 2 2 2 2 2 2 2 2 2 2 2 2 2 2 2 2 2 2 2 2 2 2
left_child=1 4 6 8 9 18 13 16 22 14 -11 -6 20 -2 23 28 21 -10 -5 -8 -7 -4 -3 -1 -20 -13 -19 -15 -9 -25
right_child=2 3 7 5 11 12 19 15 17 10 -12 25 -14 27 -16 -17 -18 26 24 -21 -22 -23 -24 29 -26 -27 -28 -29 -30 -31
leaf_value=-0.0014369841350003424 -0.00034980785382928369 -0.0010106152603682732 0.00024889115277994825 -0.00052038015103895009 -0.00089183089427779237 1.4930864264295241e-05 0.00041010509771638958 0.00093076999073442063 -0.00050225236176913691 -0.0043412236149968772 -0.027251667011351812 -0.00046368793131193632 0.0007671924921548429 1.6331699578243259e-05 -0.00088529263015563273 0.0017327311275854348 0.0011168950343539484 -0.00021264740724536327 -0.00030055622342503628 0.00097472226587016477 0.00052124186529882573 0.00080092908475477506 -0.00048248023385024806 -0.0036228210287985434 0.00016597610672655861 2.7335186469825737e-05 0.00025146983398200508 0.00048722056054536399 0.0014889435081463639 -0.012518263002236685
leaf_weight=28578 29850 25096 22573 20092 32530 31930 30404 23295 36574 29 21 32039 30106 25558 33488 20753 18947 23893 19404 17561 24363 18315 16320 244 34710 14140 18269 16332 9990 30
leaf_count=28578 29850 25096 22573 20092 32530 31930 30404 23295 36574 29 21 32039 30106 25558 33488 20753 18947 23893 19404 17561 24363 18315 16320 244 34710 14140 18269 16332 9990 30
internal_value=0 -0.000337787 0.000605725 -9.38396e-05 -0.00082319 0.000160309 0.000229889 0.00100081 -0.000433555 -0.00116478 -0.0139636 -0.000552425 0.00041983 -2.88134e-05 -0.00115451 0.00134195 0.000692722 -0.000239485 -0.000141854 0.000616823 0.000234057 0.000496166 -0.000802503 -0.00146699 -1.31135e-06 -0.000313337 -1.15431e-05 0.000199921 0.0010983 -0.00459677
internal_weight=0 421856 233578 280757 141099 160605 119705 113873 120152 62390 50 78709 86399 71740 62340 54038 59835 78736 74206 47965 56293 40888 41416 28852 54114 46179 42162 41890 33285 274
internal_count=655434 421856 233578 280757 141099 160605 119705 113873 120152 62390 50 78709 86399 71740 62340 54038 59835 78736 74206 47965 56293 40888 41416 28852 54114 46179 42162 41890 33285 274
is_linear=0
shrinkage=0.005


Tree=8
num_leaves=31
num_cat=0
split_feature=0 1 2 5 3 2 10 5 29 91 5 58 5 6 6 5 2 5 29 60 10 10 60 3 29 60 3 29 60 29
split_gain=5299.91 1978.2 1373.5 959.931 516.803 498.745 485.774 474.522 340.692 324.612 281.015 253.175 252.935 221.975 208.591 207.936 186.756 179.644 156.333 147.567 159.444 144.591 123.965 109.233 108.863 108.164 107.277 102.586 100.246 93.6686
threshold=0.12737553980000002 -0.24580343874999996 0.063606310000000013 -0.15176379499999998 -0.32520614499999995 1.0000000180025095e-35 0.23767518500000004 0.20515285000000003 -0.17577733079999996 5.2646998500000004 -0.049180522499999997 1.8901385000000002 -0.21605398499999998 0.42716235000000008 1.0000000180025095e-35 -0.45064395499999993 -1.0000000180025095e-35 0.079909725000000015 -0.17577733079999996 -1.1506978999999997 -0.30580083999999991 -0.15036185499999996 1.1527203000000001 -0.0065645380999999987 1.0000000180025095e-35 0.94331868000000019 -0.27848861999999996 1.0000000180025095e-35 -1.3600994999999998 -1.0000000180025095e-35
decision_type=2 2 2 2 2 2 2 2 2 2 2 2 2 2 2 2 2 2 2 2 2 2 2 2 2 2 2 2 2 2
left_child=1 4 7 8 9 18 10 14 23 15 -4 -11 -6 19 -2 -1 -10 22 -5 -7 -21 28 -8 -3 -17 -15 -20 -12 -9 -14
right_child=2 3 6 5 12 13 17 21 16 11 27 -13 29 25 -16 24 -18 -19 26 20 -22 -23 -24 -25 -26 -27 -28 -29 -30 -31
leaf_value=-0.0015460133325654022 -0.0003480588005091756 -0.0010055621351143015 0.00037261473002418992 -0.0005177782496524968 -0.00088737173417704498 0.0010016471906948584 0.0013306493841519626 0.0010322509269854762 -0.00049974109688616256 -0.0043195174017856865 0.00082198194782475743 -0.027115408409209479 -0.00046136948827961324 0.0010032856700409412 0.00019892141870016486 -0.0011149462898235624 -1.1485428847655891e-05 0.0017027767936647056 -0.00029905343162458939 -0.00024387437180139036 0.0003469918826296425 0.00078996175267539201 0.00054045295316959942 -0.00048006785984419848 -0.00055995815605266086 0.00024096172062882266 0.00016514622612201057 0.0013685747609270636 -2.5517543075701823e-05 2.7198517872410488e-05
leaf_weight=21551 29850 25096 30662 20092 32530 5988 15501 2800 36574 29 23819 21 32039 18824 41890 27846 42162 23169 19404 16090 39316 33968 7301 16320 12943 6181 34710 13421 11197 14140
leaf_count=21551 29850 25096 30662 20092 32530 5988 15501 2800 36574 29 23819 21 32039 18824 41890 27846 42162 23169 19404 16090 39316 33968 7301 16320 12943 6181 34710 13421 11197 14140
internal_value=0 -0.000336098 0.000602697 -9.33704e-05 -0.000819074 0.000159507 0.000995806 0.00022874 -0.000431388 -0.00115895 0.0007271 -0.0138938 -0.000549663 0.00041773 -2.86693e-05 -0.00114874 -0.000238287 0.0013927 -0.000141145 0.00025599 0.000175403 0.000613739 0.00107764 -0.000798491 -0.00093884 0.000814846 -1.30479e-06 0.00101897 0.000186081 -0.00031177
internal_weight=0 421856 233578 280757 141099 160605 113873 119705 120152 62390 67902 50 78709 86399 71740 62340 78736 45971 74206 61394 55406 47965 22802 41416 40789 25005 54114 37240 13997 46179
internal_count=655434 421856 233578 280757 141099 160605 113873 119705 120152 62390 67902 50 78709 86399 71740 62340 78736 45971 74206 61394 55406 47965 22802 41416 40789 25005 54114 37240 13997 46179
is_linear=0
shrinkage=0.005


Tree=9
num_leaves=31
num_cat=0
split_feature=3 1 2 5 5 5 10 10 10 29 29 29 5 10 84 2 60 60 60 5 4 1 10 60 14 29 83 29 29 60
split_gain=4342.76 1803.94 1782.67 733.465 682.409 647.172 477.665 337.135 290.622 274.714 251.303 230.649 229.597 210.905 211.803 210.481 183.683 175.597 172.338 171.814 146.761 139.01 136.539 121.287 121.127 115.514 110.509 108.335 108.093 102.71
threshold=1.0756840000000003e-05 1.0000000180025095e-35 -0.012577826999999998 0.049364283500000009 0.19053057000000004 -0.29848984999999995 0.27590122000000006 0.23767518500000004 -0.25926334999999995 -0.17577733079999996 -1.0000000180025095e-35 1.0000000180025095e-35 0.10436497500000001 -0.23224297499999999 4.6569314000000004 -0.0093554669999999975 1.3621219000000002 -1.1506978999999997 0.94331868000000019 0.21692696500000003 0.24293345500000005 -1.0000000180025095e-35 0.25956040500000005 1.1527203000000001 1.0000000180025095e-35 1.0000000180025095e-35 4.3571068000000013 -0.17577733079999996 -0.17577733079999996 1.5715236000000001
decision_type=2 2 2 2 2 2 2 2 2 2 2 2 2 2 2 2 2 2 2 2 2 2 2 2 2 2 2 2 2 2
left_child=2 4 5 9 7 13 12 15 17 -4 24 20 -3 14 -1 27 28 26 -9 29 -5 25 -11 -24 -6 -10 -7 -2 -15 -8
right_child=1 6 3 11 10 8 19 18 21 22 -12 -13 -14 16 -16 -17 -18 -19 -20 -21 -22 -23 23 -25 -26 -27 -28 -29 -30 -31
leaf_value=-0.0014731999184188149 -0.00078181527051430068 0.00041370450555965689 -0.00069905939998252565 -0.00010371245257860033 9.6789791243149571e-05 -0.00026527339498031512 0.0012676691841161511 0.00060055518280483519 -0.00054014445271402501 -0.0002890957248125816 0.00091065570749276187 0.0006538267175612418 0.0010252079544863593 -0.0011717604949067764 -0.015751490312843369 3.1369957317440893e-05 -0.0020632175248521878 -0.0010625707841957906 -0.00020757079786206685 0.0017573888917782848 0.00040654568193727609 0.00029491856597596469 0.00040418193058074304 -0.00055854446013699514 0.00059782429417207543 -7.7549363089854799e-05 -0.010212171350140124 -0.00028368331662173904 -0.00061332835587668858 0.00041205795880903479
leaf_weight=24864 17607 32637 32974 32879 27925 10168 19091 22082 40980 46634 27419 30326 28980 13342 26 37369 3162 27045 9408 18290 24662 8492 15826 4124 21236 20121 28 28717 24723 4297
leaf_count=24864 17607 32637 32974 32879 27925 10168 19091 22082 40980 46634 27419 30326 28980 13342 26 37369 3162 27045 9408 18290 24662 8492 15826 4124 21236 20121 28 28717 24723 4297
internal_value=0 0.000448262 -0.000369799 -3.19867e-05 0.000161327 -0.000735882 0.000980947 -8.18789e-05 -0.000495268 -0.000325833 0.000527129 0.000300957 0.00070131 -0.00112467 -0.00148811 -0.000247807 -0.000905252 -0.000851762 0.000359118 0.00139436 0.000114984 -0.0003045 -0.000141003 0.00020517 0.000313221 -0.000387809 -0.000292589 -0.000473015 -0.000809062 0.00111047
internal_weight=0 295058 360376 187425 191763 172951 103295 115183 106834 99558 76580 87867 61617 66117 24890 83693 41227 37241 31490 41678 57541 69593 66584 19950 49161 61101 10196 46324 38065 23388
internal_count=655434 295058 360376 187425 191763 172951 103295 115183 106834 99558 76580 87867 61617 66117 24890 83693 41227 37241 31490 41678 57541 69593 66584 19950 49161 61101 10196 46324 38065 23388
is_linear=0
shrinkage=0.005


Tree=10
num_leaves=31
num_cat=0
split_feature=0 1 1 5 5 3 2 29 84 10 5 3 10 5 29 10 5 38 8 29 60 2 3 2 3 2 2 29 29 29
split_gain=5148.73 1897.46 1388.24 951.17 544.974 517.06 398.201 392.177 355.643 352.882 246.448 237.777 209.955 206.453 198.296 193.677 185.405 182.486 153.808 146.002 143.873 135.581 122.81 120.417 119.247 115.143 109.456 99.8159 98.5007 91.766
threshold=0.12737553980000002 -0.24580343874999996 1.0000000180025095e-35 -1.0000000180025095e-35 1.0000000180025095e-35 -0.32520614499999995 -1.0000000180025095e-35 -0.17577733079999996 5.1569120000000011 0.22440707500000004 -0.2799894349999999 -0.0065645380999999987 0.04282460300000001 -0.39039323999999992 -1.0000000180025095e-35 0.26605178000000007 0.18766968000000003 1.2818215500000003 0.34838237500000008 1.0000000180025095e-35 1.3621219000000002 -0.13022316499999997 -0.030939597499999996 0.068137981000000014 -0.099506424999999982 -0.048784730999999991 0.063606310000000013 1.0000000180025095e-35 1.0000000180025095e-35 -0.17577733079999996
decision_type=2 2 2 2 2 2 2 2 2 2 2 2 2 2 2 2 2 2 2 2 2 2 2 2 2 2 2 2 2 2
left_child=1 5 4 7 15 8 19 24 13 16 -7 23 21 -1 22 25 29 -10 -11 -5 -17 -6 -8 -9 -3 -2 -13 -15 -12 -4
right_child=2 3 9 6 12 10 14 11 17 18 28 26 -14 27 -16 20 -18 -19 -20 -21 -22 -23 -24 -25 -26 -27 -28 -29 -30 -31
leaf_value=-0.0015043380467439054 -0.00040779659694959456 -0.00097714131014869747 0.00013686230530791748 -0.00024928093958627488 0.00011208831393065026 -0.0008919583418662715 3.232238834382397e-05 -0.00064773605623027824 -0.0039096340705310146 0.001188406740618862 -0.00046294480591374651 -0.00015973141465068337 0.00097489666285304301 -0.0010824134040230812 0.00079495758374225766 0.00059543147726275557 0.001153942922132673 -0.020568364586148941 0.0018326220271438953 0.00026692026088525375 -0.0004844860728188278 0.00064042602471747463 0.00053827152924502595 -0.00016930208442946087 -0.0004755038224558312 6.7309659333022914e-05 0.00035632895380300809 -0.00054085070116295403 2.6144216299074049e-05 0.00074379690225917353
leaf_weight=23241 26785 26151 9359 44130 21705 29830 26930 27148 31 23025 34053 21114 24389 26630 26568 16599 22038 35 15504 19864 3788 27562 21625 25510 21659 24342 20015 12503 14755 18615
leaf_count=23241 26785 26151 9359 44130 21705 29830 26930 27148 31 23025 34053 21114 24389 26630 26568 16599 22038 35 15504 19864 3788 27562 21625 25510 21659 24342 20015 12503 14755 18615
internal_value=0 -0.000330591 0.000594573 -9.28493e-05 0.000293621 -0.000803643 0.000200783 -0.000381339 -0.00114334 0.00108801 -0.000533915 -0.000193463 0.000595485 -0.00113107 0.000447679 -1.7284e-05 0.000810951 -0.0127438 0.00144764 -8.905e-05 0.000394778 0.000407662 0.000257658 -0.00041596 -0.000749888 -0.000181594 9.1404e-05 -0.000909384 -0.00031509 0.00054074
internal_weight=0 421792 233711 280714 145170 141078 139117 141597 62440 88541 78638 93787 73656 62374 75123 71514 50012 66 38529 63994 20387 49267 48555 52658 47810 51127 41129 39133 48808 27974
internal_count=655503 421792 233711 280714 145170 141078 139117 141597 62440 88541 78638 93787 73656 62374 75123 71514 50012 66 38529 63994 20387 49267 48555 52658 47810 51127 41129 39133 48808 27974
is_linear=0
shrinkage=0.005


Tree=11
num_leaves=31
num_cat=0
split_feature=0 1 1 5 5 3 2 29 10 91 5 3 58 10 5 29 10 5 8 29 60 2 3 2 3 2 2 87 29 29
split_gain=5097.37 1878.53 1374.4 941.682 539.538 511.902 394.229 388.265 349.362 323.831 243.99 235.405 226.832 207.861 206.21 196.318 191.815 183.555 152.273 144.546 136.611 134.228 121.585 119.216 118.058 110.845 108.364 105.164 100.471 97.5182
threshold=0.12737553980000002 -0.24580343874999996 1.0000000180025095e-35 1.0000000180025095e-35 1.0000000180025095e-35 -0.32520614499999995 1.0000000180025095e-35 -0.17577733079999996 0.22440707500000004 5.2646998500000004 -0.2799894349999999 -0.0065645380999999987 1.8901385000000002 0.04282460300000001 -0.39039323999999992 1.0000000180025095e-35 0.19427565500000002 0.18766968000000003 0.34838237500000008 1.0000000180025095e-35 1.3621219000000002 -0.13022316499999997 -0.030939597499999996 0.068137981000000014 -0.099506424999999982 -0.048784730999999991 0.063606310000000013 5.0679882000000012 1.0000000180025095e-35 1.0000000180025095e-35
decision_type=2 2 2 2 2 2 2 2 2 2 2 2 2 2 2 2 2 2 2 2 2 2 2 2 2 2 2 2 2 2
left_child=1 5 4 7 16 9 19 24 17 14 -7 23 -11 21 27 22 25 -4 -10 -5 -18 -6 -8 -9 -3 -2 -13 -1 -16 -12
right_child=2 3 8 6 13 10 15 11 18 12 29 26 -14 -15 28 -17 20 -19 -20 -21 -22 -23 -24 -25 -26 -27 -28 -29 -30 -31
leaf_value=-0.0014891286805946591 -0.00041327601220947114 -0.00097225561481794568 0.00053803677738275093 -0.00024803454164534967 0.00011152787143639997 -0.00088749853777496238 3.2160784583534721e-05 -0.00064449738517661007 0.0011824647217991496 -0.0055889437581811627 -0.00046063007266195784 -0.0001589327539386412 -0.026697313904762269 0.00097002216864972945 -0.0010789780508865445 0.0007909828035167054 0.00055868514494053772 0.0011481732069366043 0.0018234589195927275 0.00026558565768909095 -0.00048199262604755629 0.00063722388624424479 0.00053558016709336336 -0.0001684555670818315 -0.00047312629863930202 5.8971643552870968e-05 0.00035454730235866283 -0.011960930827384194 -0.00053568297498835264 2.6013506871895245e-05
leaf_weight=23222 26063 26151 27974 44130 21705 29830 26930 27148 23025 35 34053 21114 20 24389 26634 26568 17875 22038 15504 19864 3829 27562 21625 25510 21659 23747 20015 24 12505 14755
leaf_count=23222 26063 26151 27974 44130 21705 29830 26930 27148 23025 35 34053 21114 20 24389 26634 26568 17875 22038 15504 19864 3829 27562 21625 25510 21659 23747 20015 24 12505 14755
internal_value=0 -0.000328938 0.0005916 -9.23851e-05 0.000292153 -0.000799625 0.000199779 -0.000379432 0.00108257 -0.00113763 -0.000531246 -0.000192495 -0.0132647 0.000592508 -0.00112693 0.000445441 -1.71976e-05 0.000806896 0.0014404 -8.86047e-05 0.00037509 0.000405624 0.000256369 -0.00041388 -0.000746139 -0.000188131 9.0947e-05 -0.00149994 -0.000905394 -0.000313514
internal_weight=0 421792 233711 280714 145170 141078 139117 141597 88541 62440 78638 93787 55 73656 62385 75123 71514 50012 38529 63994 21704 49267 48555 52658 47810 49810 41129 23246 39139 48808
internal_count=655503 421792 233711 280714 145170 141078 139117 141597 88541 62440 78638 93787 55 73656 62385 75123 71514 50012 38529 63994 21704 49267 48555 52658 47810 49810 41129 23246 39139 48808
is_linear=0
shrinkage=0.005


Tree=12
num_leaves=31
num_cat=0
split_feature=3 1 2 5 5 5 10 10 10 6 29 29 29 29 60 5 2 2 29 4 60 91 10 84 5 60 10 60 60 29
split_gain=4215.54 1779.68 1652.25 687.663 675.083 618.045 491.926 284.229 277.347 273.016 261.136 212.24 211.81 193.948 181.035 172.22 169.67 156.779 154.228 145.853 139.391 137.456 132.76 181.627 130.582 128.501 102.783 123.735 98.8911 91.4771
threshold=1.0756838000000001e-05 -1.0000000180025095e-35 -0.012577826999999998 -0.12052166499999999 0.023689685000000005 -0.37668729999999995 0.22440707500000004 -0.23224297499999999 0.11804828000000002 0.42716235000000008 -1.0000000180025095e-35 -0.17577733079999996 -1.0000000180025095e-35 -0.52502982499999984 -1.1506978999999997 -0.20709080499999996 -0.00081321539999999986 -0.13787464999999996 1.0000000180025095e-35 0.13872118000000003 1.1527203000000001 4.6772959500000004 -0.020892285999999996 4.5236030000000005 0.45822314500000005 1.3621219000000002 0.018430513500000002 1.1527203000000001 -0.94129617999999993 -0.17577733079999996
decision_type=2 2 2 2 2 2 2 2 2 2 2 2 2 2 2 2 2 2 2 2 2 2 2 2 2 2 2 2 2 2
left_child=2 4 5 11 8 13 12 14 17 16 19 -4 24 -1 21 -8 29 -2 -9 -5 -10 -7 23 -15 -3 -24 -13 -28 -18 -6
right_child=1 6 3 10 9 7 15 18 20 -11 -12 26 -14 22 -16 -17 28 -19 -20 -21 -22 -23 25 -25 -26 -27 27 -29 -30 -31
leaf_value=-0.0016492766686422794 -0.00055791730336022518 0.00031173964319973529 -0.00073456769096041062 -0.00016886845794461311 -0.00032026899582446219 -0.00026233262670495962 0.00095726471789037344 -0.00047932343757768419 0.00045948220354573028 0.00087938164787253669 0.00058244419584319094 -0.00035368468938029503 0.0011109278467002198 -0.0013032118851680947 -0.0010495114612402892 0.0016158333532263307 0.0012785829985844542 -8.4317046341851213e-05 1.037834204400934e-05 0.00029333845619049367 -0.00037146860894037416 -0.013382691055536272 -0.00066731153291163438 -0.016379617822356522 0.00094138528713818019 -0.0019656692996015456 0.00031482499423005268 -0.00072224036647082631 0.00044917878463510618 0.00022199760044975918
leaf_weight=13985 32458 30975 28099 35835 11138 10629 15629 48745 22845 27254 34962 35812 19349 17213 28927 27210 4163 37854 23992 32591 6478 20 25912 20 11216 2057 14482 3589 26289 25775
leaf_count=13985 32458 30975 28099 35835 11138 10629 15629 48745 22845 27254 34962 35812 19349 17213 28927 27210 4163 37854 23992 32591 6478 20 25912 20 11216 2057 14482 3589 26289 25775
internal_value=0 0.000437596 -0.000367523 -4.02837e-05 0.000154656 -0.000721227 0.000964159 -0.000503333 -0.000132585 0.000457125 0.000230899 -0.000382274 0.000677771 -0.0011347 -0.00084433 0.00137557 0.000286292 -0.000302944 -0.000317797 5.12786e-05 0.00027591 -0.000286974 -0.0009755 -0.00132071 0.000479124 -0.0007628 -0.000198559 0.000108858 0.000562564 5.8376e-05
internal_weight=0 298633 356870 185370 194254 171500 104379 112313 99635 94619 103388 81982 61540 59187 39576 42839 67365 70312 72737 68426 29323 10649 45202 17233 42191 27969 53883 18071 30452 36913
internal_count=655503 298633 356870 185370 194254 171500 104379 112313 99635 94619 103388 81982 61540 59187 39576 42839 67365 70312 72737 68426 29323 10649 45202 17233 42191 27969 53883 18071 30452 36913
is_linear=0
shrinkage=0.005


Tree=13
num_leaves=31
num_cat=0
split_feature=0 1 1 5 5 3 2 3 84 10 5 10 5 10 5 38 10 3 2 8 60 2 2 3 2 60 6 26 60 60
split_gain=5017.27 1848.12 1347.83 924.228 529.173 503.724 386.68 372.696 348.665 342.262 239.542 204.857 200.071 188.387 180.544 179.636 174.678 166.73 165.085 149.806 140.056 131.765 130.235 113.694 111.9 103.31 94.1435 89.9967 85.7481 83.3562
threshold=0.12737553980000002 -0.24580343874999996 1.0000000180025095e-35 1.0000000180025095e-35 -1.0000000180025095e-35 -0.32520614499999995 1.0000000180025095e-35 -0.0065645380999999987 5.1569120000000011 0.22440707500000004 -0.2799894349999999 0.04282460300000001 -0.39039323999999992 0.26605178000000007 0.18766968000000003 1.2818215500000003 -0.20499349499999997 -1.0000000180025095e-35 0.079824670000000014 0.34838237500000008 1.3621219000000002 -0.13022316499999997 1.0000000180025095e-35 -0.23140990999999997 -0.048784730999999991 -1.1506978999999997 0.42716235000000008 -0.18178476499999999 1.1527203000000001 -1.1506978999999997
decision_type=2 2 2 2 2 2 2 2 2 2 2 2 2 2 2 2 2 2 2 2 2 2 2 2 2 2 2 2 2 2
left_child=1 5 4 7 13 8 23 16 12 14 -7 21 -1 24 -4 -10 25 26 -9 28 -15 -6 -18 -5 -2 -3 29 -12 -11 -8
right_child=2 3 9 6 11 10 17 18 15 19 27 -13 -14 20 -16 -17 22 -19 -20 -21 -22 -23 -24 -25 -26 -27 -28 -29 -30 -31
leaf_value=-0.0014837948779977573 -0.00040101278642413189 -0.00019432768962243113 0.00053363382712250877 -0.00033166656568021197 0.00011093841817404379 -0.00087996720448851287 0.00082335967287605009 -0.00032319754090053048 -0.0038496622082687193 0.0013826947664466252 -2.907286837540447e-05 0.00096262794916558052 -0.00089810878248830343 0.00058840026609416124 0.0011387448221981276 -0.020377810410090853 -0.00070029940484281729 0.00071007788655612965 0.00020192756337320686 0.0018072555795879827 -0.00047709440395364843 0.00063178874465368256 -0.00021855457531591728 9.4312656781129632e-05 6.7354284277742845e-05 -0.0010810954678517214 0.00059875306460310861 -0.00047460821760311294 0.00073068612019110276 -1.1074317754930208e-05
leaf_weight=23241 26785 3887 27974 27370 21705 29830 3372 31978 31 15566 17897 24389 39133 16599 22038 35 26172 32597 28134 15504 3788 27562 30238 36624 24342 21188 12532 30911 7459 26622
leaf_count=23241 26785 3887 27974 27370 21705 29830 3372 31978 31 15566 17897 24389 39133 16599 22038 35 26172 32597 28134 15504 3788 27562 30238 36624 24342 21188 12532 30911 7459 26622
internal_value=0 -0.000326341 0.000586935 -9.17117e-05 0.000290396 -0.000793203 0.000197732 -0.000376086 -0.00112849 0.00107313 -0.000526976 0.000587852 -0.00111634 -1.59684e-05 0.000800279 -0.0126146 -0.00059641 0.00044103 -7.74252e-05 0.00142731 0.000390426 0.000402324 -0.000442065 -8.78771e-05 -0.000178019 -0.000943633 0.0002348 -0.000311239 0.00117148 8.27348e-05
internal_weight=0 421792 233711 280714 145170 141078 139117 141597 62440 88541 78638 73656 62374 71514 50012 66 81485 75123 60112 38529 20387 49267 56410 63994 51127 25075 42526 48808 23025 29994
internal_count=655503 421792 233711 280714 145170 141078 139117 141597 62440 88541 78638 73656 62374 71514 50012 66 81485 75123 60112 38529 20387 49267 56410 63994 51127 25075 42526 48808 23025 29994
is_linear=0
shrinkage=0.005


Tree=14
num_leaves=31
num_cat=0
split_feature=0 2 2 5 3 10 5 5 29 5 5 3 84 29 10 29 5 29 29 3 10 29 29 60 10 60 60 60 14 29
split_gain=4967.23 1783.82 1322.95 765.527 696.179 477.769 448.375 385.691 376.732 258.989 241.031 232.554 208.092 196.271 175.589 164.366 159.675 140.905 121.431 113.624 113.61 112.305 111.938 110.49 138.946 94.581 93.0247 90.711 89.73 89.3008
threshold=0.12737553980000002 -0.012577826999999998 0.068137981000000014 0.33863762000000003 -0.15408050999999998 0.23767518500000004 -0.021081799499999998 -0.38465963499999994 -0.17577733079999996 0.17601422000000003 -0.0028651809999999992 -0.0065645380999999987 5.1569120000000011 1.0000000180025095e-35 0.04282460300000001 -0.17577733079999996 -0.20709080499999996 -0.17577733079999996 -0.17577733079999996 -0.34792109999999993 0.018430513500000002 -0.17577733079999996 -0.52502982499999984 -1.1506978999999997 -0.25926334999999995 1.1527203000000001 0.94331868000000019 -1.7789027999999998 0.35423417500000004 -0.17577733079999996
decision_type=2 2 2 2 2 2 2 2 2 2 2 2 2 2 2 2 2 2 2 2 2 2 2 2 2 2 2 2 2 2
left_child=1 4 6 8 7 10 17 12 19 18 29 20 22 23 21 -9 25 -2 -6 -3 -10 -8 -1 -5 -25 -7 -22 -12 -18 -4
right_child=2 3 5 13 9 16 14 15 11 -11 27 -13 -14 -15 -16 -17 28 -19 -20 -21 26 -23 -24 24 -26 -27 -28 -29 -30 -31
leaf_value=-0.0017646763838598213 -0.00042850520245863995 -0.00090892185923781938 2.2710538507916591e-05 0.001026259478096766 -0.00088060497542009214 0.0012469804030704539 -7.9770532464439541e-05 -0.0010593754718200756 -0.00041466700688769584 -7.4611944846404134e-06 0.0022918525441886733 0.0002245121864480212 -0.014950396196717132 0.00076708158758440265 0.00089898284508463031 -0.0005464864836483243 0.001333997780911764 8.5395064654722228e-05 -0.00038480086190871408 -0.00039976800732629549 0.00026859082362541123 0.00049751198683591123 -0.0011575534282446821 -0.00033616942789231499 0.00031626704185915499 0.00045279888550729615 -0.00055598589747662096 0.0009386647692549144 0.0018909936771800266 0.00058029243489889288
leaf_weight=10247 20285 17247 10953 3877 18743 11008 11843 22929 37956 35814 1285 44708 28 25310 20347 49010 15738 38951 36203 30048 13814 29190 29304 11086 30922 5685 4546 34199 13376 20851
leaf_count=10247 20285 17247 10953 3877 18743 11008 11843 22929 37956 35814 1285 44708 28 25310 20347 49010 15738 38951 36203 30048 13814 29190 29304 11086 30922 5685 4546 34199 13376 20851
internal_value=0 -0.00032471 0.000584001 -1.25766e-05 -0.00066344 0.000972494 0.000219732 -0.000928065 -0.000217148 -0.000338292 0.000704358 -4.473e-05 -0.0013245 0.000413603 0.000519212 -0.000709959 0.00136637 -9.05869e-05 -0.000553928 -0.00058544 -0.000258475 0.000330896 -0.00131485 0.000218626 0.000144088 0.000976512 6.44228e-05 0.000987668 0.0015899 0.000388266
internal_weight=0 421792 233711 219514 202278 113095 120616 111518 148319 90760 67288 101024 39579 71195 61380 71939 45807 59236 54946 47295 56316 41033 39551 45885 42008 16693 18360 35484 29114 31804
internal_count=655503 421792 233711 219514 202278 113095 120616 111518 148319 90760 67288 101024 39579 71195 61380 71939 45807 59236 54946 47295 56316 41033 39551 45885 42008 16693 18360 35484 29114 31804
is_linear=0
shrinkage=0.005


Tree=15
num_leaves=31
num_cat=0
split_feature=0 1 1 5 5 2 3 10 91 29 5 29 10 6 5 3 5 23 2 5 0 60 2 2 29 29 29 3 29 87
split_gain=4946.66 1865.75 1321.52 912.48 505.112 493.032 487.014 366.874 288.953 277.681 259.928 247.945 227.926 197.401 176.979 176.421 168.4 162.905 146.265 145.522 143.703 142.617 130.764 109.467 107.701 107.138 90.3752 88.2378 81.8158 80.1227
threshold=0.12737553980000002 -0.24580343874999996 1.0000000180025095e-35 -0.26382015499999995 1.0000000180025095e-35 -1.0000000180025095e-35 -0.39369751499999994 0.22440707500000004 5.2646998500000004 -0.17577733079999996 -0.2799894349999999 -1.0000000180025095e-35 0.28302213500000006 0.42716235000000008 -0.12052166499999999 -0.30933265999999993 0.17601422000000003 -1.7217323999999998 0.079824670000000014 -0.059654554999999991 1.0000000180025095e-35 1.3621219000000002 -0.16086145499999996 -0.034182604499999991 1.0000000180025095e-35 1.0000000180025095e-35 -0.17577733079999996 -0.0065645380999999987 -0.17577733079999996 5.4336017000000014
decision_type=2 2 2 2 2 2 2 2 2 2 2 2 2 2 2 2 2 2 2 2 2 2 2 2 2 2 2 2 2 2
left_child=1 6 4 9 12 15 8 16 14 27 -8 20 23 22 -1 -5 28 -10 -11 -9 -7 -14 26 -2 -17 -12 -6 -3 -4 -21
right_child=2 3 7 5 13 11 10 19 17 18 25 -13 21 -15 -16 24 -18 -19 -20 29 -22 -23 -24 -25 -26 -27 -28 -29 -30 -31
leaf_value=-0.001422951672434552 -0.00040490049160515652 -0.0010064361192966874 0.00014083346834544667 -0.00046617961792478664 -0.00037191035220616813 -4.3078818565408778e-05 -0.00090800237120736323 0.0010756553596442224 -0.024176672935485838 -0.00048934924073877378 -0.00048645900071551555 0.00072945769886353191 0.00063489781040322287 0.00095717847336313085 -0.00086146631271225818 -0.00012933322455062763 0.0011062865072630984 -0.0058735113326580293 -2.360533718865316e-05 0.0017074163471324836 0.00043827244366274312 -0.00043879524322193295 0.0006262612961462485 5.8716951957208474e-05 0.00036569922706039456 5.5399766544406152e-06 0.00032503913279312107 -0.00050408507593511283 0.00071472678041695854 -0.0076296754813064702
leaf_weight=28289 27329 22329 9319 29165 6699 31930 32251 16457 20 35724 36552 32550 16657 23502 27851 36642 22253 31 31919 21921 30143 3798 28355 23838 15693 15869 15218 14365 18617 23
leaf_count=28289 27329 22329 9319 29165 6699 31930 32251 16457 20 35724 36552 32550 16657 23502 27851 36642 22253 31 31919 21921 30143 3798 28355 23838 15693 15869 15218 14365 18617 23
internal_value=0 -0.000324823 0.000581842 -8.90177e-05 0.000288532 0.000130494 -0.000794313 0.00106323 -0.00115521 -0.000459558 -0.000554813 0.00037601 -1.05677e-05 0.000578907 -0.0011444 -0.000154555 0.000781779 -0.0130512 -0.000269577 0.00143108 0.000190668 0.000435539 0.000402066 -0.000188908 1.91056e-05 -0.00033752 0.000112014 -0.000809775 0.000523285 0.00169763
internal_weight=0 421323 233986 280460 145396 176123 140863 88590 56191 104337 84672 94623 71622 73774 56140 81500 50189 51 67643 38401 62073 20455 50272 51167 52335 52421 21917 36694 27936 21944
internal_count=655309 421323 233986 280460 145396 176123 140863 88590 56191 104337 84672 94623 71622 73774 56140 81500 50189 51 67643 38401 62073 20455 50272 51167 52335 52421 21917 36694 27936 21944
is_linear=0
shrinkage=0.005


Tree=16
num_leaves=31
num_cat=0
split_feature=0 1 1 5 5 3 29 29 2 2 5 10 6 5 5 29 83 82 60 3 2 2 10 29 2 10 29 10 60 29
split_gain=4897.32 1847.14 1308.33 905.119 500.073 482.156 437.065 365.415 315.528 260.88 257.335 225.652 195.432 184.173 182.393 168.456 157.253 143.633 141.195 133.093 129.46 127.446 118.958 114.707 108.375 107.684 106.069 102.062 91.4488 89.4737
threshold=0.12737553980000002 -0.24580343874999996 1.0000000180025095e-35 0.17601422000000003 1.0000000180025095e-35 -0.39369751499999994 -0.17577733079999996 1.0000000180025095e-35 0.045222450000000004 0.11054441000000002 -0.2799894349999999 0.28302213500000006 0.42716235000000008 -0.046718909999999995 -0.12052166499999999 1.0000000180025095e-35 3.3543661500000006 1.2444747000000003 1.3621219000000002 -0.37115245999999996 -0.16086145499999996 1.0000000180025095e-35 0.073906870000000013 -1.0000000180025095e-35 -0.034182604499999991 0.19427565500000002 1.0000000180025095e-35 0.22440707500000004 1.3621219000000002 -0.17577733079999996
decision_type=2 2 2 2 2 2 2 2 2 2 2 2 2 2 2 2 2 2 2 2 2 2 2 2 2 2 2 2 2 2
left_child=1 5 4 6 11 14 21 13 23 19 -7 24 20 -4 16 -10 -1 -18 -13 -8 29 -3 -11 -5 -2 -9 -12 -15 -24 -6
right_child=2 3 7 8 12 10 9 25 15 22 26 18 -14 27 -16 -17 17 -19 -20 -21 -22 -23 28 -25 -26 -27 -28 -29 -30 -31
leaf_value=-0.0014058224320062083 -0.0004028760057156951 -0.00093456883969644041 0.00051102702312593611 -0.00017188145701388288 -0.0003700507936199461 -0.00090346237093429451 -0.0007104438164067656 0.0011773662422681812 0.00030988146197728317 -5.1288485710261867e-05 -0.0004840267037378412 0.00063172332110713952 0.0009523926006799906 0.0008495972063445556 -0.00086233999995785626 0.00086896598418782181 -0.0042994944414679421 -0.017322842023120479 -0.00043660130076100063 -0.00020687007832526313 0.00062312998948792751 -0.00045373204092261614 0.00060385178419912347 0.00031829314884333467 5.8423377662071523e-05 0.0017475937192105459 5.5122826806179736e-06 0.001461228292878978 -0.00046209852700906197 0.00032341392523807619
leaf_weight=28174 27329 26673 26743 37229 6699 32251 18813 15966 36879 32876 36552 16657 23502 17512 27877 21229 114 26 3798 43368 28355 28511 14991 17567 23838 17197 15869 11172 2324 15218
leaf_count=28174 27329 26673 26743 37229 6699 32251 18813 15966 36879 32876 36552 16657 23502 17512 27877 21229 114 26 3798 43368 28355 28511 14991 17567 23838 17197 15869 11172 2324 15218
internal_value=0 -0.000323198 0.000578933 -8.85727e-05 0.000287089 -0.000790341 -0.000321737 0.00105791 0.000257457 -0.000142783 -0.000552039 -1.05149e-05 0.000576012 0.000809522 -0.00114943 0.000514136 -0.00143209 -0.00671812 0.000433361 -0.000359227 0.000400056 -0.000686143 0.000125366 -1.47368e-05 -0.000187963 0.00147306 -0.000335832 0.00108782 0.000460781 0.000111454
internal_weight=0 421323 233986 280460 145396 140863 167556 88590 112904 112372 84672 71622 73774 55427 56191 58108 28314 140 20455 62181 50272 55184 50191 54796 51167 33163 52421 28684 17315 21917
internal_count=655309 421323 233986 280460 145396 140863 167556 88590 112904 112372 84672 71622 73774 55427 56191 58108 28314 140 20455 62181 50272 55184 50191 54796 51167 33163 52421 28684 17315 21917
is_linear=0
shrinkage=0.005


Tree=17
num_leaves=31
num_cat=0
split_feature=0 1 1 5 5 2 3 29 84 29 5 29 10 12 29 5 5 3 2 0 60 2 29 10 29 29 10 3 2 10
split_gain=4848.47 1828.72 1295.28 897.326 495.085 483.625 477.346 361.77 332.251 272.161 254.768 243.235 223.401 208.604 194.606 182.336 175.247 174.263 143.373 142.247 139.786 128.304 108.04 106.61 105.011 103.032 101.044 87.351 81.9338 79.1524
threshold=0.12737553980000002 -0.24580343874999996 1.0000000180025095e-35 -0.26382015499999995 -1.0000000180025095e-35 1.0000000180025095e-35 -0.39369751499999994 1.0000000180025095e-35 5.1569120000000011 -0.17577733079999996 -0.2799894349999999 -1.0000000180025095e-35 0.28302213500000006 -1.4415428999999997 -1.0000000180025095e-35 -0.046718909999999995 -0.12052166499999999 -0.25782959999999994 0.079824670000000014 1.0000000180025095e-35 1.3621219000000002 -0.00081321539999999986 -0.52502982499999984 0.19427565500000002 1.0000000180025095e-35 1.0000000180025095e-35 0.22440707500000004 -0.0065645380999999987 -0.034182604499999991 0.25956040500000005
decision_type=2 2 2 2 2 2 2 2 2 2 2 2 2 2 2 2 2 2 2 2 2 2 2 2 2 2 2 2 2 2
left_child=1 6 4 9 12 17 8 15 16 27 -8 19 22 -10 21 29 -1 -5 -11 -7 -14 -6 -2 -9 -12 -19 -17 -3 -24 -4
right_child=2 3 7 5 14 11 10 23 13 18 24 -13 20 -15 -16 26 -18 25 -20 -21 -22 -23 28 -25 -26 -27 -28 -29 -30 -31
leaf_value=-0.001408412859576982 -0.00067313538082055635 -0.00099796918890332573 0.00029531731434687055 -0.00045276467740973939 0.0001352991179384032 -4.3418212360186148e-05 -0.00089894505673398877 0.0011714794305294537 -0.023594652230922997 -0.00048508581516690675 -0.00048160656977744624 0.00072278874608850937 0.00062856469841423472 -0.0046575503446387523 0.00091683322594419037 0.00084534923198190798 -0.00084964323303520634 -0.00012147398561645134 -2.3969793803484073e-05 0.00043548734977305625 -0.00043441828580019265 0.00065671350509976015 -0.00029009247792190939 0.0017388557461367393 5.4847164436406312e-06 0.00036836805028166609 0.0014539221294359809 -0.00049814872555625962 0.00015295429703874176 0.00085560753792921624
leaf_weight=28286 9343 22329 16569 30369 25011 31930 32251 15966 26 35724 36552 32550 16657 33 26430 17512 27846 35798 31919 30143 3798 22333 21843 17197 15869 15333 11172 14365 19981 10174
leaf_count=28286 9343 22329 16569 30369 25011 31930 32251 15966 26 35724 36552 32550 16657 33 26430 17512 27846 35798 31919 30143 3798 22333 21843 17197 15869 15333 11172 14365 19981 10174
internal_value=0 -0.000321582 0.000576038 -8.81298e-05 0.000285654 0.000129551 -0.00078639 0.00105262 -0.00114368 -0.00045558 -0.000549279 0.000372714 -1.04623e-05 -0.0130027 0.000573132 0.000805475 -0.00113122 -0.000152765 -0.000267497 0.000189141 0.000431194 0.000381259 -0.000187023 0.0014657 -0.000334153 2.54183e-05 0.00108238 -0.000802299 -7.84313e-05 0.000508472
internal_weight=0 421323 233986 280460 145396 176123 140863 88590 56191 104337 84672 94623 71622 59 73774 55427 56132 81500 67643 62073 20455 47344 51167 33163 52421 51131 28684 36694 41824 26743
internal_count=655309 421323 233986 280460 145396 176123 140863 88590 56191 104337 84672 94623 71622 59 73774 55427 56132 81500 67643 62073 20455 47344 51167 33163 52421 51131 28684 36694 41824 26743
is_linear=0
shrinkage=0.005


Tree=18
num_leaves=31
num_cat=0
split_feature=0 1 1 5 5 3 29 29 84 2 2 5 6 12 6 5 5 29 3 2 3 3 3 60 29 9 14 2 29 3
split_gain=4800.11 1810.48 1282.36 890.169 490.146 472.585 429.106 358.161 328.937 309.418 255.881 252.227 207.59 206.523 193.039 180.517 173.498 165.173 131.308 127.431 126.585 116.253 113.045 108.285 103.964 98.3609 97.6898 90.7922 88.1521 87.9039
threshold=0.12737553980000002 -0.24580343874999996 1.0000000180025095e-35 0.17601422000000003 -1.0000000180025095e-35 -0.39369751499999994 -0.17577733079999996 1.0000000180025095e-35 5.1569120000000011 0.045222450000000004 0.11054441000000002 -0.2799894349999999 1.0000000180025095e-35 -1.4415428999999997 0.42716235000000008 -0.046718909999999995 -0.12052166499999999 1.0000000180025095e-35 -0.37115245999999996 -0.16086145499999996 -0.34792109999999993 1.0000000180025095e-35 -0.11593795 1.1527203000000001 1.0000000180025095e-35 1.0229313750000002 0.18961503000000005 1.0000000180025095e-35 -0.17577733079999996 1.0756836000000002e-05
decision_type=2 2 2 2 2 2 2 2 2 2 2 2 2 2 2 2 2 2 2 2 2 2 2 2 2 2 2 2 2 2
left_child=1 5 4 6 12 8 20 15 16 22 18 -7 -2 -10 19 -4 -1 29 -8 28 -3 -12 -5 -14 -13 -17 -9 -22 -6 -11
right_child=2 3 7 9 14 11 10 26 13 17 21 24 23 -15 -16 25 -18 -19 -20 -21 27 -23 -24 -25 -26 -27 -28 -29 -30 -31
leaf_value=-0.0014013707714505906 -0.00032842432195161024 -0.00099673383639905491 0.00050592952353847029 -0.00024103580214452481 -0.00036887703985450374 -0.00089445033278094492 -0.00070481565197254834 0.0011720605778235626 -0.023476679004155676 9.6371558452549262e-05 -8.7581559791432894e-05 -0.00047919853786874912 0.00032353702344859093 -0.0046342626405936303 0.00094433537508655896 0.00094183525013030863 -0.00084539500321892033 0.00086100719806511965 -0.00020463100626293636 0.00061671048343964337 -0.00076117081752641173 0.00039768918215068256 0.00021316764738417662 -0.00039407011162900302 5.457295180297567e-06 0.0017113680035248297 0.0017155870035638798 -0.00025242877828030919 0.00031944743519516538 0.00058977661802579154
leaf_weight=28286 29896 20071 26743 27415 6699 32251 18813 15694 26 21106 28311 36552 35557 33 23502 23647 27846 21229 43368 28355 17014 21880 27381 6169 15869 5037 17469 18099 15218 15773
leaf_count=28286 29896 20071 26743 27415 6699 32251 18813 15694 26 21106 28311 36552 35557 33 23502 23647 27846 21229 43368 28355 17014 21880 27381 6169 15869 5037 17469 18099 15218 15773
internal_value=0 -0.000319975 0.000573158 -8.76891e-05 0.000284226 -0.000782458 -0.00031892 0.00104736 -0.00113796 0.00025547 -0.000141603 -0.000546532 -1.041e-05 -0.0129377 0.000570266 0.000801447 -0.00112556 0.000509652 -0.000355963 0.00039539 -0.000679993 0.000123965 -1.4075e-05 0.000217442 -0.000332482 0.00107697 0.00145837 -0.00049894 0.000109059 0.000307399
internal_weight=0 421323 233986 280460 145396 140863 167556 88590 56191 112904 112372 84672 71622 59 73774 55427 56132 58108 62181 50272 55184 50191 54796 41726 52421 28684 33163 35113 21917 36879
internal_count=655309 421323 233986 280460 145396 140863 167556 88590 56191 112904 112372 84672 71622 59 73774 55427 56132 58108 62181 50272 55184 50191 54796 41726 52421 28684 33163 35113 21917 36879
is_linear=0
shrinkage=0.005


Tree=19
num_leaves=31
num_cat=0
split_feature=0 1 1 5 5 3 29 10 84 29 5 3 10 29 38 5 5 5 60 4 1 1 1 29 14 29 3 29 87 10
split_gain=4752.23 1792.42 1269.57 882.363 485.257 467.871 435.796 356.161 325.656 266.712 249.711 238.726 220.668 192.003 187.727 171.768 163.987 140.735 137.616 134.366 126.592 124.476 108.099 106.658 106.199 102.927 85.9339 79.6744 79.3407 77.8367
threshold=0.12737553980000002 -0.24580343874999996 1.0000000180025095e-35 -0.26382015499999995 1.0000000180025095e-35 -0.39369751499999994 -1.0000000180025095e-35 0.22440707500000004 5.1569120000000011 -0.17577733079999996 -0.2799894349999999 -0.082809754999999985 0.28302213500000006 1.0000000180025095e-35 1.5996117000000003 -0.12052166499999999 0.17601422000000003 -0.059654554999999991 1.3621219000000002 0.027777794500000005 -1.0000000180025095e-35 1.0000000180025095e-35 1.0000000180025095e-35 -0.52502982499999984 0.025672259500000006 1.0000000180025095e-35 -0.0065645380999999987 -0.17577733079999996 5.4336017000000014 -0.22114966
decision_type=2 2 2 2 2 2 2 2 2 2 2 2 2 2 2 2 2 2 2 2 2 2 2 2 2 2 2 2 2 2
left_child=1 5 4 9 12 8 11 16 15 26 29 21 23 24 -10 -1 27 -9 -14 -11 -8 -5 -13 -2 -6 -12 -3 -4 -19 -7
right_child=2 3 7 6 13 10 20 17 14 19 25 22 18 -15 -16 -17 -18 28 -20 -21 -22 -23 -24 -25 -26 -27 -28 -29 -30 -31
leaf_value=-0.0013943639344623086 -0.00066882829908028376 -0.000988931427699331 0.00013231518794139499 -0.00044054426760409797 0.00016404928414075749 -0.0012315590278544823 0.00028378359474709724 0.0010550337634722792 -0.0043967233273771505 -0.00049249282892744174 -0.00047680254078059545 1.9658401532002726e-05 0.00062442046243344341 0.00090880900842211284 -0.022257474235125949 -0.00084116802896895852 0.0010850404635253097 0.0016764316330445273 -0.00043027738430890389 -4.6724043575000306e-05 0.00075933928678152966 2.2606016122506823e-05 0.00046665366215235793 -7.7940255212143549e-05 0.00064037978503263401 5.4300073462302234e-06 -0.0004931819677612884 0.00069864839219046777 -0.0076149842207846432 -0.00071333872999458658
leaf_weight=28286 9343 22329 9319 37523 26195 10993 32675 16457 31 33188 36552 36205 16657 26430 28 27846 22253 21921 3798 34455 24477 23651 21592 41824 21149 15869 14365 18617 23 21258
leaf_count=28286 9343 22329 9319 37523 26195 10993 32675 16457 31 33188 36552 36205 16657 26430 28 27846 22253 21921 3798 34455 24477 23651 21592 41824 21149 15869 14365 18617 23 21258
internal_value=0 -0.000318375 0.000570292 -8.72507e-05 0.000282804 -0.000778545 0.000128608 0.00104212 -0.00113227 -0.000451624 -0.0005438 -4.37768e-05 -1.0358e-05 0.000567415 -0.012873 -0.00111993 0.000764813 0.00140456 0.000428589 -0.000265434 0.000487454 -0.000261482 0.000186648 -0.000185835 0.00037683 -0.00033082 -0.000794855 0.000509729 0.00166669 -0.000889978
internal_weight=0 421323 233986 280460 145396 140863 176123 88590 56191 104337 84672 118971 71622 73774 59 56132 50189 38401 20455 67643 57152 61174 57797 51167 47344 52421 36694 27936 21944 32251
internal_count=655309 421323 233986 280460 145396 140863 176123 88590 56191 104337 84672 118971 71622 73774 59 56132 50189 38401 20455 67643 57152 61174 57797 51167 47344 52421 36694 27936 21944 32251
is_linear=0
shrinkage=0.005


Tree=20
num_leaves=31
num_cat=0
split_feature=0 1 2 7 0 10 2 7 29 91 7 29 7 58 29 7 29 29 7 4 3 29 3 87 3 10 29 50 9 3
split_gain=4767.64 1724.26 1274.74 824.694 469.967 469.728 464.465 378.845 283.108 270.914 247.709 237.91 224.413 217.931 189.706 174.218 161.692 146.747 141.133 137.785 128.841 121.252 105.975 105.954 99.845 96.4036 93.1987 89.0762 81.3845 78.3403
threshold=0.12737553980000002 -0.24580343874999996 0.068137981000000014 -0.29108387999999996 -0.37946873499999995 0.23767518500000004 1.0000000180025095e-35 0.20291568000000001 -0.17577733079999996 5.2646998500000004 0.10417261000000001 1.0000000180025095e-35 -0.32117627999999993 1.8901385000000002 -0.17577733079999996 -0.18330683499999997 1.0000000180025095e-35 1.0000000180025095e-35 0.28145433000000003 0.18545057500000003 1.0756836000000002e-05 1.0000000180025095e-35 -0.23321576499999999 5.0679882000000012 -0.0065645380999999987 0.28302213500000006 -0.17577733079999996 1.1520278500000003 1.0229313750000002 -0.10477040249999998
decision_type=2 2 2 2 2 2 2 2 2 2 2 2 2 2 2 2 2 2 2 2 2 2 2 2 2 2 2 2 2 2
left_child=1 4 7 8 9 10 16 14 24 15 26 20 -6 -11 -2 23 22 -9 27 -10 -8 29 -5 -1 -3 -16 -4 -7 -12 -14
right_child=2 3 5 6 12 18 11 17 19 13 28 -13 21 -15 25 -17 -18 -19 -20 -21 -22 -23 -24 -25 -26 -27 -28 -29 -30 -31
leaf_value=-0.0013883004601716415 -0.00038730249549490239 -0.00099743183263192132 3.9226119815932038e-05 -0.00058508785431276016 -0.00086251255799970488 0.0012666988700283822 -2.4501318287581551e-05 0.00033957539719114749 -0.00044657340317317456 -0.0047622364593876733 0.0009067995649859658 0.00070488754119876328 -0.00076658317740842003 -0.025347561836242677 8.0024161363670261e-06 -0.00084216643425978263 0.00018033365006549302 0.00089996760033356454 0.0016666133157113886 8.0940532569561545e-06 0.0004376158354360691 3.0384136214983343e-05 -0.00013738677998160692 -0.01079001133516431 -0.00046716482079482024 0.00049858030091595154 0.00058258796060610071 0.00058249294799274224 0.001653680834843086 -0.00029646461608421953
leaf_weight=27199 23674 22747 11986 21142 32077 20213 34775 31726 38170 36 28163 32512 15117 20 31736 29089 24638 18491 19475 29573 26636 16050 35267 30 14559 14631 23103 6221 4190 21415
leaf_count=27199 23674 22747 11986 21142 32077 20213 34775 31726 38170 36 28163 32512 15117 20 31736 29089 24638 18491 19475 29573 26636 16050 35267 30 14559 14631 23103 6221 4190 21415
internal_value=0 -0.000317594 0.000573077 -9.05183e-05 -0.000768449 0.000953512 0.000119732 0.000214492 -0.000440712 -0.00112215 0.000687951 0.000359035 -0.000532919 -0.0121141 -2.31337e-05 -0.00111122 -0.000157589 0.000545924 0.00134363 -0.00024809 0.000175934 -0.000331854 -0.000305184 -0.00139866 -0.00079049 0.000162803 0.000396982 0.00110568 0.00100353 -0.000491
internal_weight=0 421052 233609 280019 141033 113351 174970 120258 105049 56374 67442 93923 84659 56 70041 56318 81047 50217 45909 67743 61411 52582 56409 27229 37306 46367 35089 26434 32353 36532
internal_count=654661 421052 233609 280019 141033 113351 174970 120258 105049 56374 67442 93923 84659 56 70041 56318 81047 50217 45909 67743 61411 52582 56409 27229 37306 46367 35089 26434 32353 36532
is_linear=0
shrinkage=0.005


Tree=21
num_leaves=31
num_cat=0
split_feature=0 1 2 5 0 10 5 29 2 84 5 7 2 29 5 29 82 29 5 29 60 29 10 60 2 10 13 60 29 10
split_gain=4720.08 1707.06 1262.03 915.577 465.279 465.043 406.855 376.356 374.89 317.977 251.182 245.238 200.204 185.311 178.589 171.473 171.398 151.816 144.176 124.796 116.153 115.539 107.426 104.727 100.167 98.601 97.8872 95.7633 92.2691 83.4124
threshold=0.12737553980000002 -0.24580343874999996 0.068137981000000014 0.023689685000000005 -0.37946873499999995 0.23767518500000004 -0.021081799499999998 -0.17577733079999996 1.0000000180025095e-35 5.1569120000000011 0.3765613450000001 0.10417261000000001 0.026095720500000003 1.0000000180025095e-35 -0.47859056499999991 -1.0000000180025095e-35 1.0174213500000002 -0.17577733079999996 0.12126250250000002 1.0000000180025095e-35 0.94331868000000019 -0.17577733079999996 0.16324100000000002 1.3621219000000002 0.031426492500000007 0.018430513500000002 -0.18683531499999997 -1.3600994999999998 -0.17577733079999996 -0.30580083999999991
decision_type=2 2 2 2 2 2 2 2 2 2 2 2 2 2 2 2 2 2 2 2 2 2 2 2 2 2 2 2 2 2
left_child=1 4 6 7 9 11 17 24 19 14 21 28 -9 26 -1 25 -11 -2 20 -5 -7 -6 -14 -24 -3 -8 -10 -13 -4 -16
right_child=2 3 5 8 10 18 15 12 13 16 -12 27 22 -15 29 -17 -18 -19 -20 -21 -22 -23 23 -25 -26 -27 -28 -29 -30 -31
leaf_value=-0.0015011326909044518 -0.00043400165170088618 -0.0009496257130468097 3.9029990691634125e-05 -0.00022861601612178144 -0.00100386608020549 0.0013536345170088845 0.00014397863270768514 -0.0004212335285197653 1.7158385868191336e-05 -0.006582085521597612 -0.00010533883738024755 0.0019569315334066139 -0.00013011309402867306 0.00079215462267391372 -0.001162813506711426 0.00085574105813230477 -0.024665474563837053 0.00010028593755052842 0.0016281258697715629 0.00025525483002283194 0.00064188396134554602 -0.00054385558387190492 0.00051717297341627444 -0.00062307537470602105 -0.0004970904919738081 0.00069588981229533374 0.00047592460419254855 0.00092130070391808398 0.00057967501661088886 -0.00068893403978507659
leaf_weight=18870 20224 24362 11986 42795 20997 14249 28135 46284 21626 38 24652 2412 33283 25724 17043 21729 20 38810 22070 19351 9590 39010 14557 2337 24551 11360 25149 29941 23103 20403
leaf_count=18870 20224 24362 11986 42795 20997 14249 28135 46284 21626 38 24652 2412 33283 25724 17043 21729 20 38810 22070 19351 9590 39010 14557 2337 24551 11360 25149 29941 23103 20403
internal_value=0 -0.000316006 0.000570212 -9.00658e-05 -0.000764607 0.000948745 0.000213419 -0.000365219 0.000207013 -0.00111654 -0.000530254 0.000684512 -0.00018406 0.000451282 -0.00110449 0.000498996 -0.0128177 -8.27515e-05 0.00133691 -7.79485e-05 0.00106731 -0.000704817 3.47132e-05 0.000359439 -0.000722484 0.000302726 0.000263818 0.00099851 0.000394997 -0.000904613
internal_weight=0 421052 233609 280019 141033 113351 120258 145374 134645 56374 84659 67442 96461 72499 56316 61224 58 59034 45909 62146 23839 60007 50177 16894 48913 39495 46775 32353 35089 37446
internal_count=654661 421052 233609 280019 141033 113351 120258 145374 134645 56374 84659 67442 96461 72499 56316 61224 58 59034 45909 62146 23839 60007 50177 16894 48913 39495 46775 32353 35089 37446
is_linear=0
shrinkage=0.005


Tree=22
num_leaves=31
num_cat=0
split_feature=0 1 2 5 3 10 29 5 29 84 82 5 2 7 5 10 2 29 5 3 3 29 60 2 3 10 26 60 29 60
split_gain=4673 1690.03 1249.44 906.985 464.387 460.404 416.215 402.796 304.835 262.559 259.909 248.459 244.177 242.792 175.776 169.973 169.424 150.302 142.738 133.671 127.107 123.25 114.994 104.544 99.1069 97.6804 96.3469 94.808 91.3487 90.73
threshold=0.12737553980000002 -0.24580343874999996 0.068137981000000014 0.16865515500000003 -0.13218544999999998 0.23767518500000004 -0.17577733079999996 -0.021081799499999998 -1.0000000180025095e-35 5.1569120000000011 1.1692538500000003 -0.10371297199999999 0.026095720500000003 0.10417261000000001 0.36061829000000006 0.04282460300000001 1.0000000180025095e-35 -0.17577733079999996 0.12126250250000002 1.0000000180025095e-35 -0.21658607499999996 -0.17577733079999996 0.94331868000000019 0.21965288500000005 -0.25782959999999994 -0.20499349499999997 -0.10475353749999998 -1.3600994999999998 -0.17577733079999996 1.7809252500000003
decision_type=2 2 2 2 2 2 2 2 2 2 2 2 2 2 2 2 2 2 2 2 2 2 2 2 2 2 2 2 2 2
left_child=1 4 7 6 9 13 20 17 16 11 -11 29 24 28 25 21 -5 -2 22 -14 -3 -9 -7 -10 -8 -6 -18 -15 -4 -1
right_child=2 3 5 8 14 18 12 15 23 10 -12 -13 19 27 -16 -17 26 -19 -20 -21 -22 -23 -24 -25 -26 -27 -28 -29 -30 -31
leaf_value=-0.0012302972232264393 -0.00043183163690505998 -0.0009362169752602941 3.8834840389657191e-05 -0.00018215352111397663 -0.00095055216895634372 0.0013468663415021741 -0.00067449355231104029 -0.00012160957085942746 0.00039951140159071057 -0.0042787602197292239 -0.026096101760864261 -0.00071861127163337602 -0.00013765489589924454 0.0019471468708228529 7.3762921495070451e-07 0.00087036710730668332 0.00057591456313547929 9.9784500964348379e-05 0.0016199852463643278 0.00034640725430954653 -0.00045400627626962682 0.00048501487508477713 0.00063867453737215978 0.00092756312316948986 -0.00022856309838130393 -0.00042836734744330278 7.6669117675543525e-05 0.0009166942049755976 0.00057677664531892241 -0.0027699372024959602
leaf_weight=40540 20224 25884 11986 35573 13287 14249 19725 11745 23129 43 20 41209 32359 2412 17481 20314 17120 38810 22070 25501 28951 29165 9590 15760 33828 27473 22189 29941 23103 980
leaf_count=40540 20224 25884 11986 35573 13287 14249 19725 11745 23129 43 20 41209 32359 2412 17481 20314 17120 38810 22070 25501 28951 29165 9590 15760 33828 27473 22189 29941 23103 980
internal_value=0 -0.000314426 0.000567361 -8.96154e-05 -0.000760783 0.000944001 -0.000325019 0.000212352 0.000254369 -0.00100142 -0.0112049 -0.000993654 -0.000149506 0.000681089 -0.000418702 0.000496501 6.7855e-05 -8.23377e-05 0.00133023 7.56888e-05 -0.000681626 0.000310857 0.00106197 0.000613508 -0.000392811 -0.00059859 0.000294102 0.000993517 0.000393022 -0.00126664
internal_weight=0 421052 233609 280019 141033 113351 166248 120258 113771 82792 63 82729 111413 67442 58241 61224 74882 59034 45909 57860 54835 40910 23839 38889 53553 40760 39309 32353 35089 41520
internal_count=654661 421052 233609 280019 141033 113351 166248 120258 113771 82792 63 82729 111413 67442 58241 61224 74882 59034 45909 57860 54835 40910 23839 38889 53553 40760 39309 32353 35089 41520
is_linear=0
shrinkage=0.005


Tree=23
num_leaves=31
num_cat=0
split_feature=0 1 1 5 5 3 29 29 29 84 82 5 3 6 10 5 5 13 60 29 3 29 1 10 9 10 10 1 10 29
split_gain=4626.38 1673.17 1221.04 898.536 479.589 459.755 368.9 334.239 332.469 259.94 257.317 245.98 201.816 201.197 194.38 191.187 174.023 164.675 140.77 124.339 119.355 112.934 104.407 102.524 101.139 96.706 95.7128 92.6624 90.9576 89.9133
threshold=0.12737553980000002 -0.24580343874999996 1.0000000180025095e-35 0.023689685000000005 -0.0016784446999999999 -0.13218544999999998 -0.17577733079999996 1.0000000180025095e-35 1.0000000180025095e-35 5.1569120000000011 1.1692538500000003 -0.10371297199999999 1.0000000180025095e-35 0.42716235000000008 0.26605178000000007 0.21692696500000003 0.36061829000000006 -0.29601708999999993 1.3621219000000002 -0.17577733079999996 -0.21658607499999996 -0.17577733079999996 0.73548993000000007 0.073906870000000013 1.0229313750000002 -0.20499349499999997 0.25956040500000005 -1.0000000180025095e-35 0.31974479500000003 1.0000000180025095e-35
decision_type=2 2 2 2 2 2 2 2 2 2 2 2 2 2 2 2 2 2 2 2 2 2 2 2 2 2 2 2 2 2
left_child=1 5 4 6 14 9 20 17 15 11 -11 29 23 19 21 26 25 -5 -16 -6 -3 -2 -9 -8 -17 -7 -4 -14 -10 -1
right_child=2 3 8 7 13 16 12 22 28 10 -12 -13 27 -15 18 24 -18 -19 -20 -21 -22 -23 -24 -25 -26 -27 -28 -29 -30 -31
leaf_value=-0.0013938120354310072 -0.00048293024876829141 -0.00097520139860215842 0.00034721063742150775 -0.00021029242648957673 -7.0864021821978619e-06 -0.00094579939892046761 -0.00053281433267369355 0.00043598371572346788 0.0011597996779812816 -0.0042573663696300152 -0.025965621590614323 -0.00071501821166518797 -0.00010887648897222192 0.00094739445068765999 0.00059921370331472398 0.0009979628602851359 7.3394392792006548e-07 0.00022096296497113168 -0.00047552231773591736 0.00054355989152565852 -0.00048059699587370746 4.8685557478505997e-06 0.0010375821679072916 -6.5704213510629444e-05 0.0018900521162417848 -0.0004262255132316138 0.00089572548986260577 0.00037208840248305309 0.0016840726575295655 -0.00085479585956432542
leaf_weight=31236 18803 23226 20949 39992 14338 13287 36970 36060 16421 43 20 41209 25976 23452 16655 17768 17481 49578 3729 35973 25687 32159 9015 17218 3869 27473 12820 16297 16673 10284
leaf_count=31236 18803 23226 20949 39992 14338 13287 36970 36060 16421 43 20 41209 25976 23452 16655 17768 17481 49578 3729 35973 25687 32159 9015 17218 3869 27473 12820 16297 16673 10284
internal_value=0 -0.000312854 0.000564524 -8.91673e-05 0.000282222 -0.00075698 -0.000361748 0.000205134 0.0010274 -0.000996418 -0.0111489 -0.000988686 -0.000182392 0.00056492 -1.00537e-05 0.000790552 -0.000416609 2.84123e-05 0.000402604 0.000386633 -0.000715456 -0.00017511 0.000556303 -0.000384392 0.00115748 -0.000595597 0.000555448 7.65441e-05 0.00142393 -0.0012603
internal_weight=0 421052 233609 280019 145109 141033 145374 134645 88500 82792 63 82729 96461 73763 71346 55406 58241 89570 20384 50311 48913 50962 45075 54188 21637 40760 33769 42273 33094 41520
internal_count=654661 421052 233609 280019 145109 141033 145374 134645 88500 82792 63 82729 96461 73763 71346 55406 58241 89570 20384 50311 48913 50962 45075 54188 21637 40760 33769 42273 33094 41520
is_linear=0
shrinkage=0.005


Tree=24
num_leaves=31
num_cat=0
split_feature=0 1 2 5 0 10 2 5 84 10 5 7 6 60 6 5 10 82 6 60 5 6 60 60 10 60 2 10 10 60
split_gain=4580.24 1656.48 1230 890.406 455.899 451.964 432.787 395.004 309.486 257.501 244.49 238.207 202.961 180.986 199.846 174.419 167.379 166.016 148.857 141.985 140.598 129.404 156.029 129.082 114.676 113.649 109.906 104.838 104.509 99.1781
threshold=0.12737553980000002 -0.24580343874999996 0.068137981000000014 -0.15176379499999998 -0.37946873499999995 0.23767518500000004 1.0000000180025095e-35 -0.021081799499999998 5.1569120000000011 -0.22114966 0.3765613450000001 0.10417261000000001 0.42716235000000008 1.3621219000000002 1.0000000180025095e-35 -0.47859056499999991 0.04282460300000001 1.0174213500000002 -1.0000000180025095e-35 -0.73189455499999989 0.12126250250000002 0.14560405250000003 -1.1506978999999997 -1.5695010999999999 -0.30580083999999991 0.94331868000000019 0.068137981000000014 -0.38477764999999992 -0.25926334999999995 0.94331868000000019
decision_type=2 2 2 2 2 2 2 2 2 2 2 2 2 2 2 2 2 2 2 2 2 2 2 2 2 2 2 2 2 2
left_child=1 4 7 9 8 11 21 18 15 19 28 -4 23 14 -11 -1 -9 -10 -2 -3 25 22 -5 -8 -25 -7 -16 -24 -6 -14
right_child=2 3 5 6 10 20 12 16 17 13 -12 -13 29 -15 26 -17 -18 -19 -20 -21 -22 -23 27 24 -26 -27 -28 -29 -30 -31
leaf_value=-0.0014816596353244952 -0.00037475058299355553 -0.00026795757795265571 0.00038957544585631955 0.00051467382852814637 -0.00099704774649567347 0.0013350566670004976 0.0012675339383599563 0.00030662937821101247 -0.0065084915490526904 -0.0005541080905851623 -0.00010200014442905385 0.00098437374889986874 0.00095707147690013666 -0.0010737697499589773 -0.00025027003946473771 -0.00089214493436070815 0.0008618543547458796 -0.024305735751986503 0.000133237565670841 -0.00098448616524529024 0.0016056487816063106 0.00013881584730220361 -0.00096298048970537835 -0.00013840499139588369 0.00033984086918355472 0.00063101884225899075 0.00020728650277665551 -0.00028181382618813863 -0.00055002981160461105 0.00022554036932501313
leaf_weight=18870 25055 9636 35089 5313 19251 14249 2918 40910 38 26818 24652 32353 18778 6452 26490 37446 20314 20 33979 24473 22070 28555 6799 18260 39976 9590 26011 33389 40756 6151
leaf_count=18870 25055 9636 35089 5313 19251 14249 2918 40910 38 26818 24652 32353 18778 6452 26490 37446 20314 20 33979 24473 22070 28555 6799 18260 39976 9590 26011 33389 40756 6151
internal_value=0 -0.000311289 0.000561701 -8.87215e-05 -0.000753195 0.000935401 0.000155225 0.000209465 -0.00110156 -0.000414592 -0.000521217 0.00067491 0.000396316 -0.000268459 -0.000202953 -0.00108968 0.000490852 -0.0126455 -8.2361e-05 -0.000782062 0.00131807 -0.000125019 -0.000290594 0.000241307 0.000189886 0.00105183 -2.35791e-05 -0.000397054 -0.000693439 0.000776573
internal_weight=0 421052 233609 280019 141033 113351 160139 120258 56374 119880 84659 67442 86083 85771 79319 56316 61224 58 59034 34109 45909 74056 45501 61154 58236 23839 52501 40188 60007 24929
internal_count=654661 421052 233609 280019 141033 113351 160139 120258 56374 119880 84659 67442 86083 85771 79319 56316 61224 58 59034 34109 45909 74056 45501 61154 58236 23839 52501 40188 60007 24929
is_linear=0
shrinkage=0.005


Tree=25
num_leaves=31
num_cat=0
split_feature=0 2 2 5 3 5 5 10 5 84 29 29 10 10 29 3 10 29 60 10 29 5 94 60 10 60 29 60 60 29
split_gain=4471.42 1642.6 1192.85 670.789 652.338 430.634 370.601 348.883 336.367 315.943 244.902 219.953 216.553 198.772 186.27 156.167 154.33 153.762 144.583 132.062 116.539 108.76 106.075 101.322 123.178 98.8273 97.963 97.9105 97.3209 88.3584
threshold=0.12737553980000002 -0.012577826999999998 0.011700557000000002 0.33863762000000003 -0.37115245999999996 0.11332816200000002 -0.021081799499999998 -0.25926334999999995 0.015933726000000002 5.1569120000000011 1.0000000180025095e-35 -0.17577733079999996 0.04282460300000001 0.31974479500000003 1.0000000180025095e-35 -0.0065645380999999987 0.04282460300000001 -0.17577733079999996 -0.94129617999999993 0.31974479500000003 1.0000000180025095e-35 -0.12965954499999996 -0.060315849499999998 -1.1506978999999997 -0.30580083999999991 -1.7789027999999998 -0.17577733079999996 1.5715236000000001 1.3621219000000002 -0.17577733079999996
decision_type=2 2 2 2 2 2 2 2 2 2 2 2 2 2 2 2 2 2 2 2 2 2 2 2 2 2 2 2 2 2
left_child=1 4 6 7 9 12 19 18 17 11 15 -1 26 25 23 -9 29 -6 -3 -2 -10 -13 -11 -5 -25 -7 -4 -14 -21 -8
right_child=2 3 5 14 8 13 16 10 20 22 -12 21 27 -15 -16 -17 -18 -19 -20 28 -22 -23 -24 24 -26 -27 -28 -29 -30 -31
leaf_value=-0.0013221524666161119 -0.00025550078723174949 -2.2199541015615237e-05 1.5138832552826735e-05 0.00098031588881300545 -0.00097924380466140508 0.0023256674068060051 -8.6484517790751269e-05 -0.00041304947166212344 -0.00027945400081553411 -0.0067545277599630679 0.00030715365952295085 -0.0010374246215663549 0.0010965293397646786 0.0015763728753403967 0.00073655542316806348 4.3734661566533311e-05 0.00083903275845900174 -0.0004705084487173613 -0.00075705508298187741 0.00047845003780448372 0.00020196977171109309 -0.00056676855246593741 -0.020965036714915185 -0.000321191314031992 0.00029360776861618322 0.00092038040510879866 0.00055712339461738681 0.00028603426807625657 -0.00052922345140754947 0.00044072729786982882
leaf_weight=29190 40102 8526 12656 3834 23077 1301 11211 41751 40094 29 33130 22048 22394 23011 25364 33908 18887 41676 31143 12614 18312 27690 24 11074 30826 32609 24433 4470 2958 27299
leaf_count=29190 40102 8526 12656 3834 23077 1301 11211 41751 40094 29 33130 22048 22394 23011 25364 33908 18887 41676 31143 12614 18312 27690 24 11074 30826 32609 24433 4470 2958 27299
internal_value=0 -0.000305885 0.000556039 -6.45899e-06 -0.00063111 0.000901355 0.000186894 -0.000197716 -0.000403648 -0.000985802 -5.13496e-05 -0.000977607 0.0006198 0.00121769 0.0003929 -0.000208333 0.000468816 -0.000651814 -0.000599114 -0.000103753 -0.000128513 -0.000775402 -0.0131895 0.000202309 0.000131119 0.000974296 0.00037218 0.000961668 0.000287036 0.000287246
internal_weight=0 421696 233945 219556 202140 120874 113071 148458 123159 78981 108789 78928 63953 56921 71098 75659 57397 64753 39669 55674 58406 49738 53 45734 41900 33910 37089 26864 15572 38510
internal_count=655641 421696 233945 219556 202140 120874 113071 148458 123159 78981 108789 78928 63953 56921 71098 75659 57397 64753 39669 55674 58406 49738 53 45734 41900 33910 37089 26864 15572 38510
is_linear=0
shrinkage=0.005


Tree=26
num_leaves=31
num_cat=0
split_feature=0 1 1 29 80 0 7 84 29 2 2 29 7 7 3 29 10 3 2 76 26 2 9 0 3 80 2 29 6 84
split_gain=4426.82 1661.21 1212.2 769.713 468.461 452.652 443.269 410.511 326.679 274.941 217.983 213.76 210.964 163.941 163.722 154.245 147.973 143.963 137.992 118.427 113.604 102.935 93.2476 91.9648 91.8296 88.1893 87.1997 87.1284 82.9107 82.7009
threshold=0.12737553980000002 -0.24580343874999996 1.0000000180025095e-35 1.0000000180025095e-35 -0.10797399499999998 -0.37946873499999995 0.20291568000000001 5.1569120000000011 1.0000000180025095e-35 -1.0000000180025095e-35 0.026095720500000003 -0.17577733079999996 -0.0096537814999999982 0.095273498000000012 -0.0065645380999999987 -0.17577733079999996 0.04282460300000001 -1.0000000180025095e-35 -0.046434444999999998 1.1352769500000002 0.197599145 -0.012577826999999998 1.0000000180025095e-35 1.0000000180025095e-35 -0.082809754999999985 0.3940676600000001 0.82499441500000004 1.0000000180025095e-35 -0.98062914999999984 3.6569697000000008
decision_type=2 2 2 2 2 2 2 2 2 2 2 2 2 2 2 2 2 2 2 2 2 2 2 2 2 2 2 2 2 2
left_child=1 5 6 4 14 7 11 15 13 23 24 -2 27 -4 28 -1 21 -11 -13 -9 25 -8 -15 -6 -5 -12 -10 -7 -3 -18
right_child=2 3 8 10 9 12 16 19 26 17 20 18 -14 22 -16 -17 29 -19 -20 -21 -22 -23 -24 -25 -26 -27 -28 -29 -30 -31
leaf_value=-0.0014131743574124964 -0.00031663340233450645 -0.0013262368980256215 0.00053335976251610556 -0.00020072147217482656 -0.00050166426850416115 -0.0008819239199215034 0.00018510524767493473 -0.0089483264926820995 0.0011780522734156289 -3.1825278605236173e-05 0.00052379556306405065 -3.1224357519523045e-05 -0.0002576552695082185 0.00082687865469228212 -0.00028161754732199221 -0.00087485744506532166 0.0009307734144463469 0.00045766270985185233 0.00046262758083568929 -0.024229232640493484 0.0002292222971622084 0.00069064459346080938 0.0014486230768911345 -9.5182527911218088e-05 0.00029409325081705445 0.0010920168052797774 0.0016944768063859132 -0.00035935627223375027 -0.00066337561492610245 0.0069619193166625083
leaf_weight=21572 28201 5329 30429 19494 28702 33351 21307 32 18394 34544 17757 28229 40894 14818 33698 34731 20187 26579 28351 21 17232 19091 10169 27009 18066 11095 14712 10484 41106 57
leaf_count=21572 28201 5329 30429 19494 28702 33351 21307 32 18394 34544 17757 28229 40894 14818 33698 34731 20187 26579 28351 21 17232 19091 10169 27009 18066 11095 14712 10484 41106 57
internal_value=0 -0.000304356 0.000553259 -8.18348e-05 -0.000252483 -0.000746939 0.000272451 -0.0010942 0.00101457 -5.05393e-05 0.000320013 3.89845e-05 -0.000515964 0.000779799 -0.000546918 -0.00108111 0.00059885 0.000181026 0.000216234 -0.015003 0.00055045 0.000424009 0.00107991 -0.0003046 3.72797e-05 0.000742304 0.00140755 -0.000756942 -0.000739447 0.000947755
internal_weight=0 421696 233945 280611 196967 141085 145423 56356 88522 116834 83644 84781 84729 55416 80133 56303 60642 61123 56580 53 46084 40398 24987 55711 37560 28852 33106 43835 46435 20244
internal_count=655641 421696 233945 280611 196967 141085 145423 56356 88522 116834 83644 84781 84729 55416 80133 56303 60642 61123 56580 53 46084 40398 24987 55711 37560 28852 33106 43835 46435 20244
is_linear=0
shrinkage=0.005


Tree=27
num_leaves=31
num_cat=0
split_feature=0 1 1 5 5 2 0 84 29 6 5 29 10 29 10 5 5 5 2 60 13 23 84 2 0 0 60 9 29 2
split_gain=4382.66 1644.64 1200.11 806.402 476.498 458.958 448.137 406.417 323.42 247.687 233.117 225.855 178.695 174.577 173.876 170.155 153.896 152.832 130.746 127.276 124.492 107.762 107.112 106.4 102.622 101.977 97.2643 93.2175 92.9716 86.3299
threshold=0.12737553980000002 -0.24580343874999996 1.0000000180025095e-35 -0.37668729999999995 1.0000000180025095e-35 -1.0000000180025095e-35 -0.37946873499999995 5.1569120000000011 1.0000000180025095e-35 0.42716235000000008 0.095858327500000021 -0.17577733079999996 0.04282460300000001 -1.0000000180025095e-35 0.26605178000000007 -0.044712106499999994 0.82033407500000011 -0.16143148999999998 -0.16086145499999996 1.3621219000000002 0.15969504000000004 -0.48381261999999997 3.6569697000000008 -0.04975375549999999 -1.0000000180025095e-35 1.0000000180025095e-35 0.94331868000000019 1.0000000180025095e-35 -0.17577733079999996 0.82499441500000004
decision_type=2 2 2 2 2 2 2 2 2 2 2 2 2 2 2 2 2 2 2 2 2 2 2 2 2 2 2 2 2 2
left_child=1 6 4 11 14 13 7 17 15 16 28 -3 18 25 23 -4 24 -1 -6 -16 -13 -9 -14 -2 -7 -5 -11 -17 -8 -10
right_child=2 3 8 5 12 9 10 21 29 26 -12 20 22 -15 19 27 -18 -19 -20 -21 -22 -23 -24 -25 -26 -27 -28 -29 -30 -31
leaf_value=-0.0013423245085251725 -0.00039260224857893779 -0.00080977972667536479 0.00049045316538066225 -0.00050396198687771164 8.1499052863260021e-05 -0.00013859119761115495 -0.0010311199717238202 -0.020703629339113832 0.00117216200825688 0.00089225843405795163 -0.00021006070460796464 -0.00045961104377435107 0.00088515593025496875 0.00017765381402849362 0.00055905422807463873 0.00080842787282040896 0.00064009262216499605 -0.0008211797788471091 0.0006020769320959769 -0.00045378057438648291 2.6668425103957267e-05 -0.0061270657749403091 0.0071691875995191579 6.3724767280227894e-05 0.00027739033015526177 -9.8701244762087553e-05 0.00022754550140284793 0.0013903145914040235 -0.00057538923782192225 0.0016860044206155323
leaf_weight=27498 26782 32048 26882 31891 21044 30548 17528 32 18394 21480 36246 36780 24389 26554 16648 16942 14363 28805 28257 3812 20496 21 68 24423 28808 30244 7399 11592 30955 14712
leaf_count=27498 26782 32048 26882 31891 21044 30548 17528 32 18394 21480 36246 36780 24389 26554 16648 16942 14363 28805 28257 3812 20496 21 68 24423 28808 30244 7399 11592 30955 14712
internal_value=0 -0.000302834 0.000550493 -8.14256e-05 0.000271089 0.000101736 -0.000743205 -0.00108873 0.0010095 0.000329445 -0.000513384 -0.000473666 0.000553208 -0.000161684 -1.92702e-05 0.0007759 0.000175681 -0.0010757 0.00037987 0.000370348 -0.000285598 -0.014928 0.000902628 -0.00017495 6.33024e-05 -0.000306703 0.000721954 0.00104482 -0.000740149 0.00140051
internal_weight=0 421696 233945 280611 145423 191287 141085 56356 88522 102598 84729 89324 73758 88689 71665 55416 73719 56303 49301 20460 57276 53 24457 51205 59356 62135 28879 28534 48483 33106
internal_count=655641 421696 233945 280611 145423 191287 141085 56356 88522 102598 84729 89324 73758 88689 71665 55416 73719 56303 49301 20460 57276 53 24457 51205 59356 62135 28879 28534 48483 33106
is_linear=0
shrinkage=0.005


Tree=28
num_leaves=31
num_cat=0
split_feature=0 1 1 5 5 2 0 84 29 6 5 29 10 29 10 5 29 5 2 60 13 76 29 84 2 3 0 60 9 2
split_gain=4338.95 1628.24 1188.14 798.358 471.745 454.38 443.667 402.363 320.194 245.216 231.354 223.602 176.912 172.835 172.141 168.458 152.511 152.36 129.442 126.006 123.25 116.598 112.343 106.043 105.339 103.6 100.959 96.2941 92.2876 85.4687
threshold=0.12737553980000002 -0.24580343874999996 1.0000000180025095e-35 -0.37668729999999995 1.0000000180025095e-35 -1.0000000180025095e-35 -0.37946873499999995 5.1569120000000011 1.0000000180025095e-35 0.42716235000000008 0.37009738000000009 -0.17577733079999996 0.04282460300000001 1.0000000180025095e-35 0.26605178000000007 -0.044712106499999994 -0.17577733079999996 0.82033407500000011 -0.16086145499999996 1.3621219000000002 0.15969504000000004 1.1352769500000002 -0.17577733079999996 3.6569697000000008 -0.04975375549999999 -0.033070491499999993 1.0000000180025095e-35 0.94331868000000019 1.0000000180025095e-35 0.82499441500000004
decision_type=2 2 2 2 2 2 2 2 2 2 2 2 2 2 2 2 2 2 2 2 2 2 2 2 2 2 2 2 2 2
left_child=1 6 4 11 14 13 7 16 15 17 22 -3 18 26 24 -4 -1 25 -6 -16 -13 -9 -8 -14 -2 -7 -5 -11 -17 -10
